<?xml version="1.0"?>
<opencv_storage>
<cascade>
  <stageType>BOOST</stageType>
  <featureType>HAAR</featureType>
  <height>20</height>
  <width>20</width>
  <stageParams>
    <boostType>GAB</boostType>
    <minHitRate>9.9900001287460327e-01</minHitRate>
    <maxFalseAlarm>5.0000000000000000e-01</maxFalseAlarm>
    <weightTrimRate>9.4999999999999996e-01</weightTrimRate>
    <maxDepth>1</maxDepth>
    <maxWeakCount>100</maxWeakCount></stageParams>
  <featureParams>
    <maxCatCount>0</maxCatCount>
    <featSize>1</featSize>
    <mode>ALL</mode></featureParams>
  <stageNum>25</stageNum>
  <stages>
    <!-- stage 0 -->
    <_>
      <maxWeakCount>9</maxWeakCount>
      <stageThreshold>-1.8049252033233643e+00</stageThreshold>
      <weakClassifiers>
        <_>
          <internalNodes>
            0 -1 747 1.5834150835871696e-02</internalNodes>
          <leafValues>
            -3.1121718883514404e-01 8.9480251073837280e-01</leafValues></_>
        <_>
          <internalNodes>
            0 -1 649 9.1067682951688766e-03</internalNodes>
          <leafValues>
            -5.4086536169052124e-01 6.3246995210647583e-01</leafValues></_>
        <_>
          <internalNodes>
            0 -1 514 -1.4019146561622620e-01</internalNodes>
          <leafValues>
            -7.8384846448898315e-01 3.6557802557945251e-01</leafValues></_>
        <_>
          <internalNodes>
            0 -1 806 2.9381311032921076e-03</internalNodes>
          <leafValues>
            -3.3935713768005371e-01 8.3023846149444580e-01</leafValues></_>
        <_>
          <internalNodes>
            0 -1 843 1.4128539478406310e-03</internalNodes>
          <leafValues>
            -3.8679793477058411e-01 7.7777862548828125e-01</leafValues></_>
        <_>
          <internalNodes>
            0 -1 797 3.1405841000378132e-03</internalNodes>
          <leafValues>
            -2.4510240554809570e-01 7.4112373590469360e-01</leafValues></_>
        <_>
          <internalNodes>
            0 -1 807 2.6293490082025528e-03</internalNodes>
          <leafValues>
            -2.7632990479469299e-01 6.9396793842315674e-01</leafValues></_>
        <_>
          <internalNodes>
            0 -1 718 -7.6769441366195679e-02</internalNodes>
          <leafValues>
            -7.9999744892120361e-01 2.7219176292419434e-01</leafValues></_>
        <_>
          <internalNodes>
            0 -1 815 1.2645063688978553e-03</internalNodes>
          <leafValues>
            -3.5817512869834900e-01 6.4048224687576294e-01</leafValues></_></weakClassifiers></_>
    <!-- stage 1 -->
    <_>
      <maxWeakCount>16</maxWeakCount>
      <stageThreshold>-1.7163316011428833e+00</stageThreshold>
      <weakClassifiers>
        <_>
          <internalNodes>
            0 -1 601 5.6700751185417175e-02</internalNodes>
          <leafValues>
            -1.6399827599525452e-01 8.5838282108306885e-01</leafValues></_>
        <_>
          <internalNodes>
            0 -1 748 -2.6223599910736084e-02</internalNodes>
          <leafValues>
            6.3469296693801880e-01 -3.2953521609306335e-01</leafValues></_>
        <_>
          <internalNodes>
            0 -1 654 -3.7208767025731504e-05</internalNodes>
          <leafValues>
            3.4037160873413086e-01 -6.0120064020156860e-01</leafValues></_>
        <_>
          <internalNodes>
            0 -1 744 3.5485941916704178e-02</internalNodes>
          <leafValues>
            -2.4492658674716949e-01 7.9377186298370361e-01</leafValues></_>
        <_>
          <internalNodes>
            0 -1 505 -5.5943299084901810e-02</internalNodes>
          <leafValues>
            7.6929318904876709e-01 -1.8293739855289459e-01</leafValues></_>
        <_>
          <internalNodes>
            0 -1 523 1.3173811137676239e-02</internalNodes>
          <leafValues>
            -2.5630709528923035e-01 5.2575355768203735e-01</leafValues></_>
        <_>
          <internalNodes>
            0 -1 539 -4.2088138870894909e-03</internalNodes>
          <leafValues>
            4.8794746398925781e-01 -2.7349939942359924e-01</leafValues></_>
        <_>
          <internalNodes>
            0 -1 425 6.9578411057591438e-04</internalNodes>
          <leafValues>
            2.4764417111873627e-01 -5.9227061271667480e-01</leafValues></_>
        <_>
          <internalNodes>
            0 -1 901 9.3814497813582420e-04</internalNodes>
          <leafValues>
            2.1887199580669403e-01 -5.0912445783615112e-01</leafValues></_>
        <_>
          <internalNodes>
            0 -1 596 7.1266785264015198e-02</internalNodes>
          <leafValues>
            -1.6241182386875153e-01 7.4711668491363525e-01</leafValues></_>
        <_>
          <internalNodes>
            0 -1 15 -3.2401096820831299e-01</internalNodes>
          <leafValues>
            -9.3076485395431519e-01 1.4310812950134277e-01</leafValues></_>
        <_>
          <internalNodes>
            0 -1 5 4.4526129961013794e-01</internalNodes>
          <leafValues>
            1.2049499154090881e-01 -7.7732408046722412e-01</leafValues></_>
        <_>
          <internalNodes>
            0 -1 940 -1.1493802303448319e-03</internalNodes>
          <leafValues>
            -6.2033712863922119e-01 1.4939899742603302e-01</leafValues></_>
        <_>
          <internalNodes>
            0 -1 883 3.0332831665873528e-03</internalNodes>
          <leafValues>
            -2.1153202652931213e-01 5.7465672492980957e-01</leafValues></_>
        <_>
          <internalNodes>
            0 -1 652 4.3654745240928605e-05</internalNodes>
          <leafValues>
            -3.9611163735389709e-01 3.1436455249786377e-01</leafValues></_>
        <_>
          <internalNodes>
            0 -1 425 -1.1083772405982018e-03</internalNodes>
          <leafValues>
            -6.0948175191879272e-01 1.8421281874179840e-01</leafValues></_></weakClassifiers></_>
    <!-- stage 2 -->
    <_>
      <maxWeakCount>21</maxWeakCount>
      <stageThreshold>-1.7829751968383789e+00</stageThreshold>
      <weakClassifiers>
        <_>
          <internalNodes>
            0 -1 688 1.9826177507638931e-02</internalNodes>
          <leafValues>
            -1.5692029893398285e-01 8.0835705995559692e-01</leafValues></_>
        <_>
          <internalNodes>
            0 -1 53 6.4206346869468689e-02</internalNodes>
          <leafValues>
            -2.1400947868824005e-01 6.5870934724807739e-01</leafValues></_>
        <_>
          <internalNodes>
            0 -1 657 1.5164071555773262e-05</internalNodes>
          <leafValues>
            -4.2388463020324707e-01 3.0751693248748779e-01</leafValues></_>
        <_>
          <internalNodes>
            0 -1 684 1.4911640435457230e-02</internalNodes>
          <leafValues>
            2.4711216986179352e-01 -5.3878217935562134e-01</leafValues></_>
        <_>
          <internalNodes>
            0 -1 510 7.7097482979297638e-02</internalNodes>
          <leafValues>
            -1.8077708780765533e-01 7.3435479402542114e-01</leafValues></_>
        <_>
          <internalNodes>
            0 -1 644 -1.4511109329760075e-03</internalNodes>
          <leafValues>
            5.1870429515838623e-01 -2.2459733486175537e-01</leafValues></_>
        <_>
          <internalNodes>
            0 -1 614 -7.8457240015268326e-03</internalNodes>
          <leafValues>
            -6.9260865449905396e-01 1.5534983575344086e-01</leafValues></_>
        <_>
          <internalNodes>
            0 -1 485 -8.5030710324645042e-03</internalNodes>
          <leafValues>
            -7.2805768251419067e-01 1.2950871884822845e-01</leafValues></_>
        <_>
          <internalNodes>
            0 -1 340 5.4392062127590179e-02</internalNodes>
          <leafValues>
            -1.4724907279014587e-01 7.2421431541442871e-01</leafValues></_>
        <_>
          <internalNodes>
            0 -1 713 1.5902814920991659e-03</internalNodes>
          <leafValues>
            -1.8847973644733429e-01 4.5093166828155518e-01</leafValues></_>
        <_>
          <internalNodes>
            0 -1 712 -1.4049350284039974e-03</internalNodes>
          <leafValues>
            4.5268109440803528e-01 -2.2068923711776733e-01</leafValues></_>
        <_>
          <internalNodes>
            0 -1 576 -1.8718872452154756e-03</internalNodes>
          <leafValues>
            -6.6890841722488403e-01 1.6736313700675964e-01</leafValues></_>
        <_>
          <internalNodes>
            0 -1 787 5.6280575692653656e-02</internalNodes>
          <leafValues>
            -1.7641150951385498e-01 5.7791429758071899e-01</leafValues></_>
        <_>
          <internalNodes>
            0 -1 546 1.9631752744317055e-02</internalNodes>
          <leafValues>
            -1.4079374074935913e-01 5.7531327009201050e-01</leafValues></_>
        <_>
          <internalNodes>
            0 -1 454 1.0997599363327026e-01</internalNodes>
          <leafValues>
            -1.4321552217006683e-01 5.9583425521850586e-01</leafValues></_>
        <_>
          <internalNodes>
            0 -1 864 2.3108064197003841e-03</internalNodes>
          <leafValues>
            2.0450359582901001e-01 -4.6689161658287048e-01</leafValues></_>
        <_>
          <internalNodes>
            0 -1 351 6.3494168221950531e-02</internalNodes>
          <leafValues>
            -1.4559964835643768e-01 6.6634756326675415e-01</leafValues></_>
        <_>
          <internalNodes>
            0 -1 901 -9.5050071831792593e-04</internalNodes>
          <leafValues>
            -4.3513926863670349e-01 2.0480757951736450e-01</leafValues></_>
        <_>
          <internalNodes>
            0 -1 749 1.5205371892079711e-03</internalNodes>
          <leafValues>
            -2.2958391904830933e-01 3.8925161957740784e-01</leafValues></_>
        <_>
          <internalNodes>
            0 -1 760 8.0035794526338577e-03</internalNodes>
          <leafValues>
            -1.9012051820755005e-01 4.6619686484336853e-01</leafValues></_>
        <_>
          <internalNodes>
            0 -1 806 6.3184490427374840e-03</internalNodes>
          <leafValues>
            -1.5400020778179169e-01 6.2255108356475830e-01</leafValues></_></weakClassifiers></_>
    <!-- stage 3 -->
    <_>
      <maxWeakCount>23</maxWeakCount>
      <stageThreshold>-1.7331837415695190e+00</stageThreshold>
      <weakClassifiers>
        <_>
          <internalNodes>
            0 -1 166 -8.0423191189765930e-02</internalNodes>
          <leafValues>
            8.5641574859619141e-01 -3.7402696907520294e-02</leafValues></_>
        <_>
          <internalNodes>
            0 -1 218 1.2761668767780066e-04</internalNodes>
          <leafValues>
            -5.4359513521194458e-01 3.8468292355537415e-01</leafValues></_>
        <_>
          <internalNodes>
            0 -1 716 8.7730847299098969e-03</internalNodes>
          <leafValues>
            -2.8041061758995056e-01 4.8243856430053711e-01</leafValues></_>
        <_>
          <internalNodes>
            0 -1 667 1.9799007568508387e-03</internalNodes>
          <leafValues>
            -3.0147483944892883e-01 3.9132785797119141e-01</leafValues></_>
        <_>
          <internalNodes>
            0 -1 809 -8.6371945217251778e-03</internalNodes>
          <leafValues>
            7.1618884801864624e-01 -1.7082381248474121e-01</leafValues></_>
        <_>
          <internalNodes>
            0 -1 329 4.5542514271801338e-05</internalNodes>
          <leafValues>
            -4.2731410264968872e-01 2.4671022593975067e-01</leafValues></_>
        <_>
          <internalNodes>
            0 -1 849 2.0649475045502186e-03</internalNodes>
          <leafValues>
            -2.2037053108215332e-01 4.8562982678413391e-01</leafValues></_>
        <_>
          <internalNodes>
            0 -1 683 -3.2678227871656418e-02</internalNodes>
          <leafValues>
            -7.4468141794204712e-01 1.4774195849895477e-01</leafValues></_>
        <_>
          <internalNodes>
            0 -1 775 -3.8849987089633942e-02</internalNodes>
          <leafValues>
            -6.2770926952362061e-01 1.1909729242324829e-01</leafValues></_>
        <_>
          <internalNodes>
            0 -1 248 1.2547848746180534e-03</internalNodes>
          <leafValues>
            1.5895535051822662e-01 -5.0361406803131104e-01</leafValues></_>
        <_>
          <internalNodes>
            0 -1 542 -4.0817013359628618e-04</internalNodes>
          <leafValues>
            3.1087088584899902e-01 -2.8181064128875732e-01</leafValues></_>
        <_>
          <internalNodes>
            0 -1 337 -9.0567924780771136e-04</internalNodes>
          <leafValues>
            -5.8971184492111206e-01 1.6406348347663879e-01</leafValues></_>
        <_>
          <internalNodes>
            0 -1 608 1.8188757821917534e-03</internalNodes>
          <leafValues>
            -2.3506662249565125e-01 4.1691833734512329e-01</leafValues></_>
        <_>
          <internalNodes>
            0 -1 373 3.2955047208815813e-04</internalNodes>
          <leafValues>
            -2.9184755682945251e-01 2.8846389055252075e-01</leafValues></_>
        <_>
          <internalNodes>
            0 -1 573 -4.5732213184237480e-03</internalNodes>
          <leafValues>
            -8.6279743909835815e-01 1.0003756731748581e-01</leafValues></_>
        <_>
          <internalNodes>
            0 -1 639 -1.7464052652940154e-03</internalNodes>
          <leafValues>
            5.1215976476669312e-01 -2.0196898281574249e-01</leafValues></_>
        <_>
          <internalNodes>
            0 -1 640 5.9785917401313782e-03</internalNodes>
          <leafValues>
            -1.9859331846237183e-01 4.3415448069572449e-01</leafValues></_>
        <_>
          <internalNodes>
            0 -1 436 1.5774253755807877e-02</internalNodes>
          <leafValues>
            1.5118014812469482e-01 -6.1726683378219604e-01</leafValues></_>
        <_>
          <internalNodes>
            0 -1 511 8.3203956484794617e-02</internalNodes>
          <leafValues>
            -1.7781673371791840e-01 6.4918392896652222e-01</leafValues></_>
        <_>
          <internalNodes>
            0 -1 634 -5.3069833666086197e-04</internalNodes>
          <leafValues>
            3.7540799379348755e-01 -2.3346346616744995e-01</leafValues></_>
        <_>
          <internalNodes>
            0 -1 462 1.6804395272629336e-05</internalNodes>
          <leafValues>
            -2.8340515494346619e-01 2.9520770907402039e-01</leafValues></_>
        <_>
          <internalNodes>
            0 -1 81 -8.3363614976406097e-03</internalNodes>
          <leafValues>
            -6.5927523374557495e-01 1.2783977389335632e-01</leafValues></_>
        <_>
          <internalNodes>
            0 -1 731 4.5262495405040681e-05</internalNodes>
          <leafValues>
            -3.1361749768257141e-01 2.4421799182891846e-01</leafValues></_></weakClassifiers></_>
    <!-- stage 4 -->
    <_>
      <maxWeakCount>22</maxWeakCount>
      <stageThreshold>-1.5087453126907349e+00</stageThreshold>
      <weakClassifiers>
        <_>
          <internalNodes>
            0 -1 689 2.1884353831410408e-02</internalNodes>
          <leafValues>
            -1.6422082483768463e-01 7.8712558746337891e-01</leafValues></_>
        <_>
          <internalNodes>
            0 -1 475 -1.2703696265816689e-02</internalNodes>
          <leafValues>
            5.8150601387023926e-01 -2.0390005409717560e-01</leafValues></_>
        <_>
          <internalNodes>
            0 -1 907 2.0384084433317184e-02</internalNodes>
          <leafValues>
            -1.8532419204711914e-01 6.7104214429855347e-01</leafValues></_>
        <_>
          <internalNodes>
            0 -1 638 -8.8642332702875137e-03</internalNodes>
          <leafValues>
            5.3427994251251221e-01 -2.2865229845046997e-01</leafValues></_>
        <_>
          <internalNodes>
            0 -1 266 -2.4222051724791527e-02</internalNodes>
          <leafValues>
            -7.9754984378814697e-01 1.5588434040546417e-01</leafValues></_>
        <_>
          <internalNodes>
            0 -1 598 1.9735684990882874e-01</internalNodes>
          <leafValues>
            -1.7418572306632996e-01 6.7928749322891235e-01</leafValues></_>
        <_>
          <internalNodes>
            0 -1 815 1.2041400186717510e-03</internalNodes>
          <leafValues>
            -2.0930017530918121e-01 3.6070066690444946e-01</leafValues></_>
        <_>
          <internalNodes>
            0 -1 817 1.2020833091810346e-03</internalNodes>
          <leafValues>
            -2.5176870822906494e-01 3.3319658041000366e-01</leafValues></_>
        <_>
          <internalNodes>
            0 -1 582 -1.4350848505273461e-03</internalNodes>
          <leafValues>
            -6.0920733213424683e-01 1.4698007702827454e-01</leafValues></_>
        <_>
          <internalNodes>
            0 -1 512 -1.0781679302453995e-01</internalNodes>
          <leafValues>
            7.7005034685134888e-01 -1.1641887575387955e-01</leafValues></_>
        <_>
          <internalNodes>
            0 -1 434 2.3078428581357002e-02</internalNodes>
          <leafValues>
            -1.3201054930686951e-01 5.7169967889785767e-01</leafValues></_>
        <_>
          <internalNodes>
            0 -1 694 -3.0277874320745468e-02</internalNodes>
          <leafValues>
            -7.9799091815948486e-01 9.7707308828830719e-02</leafValues></_>
        <_>
          <internalNodes>
            0 -1 549 -2.7614856138825417e-02</internalNodes>
          <leafValues>
            -7.1226429939270020e-01 1.0115036368370056e-01</leafValues></_>
        <_>
          <internalNodes>
            0 -1 471 -7.2739673778414726e-03</internalNodes>
          <leafValues>
            5.6169939041137695e-01 -1.8175962567329407e-01</leafValues></_>
        <_>
          <internalNodes>
            0 -1 673 6.1257742345333099e-04</internalNodes>
          <leafValues>
            1.9876417517662048e-01 -4.0561050176620483e-01</leafValues></_>
        <_>
          <internalNodes>
            0 -1 673 -5.2698119543492794e-04</internalNodes>
          <leafValues>
            -4.0900561213493347e-01 1.9274777173995972e-01</leafValues></_>
        <_>
          <internalNodes>
            0 -1 966 -3.1520074699074030e-03</internalNodes>
          <leafValues>
            5.1276445388793945e-01 -1.6342984139919281e-01</leafValues></_>
        <_>
          <internalNodes>
            0 -1 93 3.0398820526897907e-03</internalNodes>
          <leafValues>
            -3.3376166224479675e-01 2.4274672567844391e-01</leafValues></_>
        <_>
          <internalNodes>
            0 -1 623 1.8079817295074463e-02</internalNodes>
          <leafValues>
            -1.3181219995021820e-01 5.8890217542648315e-01</leafValues></_>
        <_>
          <internalNodes>
            0 -1 621 -3.9272187277674675e-03</internalNodes>
          <leafValues>
            3.5948550701141357e-01 -2.3647385835647583e-01</leafValues></_>
        <_>
          <internalNodes>
            0 -1 22 1.4507637359201908e-02</internalNodes>
          <leafValues>
            -2.8051513433456421e-01 3.1412115693092346e-01</leafValues></_>
        <_>
          <internalNodes>
            0 -1 409 4.5453179627656937e-03</internalNodes>
          <leafValues>
            8.2316458225250244e-02 -8.5151004791259766e-01</leafValues></_></weakClassifiers></_>
    <!-- stage 5 -->
    <_>
      <maxWeakCount>19</maxWeakCount>
      <stageThreshold>-1.7399291992187500e+00</stageThreshold>
      <weakClassifiers>
        <_>
          <internalNodes>
            0 -1 654 -1.6673463687766343e-04</internalNodes>
          <leafValues>
            5.7322669029235840e-01 -3.8762795925140381e-01</leafValues></_>
        <_>
          <internalNodes>
            0 -1 894 -6.0481391847133636e-04</internalNodes>
          <leafValues>
            6.4371252059936523e-01 -2.6746395230293274e-01</leafValues></_>
        <_>
          <internalNodes>
            0 -1 267 4.4405678636394441e-05</internalNodes>
          <leafValues>
            -4.2886334657669067e-01 3.4961500763893127e-01</leafValues></_>
        <_>
          <internalNodes>
            0 -1 948 7.4617671780288219e-03</internalNodes>
          <leafValues>
            -2.6326680183410645e-01 5.6509393453598022e-01</leafValues></_>
        <_>
          <internalNodes>
            0 -1 892 1.0990883456543088e-03</internalNodes>
          <leafValues>
            -2.9703670740127563e-01 4.8523503541946411e-01</leafValues></_>
        <_>
          <internalNodes>
            0 -1 145 4.6845554606989026e-04</internalNodes>
          <leafValues>
            -3.7214595079421997e-01 3.1067225337028503e-01</leafValues></_>
        <_>
          <internalNodes>
            0 -1 557 1.9513322040438652e-03</internalNodes>
          <leafValues>
            -1.7214788496494293e-01 6.3026070594787598e-01</leafValues></_>
        <_>
          <internalNodes>
            0 -1 721 -1.0372789576649666e-02</internalNodes>
          <leafValues>
            5.2771037817001343e-01 -2.2928388416767120e-01</leafValues></_>
        <_>
          <internalNodes>
            0 -1 617 1.2131847441196442e-02</internalNodes>
          <leafValues>
            1.5587668120861053e-01 -8.4340327978134155e-01</leafValues></_>
        <_>
          <internalNodes>
            0 -1 650 1.8927463097497821e-03</internalNodes>
          <leafValues>
            -3.6096405982971191e-01 3.4097650647163391e-01</leafValues></_>
        <_>
          <internalNodes>
            0 -1 938 -1.0830552782863379e-03</internalNodes>
          <leafValues>
            5.4659116268157959e-01 -1.9451110064983368e-01</leafValues></_>
        <_>
          <internalNodes>
            0 -1 843 2.1742642857134342e-03</internalNodes>
          <leafValues>
            -1.7784591019153595e-01 4.6256780624389648e-01</leafValues></_>
        <_>
          <internalNodes>
            0 -1 847 1.7604958266019821e-03</internalNodes>
          <leafValues>
            -2.4160401523113251e-01 4.4848096370697021e-01</leafValues></_>
        <_>
          <internalNodes>
            0 -1 792 9.4167492352426052e-04</internalNodes>
          <leafValues>
            -2.6120886206626892e-01 4.0983995795249939e-01</leafValues></_>
        <_>
          <internalNodes>
            0 -1 639 -1.1839312501251698e-03</internalNodes>
          <leafValues>
            4.9509316682815552e-01 -1.8938465416431427e-01</leafValues></_>
        <_>
          <internalNodes>
            0 -1 330 1.6398302250308916e-05</internalNodes>
          <leafValues>
            -3.2451415061950684e-01 2.9258149862289429e-01</leafValues></_>
        <_>
          <internalNodes>
            0 -1 231 5.8462601155042648e-03</internalNodes>
          <leafValues>
            1.1011403053998947e-01 -8.3816385269165039e-01</leafValues></_>
        <_>
          <internalNodes>
            0 -1 144 2.4589814711362123e-04</internalNodes>
          <leafValues>
            -3.7012010812759399e-01 2.5650909543037415e-01</leafValues></_>
        <_>
          <internalNodes>
            0 -1 551 -2.5369748473167419e-03</internalNodes>
          <leafValues>
            4.6368721127510071e-01 -1.8511283397674561e-01</leafValues></_></weakClassifiers></_>
    <!-- stage 6 -->
    <_>
      <maxWeakCount>27</maxWeakCount>
      <stageThreshold>-1.4767345190048218e+00</stageThreshold>
      <weakClassifiers>
        <_>
          <internalNodes>
            0 -1 523 1.1467518284916878e-02</internalNodes>
          <leafValues>
            -9.1471992433071136e-02 6.1042773723602295e-01</leafValues></_>
        <_>
          <internalNodes>
            0 -1 907 2.6373162865638733e-02</internalNodes>
          <leafValues>
            -1.2611760199069977e-01 6.9578629732131958e-01</leafValues></_>
        <_>
          <internalNodes>
            0 -1 91 4.9984985962510109e-03</internalNodes>
          <leafValues>
            -5.0518113374710083e-01 2.3792290687561035e-01</leafValues></_>
        <_>
          <internalNodes>
            0 -1 539 -5.2157584577798843e-03</internalNodes>
          <leafValues>
            3.7134096026420593e-01 -2.8056219220161438e-01</leafValues></_>
        <_>
          <internalNodes>
            0 -1 599 -5.0012186169624329e-02</internalNodes>
          <leafValues>
            -6.3267117738723755e-01 1.8271978199481964e-01</leafValues></_>
        <_>
          <internalNodes>
            0 -1 179 -4.7769762575626373e-02</internalNodes>
          <leafValues>
            -8.7583756446838379e-01 9.6160769462585449e-02</leafValues></_>
        <_>
          <internalNodes>
            0 -1 745 -3.6514952778816223e-02</internalNodes>
          <leafValues>
            -6.9058430194854736e-01 9.5484197139739990e-02</leafValues></_>
        <_>
          <internalNodes>
            0 -1 200 5.5152751505374908e-02</internalNodes>
          <leafValues>
            5.1435511559247971e-02 -8.4299075603485107e-01</leafValues></_>
        <_>
          <internalNodes>
            0 -1 883 3.4868256188929081e-03</internalNodes>
          <leafValues>
            -1.7446531355381012e-01 5.0503242015838623e-01</leafValues></_>
        <_>
          <internalNodes>
            0 -1 648 -4.0354542434215546e-03</internalNodes>
          <leafValues>
            2.3832385241985321e-01 -3.8223016262054443e-01</leafValues></_>
        <_>
          <internalNodes>
            0 -1 557 2.9718473087996244e-03</internalNodes>
          <leafValues>
            -1.9327071309089661e-01 5.0302976369857788e-01</leafValues></_>
        <_>
          <internalNodes>
            0 -1 882 3.2857668120414019e-03</internalNodes>
          <leafValues>
            -1.2479899823665619e-01 5.4464626312255859e-01</leafValues></_>
        <_>
          <internalNodes>
            0 -1 84 7.6509811915457249e-03</internalNodes>
          <leafValues>
            8.2723811268806458e-02 -7.7934366464614868e-01</leafValues></_>
        <_>
          <internalNodes>
            0 -1 294 -7.7069737017154694e-03</internalNodes>
          <leafValues>
            -6.4416307210922241e-01 1.0042048245668411e-01</leafValues></_>
        <_>
          <internalNodes>
            0 -1 886 2.6451931335031986e-03</internalNodes>
          <leafValues>
            -1.5212276577949524e-01 4.7466307878494263e-01</leafValues></_>
        <_>
          <internalNodes>
            0 -1 862 -4.1268803761340678e-04</internalNodes>
          <leafValues>
            -4.5633333921432495e-01 1.5779860317707062e-01</leafValues></_>
        <_>
          <internalNodes>
            0 -1 862 3.5509021836332977e-04</internalNodes>
          <leafValues>
            1.6978326439857483e-01 -4.7385898232460022e-01</leafValues></_>
        <_>
          <internalNodes>
            0 -1 749 2.4020688142627478e-03</internalNodes>
          <leafValues>
            -1.9007055461406708e-01 4.3538561463356018e-01</leafValues></_>
        <_>
          <internalNodes>
            0 -1 597 1.2881356477737427e-01</internalNodes>
          <leafValues>
            -1.3526839017868042e-01 5.4946798086166382e-01</leafValues></_>
        <_>
          <internalNodes>
            0 -1 551 -3.5150116309523582e-03</internalNodes>
          <leafValues>
            5.3167229890823364e-01 -1.5677674114704132e-01</leafValues></_>
        <_>
          <internalNodes>
            0 -1 753 1.9991532899439335e-03</internalNodes>
          <leafValues>
            -1.9666196405887604e-01 3.9447355270385742e-01</leafValues></_>
        <_>
          <internalNodes>
            0 -1 693 -1.2273667380213737e-02</internalNodes>
          <leafValues>
            -6.4949560165405273e-01 1.1094544827938080e-01</leafValues></_>
        <_>
          <internalNodes>
            0 -1 439 -9.1792910825461149e-04</internalNodes>
          <leafValues>
            3.5449805855751038e-01 -2.0271000266075134e-01</leafValues></_>
        <_>
          <internalNodes>
            0 -1 817 1.4992380747571588e-03</internalNodes>
          <leafValues>
            -1.9844600558280945e-01 3.5180631279945374e-01</leafValues></_>
        <_>
          <internalNodes>
            0 -1 242 5.2702122047776356e-05</internalNodes>
          <leafValues>
            -3.0851280689239502e-01 2.2438563406467438e-01</leafValues></_>
        <_>
          <internalNodes>
            0 -1 83 3.6498287227004766e-04</internalNodes>
          <leafValues>
            -3.7592595815658569e-01 2.0561254024505615e-01</leafValues></_>
        <_>
          <internalNodes>
            0 -1 478 8.7976950453594327e-04</internalNodes>
          <leafValues>
            -2.0356146991252899e-01 3.0571946501731873e-01</leafValues></_></weakClassifiers></_>
    <!-- stage 7 -->
    <_>
      <maxWeakCount>31</maxWeakCount>
      <stageThreshold>-1.6308181285858154e+00</stageThreshold>
      <weakClassifiers>
        <_>
          <internalNodes>
            0 -1 518 8.0682158470153809e-02</internalNodes>
          <leafValues>
            1.2369172647595406e-02 7.8371161222457886e-01</leafValues></_>
        <_>
          <internalNodes>
            0 -1 371 5.5734277702867985e-03</internalNodes>
          <leafValues>
            2.1946907043457031e-01 -6.4216029644012451e-01</leafValues></_>
        <_>
          <internalNodes>
            0 -1 866 -3.2256972044706345e-02</internalNodes>
          <leafValues>
            7.4116271734237671e-01 -1.4071539044380188e-01</leafValues></_>
        <_>
          <internalNodes>
            0 -1 398 -6.5160309895873070e-03</internalNodes>
          <leafValues>
            3.4273356199264526e-01 -2.5979378819465637e-01</leafValues></_>
        <_>
          <internalNodes>
            0 -1 565 2.4343328550457954e-03</internalNodes>
          <leafValues>
            -1.7891797423362732e-01 5.1709330081939697e-01</leafValues></_>
        <_>
          <internalNodes>
            0 -1 497 -3.2202869188040495e-03</internalNodes>
          <leafValues>
            -7.7302795648574829e-01 1.1731906235218048e-01</leafValues></_>
        <_>
          <internalNodes>
            0 -1 146 -1.5005917521193624e-03</internalNodes>
          <leafValues>
            -4.9311372637748718e-01 1.5720024704933167e-01</leafValues></_>
        <_>
          <internalNodes>
            0 -1 256 -3.4698165953159332e-02</internalNodes>
          <leafValues>
            -7.3546850681304932e-01 1.0377173125743866e-01</leafValues></_>
        <_>
          <internalNodes>
            0 -1 210 6.7004188895225525e-03</internalNodes>
          <leafValues>
            7.4617542326450348e-02 -7.9377675056457520e-01</leafValues></_>
        <_>
          <internalNodes>
            0 -1 692 -1.5139007940888405e-02</internalNodes>
          <leafValues>
            -6.1774444580078125e-01 1.1220049858093262e-01</leafValues></_>
        <_>
          <internalNodes>
            0 -1 551 -5.7541984133422375e-03</internalNodes>
          <leafValues>
            5.7520949840545654e-01 -1.4815577864646912e-01</leafValues></_>
        <_>
          <internalNodes>
            0 -1 625 -6.0158455744385719e-03</internalNodes>
          <leafValues>
            -8.1628394126892090e-01 1.2350482493638992e-01</leafValues></_>
        <_>
          <internalNodes>
            0 -1 261 1.6886189579963684e-02</internalNodes>
          <leafValues>
            -1.6681614518165588e-01 5.3232598304748535e-01</leafValues></_>
        <_>
          <internalNodes>
            0 -1 823 -3.2898609060794115e-04</internalNodes>
          <leafValues>
            -4.2370817065238953e-01 1.8087252974510193e-01</leafValues></_>
        <_>
          <internalNodes>
            0 -1 823 3.2298051519319415e-04</internalNodes>
          <leafValues>
            2.1116787195205688e-01 -4.7153028845787048e-01</leafValues></_>
        <_>
          <internalNodes>
            0 -1 639 -1.9533562008291483e-03</internalNodes>
          <leafValues>
            4.8937740921974182e-01 -1.6598977148532867e-01</leafValues></_>
        <_>
          <internalNodes>
            0 -1 691 1.1413587257266045e-02</internalNodes>
          <leafValues>
            1.1380217969417572e-01 -6.6578382253646851e-01</leafValues></_>
        <_>
          <internalNodes>
            0 -1 484 1.1260135099291801e-02</internalNodes>
          <leafValues>
            -1.6700257360935211e-01 4.0811672806739807e-01</leafValues></_>
        <_>
          <internalNodes>
            0 -1 230 -1.5077993273735046e-02</internalNodes>
          <leafValues>
            -8.4255731105804443e-01 7.7133737504482269e-02</leafValues></_>
        <_>
          <internalNodes>
            0 -1 600 -4.6719267964363098e-02</internalNodes>
          <leafValues>
            7.0567232370376587e-01 -1.1673901230096817e-01</leafValues></_>
        <_>
          <internalNodes>
            0 -1 46 4.3938476592302322e-03</internalNodes>
          <leafValues>
            -2.2184178233146667e-01 3.1579637527465820e-01</leafValues></_>
        <_>
          <internalNodes>
            0 -1 468 -9.2456992715597153e-03</internalNodes>
          <leafValues>
            3.6994701623916626e-01 -1.7283444106578827e-01</leafValues></_>
        <_>
          <internalNodes>
            0 -1 636 6.6935224458575249e-03</internalNodes>
          <leafValues>
            1.0332305729389191e-01 -6.7785924673080444e-01</leafValues></_>
        <_>
          <internalNodes>
            0 -1 916 2.5803165044635534e-03</internalNodes>
          <leafValues>
            -1.3013474643230438e-01 5.4226249456405640e-01</leafValues></_>
        <_>
          <internalNodes>
            0 -1 419 -4.1579078882932663e-02</internalNodes>
          <leafValues>
            3.3892381191253662e-01 -1.8371295928955078e-01</leafValues></_>
        <_>
          <internalNodes>
            0 -1 804 3.3097201958298683e-03</internalNodes>
          <leafValues>
            -1.5564949810504913e-01 4.3483164906501770e-01</leafValues></_>
        <_>
          <internalNodes>
            0 -1 485 -1.2250064872205257e-02</internalNodes>
          <leafValues>
            -8.1484496593475342e-01 8.4190502762794495e-02</leafValues></_>
        <_>
          <internalNodes>
            0 -1 878 -3.1505303923040628e-03</internalNodes>
          <leafValues>
            6.2856125831604004e-01 -1.1406878381967545e-01</leafValues></_>
        <_>
          <internalNodes>
            0 -1 247 -5.5707420688122511e-04</internalNodes>
          <leafValues>
            -3.8057902455329895e-01 1.7313244938850403e-01</leafValues></_>
        <_>
          <internalNodes>
            0 -1 247 5.9113139286637306e-04</internalNodes>
          <leafValues>
            1.6937454044818878e-01 -4.0752303600311279e-01</leafValues></_>
        <_>
          <internalNodes>
            0 -1 927 4.5907273888587952e-03</internalNodes>
          <leafValues>
            -1.2755630910396576e-01 5.3985464572906494e-01</leafValues></_></weakClassifiers></_>
    <!-- stage 8 -->
    <_>
      <maxWeakCount>31</maxWeakCount>
      <stageThreshold>-1.3817632198333740e+00</stageThreshold>
      <weakClassifiers>
        <_>
          <internalNodes>
            0 -1 601 9.4571091234683990e-02</internalNodes>
          <leafValues>
            5.7851240038871765e-02 7.3231774568557739e-01</leafValues></_>
        <_>
          <internalNodes>
            0 -1 407 -2.3716683499515057e-03</internalNodes>
          <leafValues>
            -5.5864727497100830e-01 2.0312398672103882e-01</leafValues></_>
        <_>
          <internalNodes>
            0 -1 407 3.9612436667084694e-03</internalNodes>
          <leafValues>
            1.3516046106815338e-01 -7.1287840604782104e-01</leafValues></_>
        <_>
          <internalNodes>
            0 -1 865 -2.6063669472932816e-02</internalNodes>
          <leafValues>
            6.2000346183776855e-01 -1.4841477572917938e-01</leafValues></_>
        <_>
          <internalNodes>
            0 -1 32 -3.0714517924934626e-04</internalNodes>
          <leafValues>
            -4.6003443002700806e-01 1.4901863038539886e-01</leafValues></_>
        <_>
          <internalNodes>
            0 -1 32 3.7705944851040840e-04</internalNodes>
          <leafValues>
            1.9902224838733673e-01 -5.0247305631637573e-01</leafValues></_>
        <_>
          <internalNodes>
            0 -1 816 2.7735941112041473e-03</internalNodes>
          <leafValues>
            -2.4520342051982880e-01 3.1318897008895874e-01</leafValues></_>
        <_>
          <internalNodes>
            0 -1 692 -1.1385341174900532e-02</internalNodes>
          <leafValues>
            -5.2144783735275269e-01 1.4344882965087891e-01</leafValues></_>
        <_>
          <internalNodes>
            0 -1 704 9.4705922529101372e-03</internalNodes>
          <leafValues>
            7.9821750521659851e-02 -6.6571193933486938e-01</leafValues></_>
        <_>
          <internalNodes>
            0 -1 851 2.2747092880308628e-03</internalNodes>
          <leafValues>
            -1.6383734345436096e-01 4.0307584404945374e-01</leafValues></_>
        <_>
          <internalNodes>
            0 -1 300 5.2361050620675087e-03</internalNodes>
          <leafValues>
            9.4906426966190338e-02 -7.7047777175903320e-01</leafValues></_>
        <_>
          <internalNodes>
            0 -1 557 3.4413770772516727e-03</internalNodes>
          <leafValues>
            -1.4088007807731628e-01 4.4351902604103088e-01</leafValues></_>
        <_>
          <internalNodes>
            0 -1 474 -1.5776950167492032e-03</internalNodes>
          <leafValues>
            1.8687415122985840e-01 -3.2731685042381287e-01</leafValues></_>
        <_>
          <internalNodes>
            0 -1 882 -5.4806936532258987e-03</internalNodes>
          <leafValues>
            5.6111246347427368e-01 -1.0920243710279465e-01</leafValues></_>
        <_>
          <internalNodes>
            0 -1 784 -1.4391522854566574e-03</internalNodes>
          <leafValues>
            -3.7720254063606262e-01 1.6464434564113617e-01</leafValues></_>
        <_>
          <internalNodes>
            0 -1 784 1.3348429929465055e-03</internalNodes>
          <leafValues>
            1.5763483941555023e-01 -3.6930447816848755e-01</leafValues></_>
        <_>
          <internalNodes>
            0 -1 790 -3.8778312504291534e-02</internalNodes>
          <leafValues>
            -5.9386438131332397e-01 8.7323553860187531e-02</leafValues></_>
        <_>
          <internalNodes>
            0 -1 257 -5.9981819242238998e-02</internalNodes>
          <leafValues>
            -6.8288713693618774e-01 7.2836183011531830e-02</leafValues></_>
        <_>
          <internalNodes>
            0 -1 573 -3.0107027851045132e-03</internalNodes>
          <leafValues>
            -6.6768085956573486e-01 7.5158670544624329e-02</leafValues></_>
        <_>
          <internalNodes>
            0 -1 312 1.7126026796177030e-03</internalNodes>
          <leafValues>
            -3.3885759115219116e-01 1.7492477595806122e-01</leafValues></_>
        <_>
          <internalNodes>
            0 -1 555 -2.5964833796024323e-02</internalNodes>
          <leafValues>
            -6.9686448574066162e-01 8.6979269981384277e-02</leafValues></_>
        <_>
          <internalNodes>
            0 -1 48 3.4499405883252621e-03</internalNodes>
          <leafValues>
            -2.6757708191871643e-01 2.2010356187820435e-01</leafValues></_>
        <_>
          <internalNodes>
            0 -1 125 5.1992116495966911e-03</internalNodes>
          <leafValues>
            1.1418457329273224e-01 -5.5076605081558228e-01</leafValues></_>
        <_>
          <internalNodes>
            0 -1 120 2.6906143873929977e-02</internalNodes>
          <leafValues>
            -1.2573392689228058e-01 4.9983307719230652e-01</leafValues></_>
        <_>
          <internalNodes>
            0 -1 121 -1.4581012073904276e-03</internalNodes>
          <leafValues>
            -4.3847981095314026e-01 1.4084942638874054e-01</leafValues></_>
        <_>
          <internalNodes>
            0 -1 533 1.4449476730078459e-03</internalNodes>
          <leafValues>
            -1.9079200923442841e-01 2.8769281506538391e-01</leafValues></_>
        <_>
          <internalNodes>
            0 -1 323 1.4879918126098346e-05</internalNodes>
          <leafValues>
            -3.5258769989013672e-01 1.5427099168300629e-01</leafValues></_>
        <_>
          <internalNodes>
            0 -1 881 -6.3879480585455894e-03</internalNodes>
          <leafValues>
            6.6678726673126221e-01 -8.8778726756572723e-02</leafValues></_>
        <_>
          <internalNodes>
            0 -1 799 7.5186816975474358e-03</internalNodes>
          <leafValues>
            -1.6542093455791473e-01 3.2192018628120422e-01</leafValues></_>
        <_>
          <internalNodes>
            0 -1 626 1.4607662335038185e-02</internalNodes>
          <leafValues>
            7.6155640184879303e-02 -7.7623146772384644e-01</leafValues></_>
        <_>
          <internalNodes>
            0 -1 432 2.3000003769993782e-02</internalNodes>
          <leafValues>
            6.3551470637321472e-02 -6.7381632328033447e-01</leafValues></_></weakClassifiers></_>
    <!-- stage 9 -->
    <_>
      <maxWeakCount>41</maxWeakCount>
      <stageThreshold>-1.3311759233474731e+00</stageThreshold>
      <weakClassifiers>
        <_>
          <internalNodes>
            0 -1 522 -2.0338636822998524e-03</internalNodes>
          <leafValues>
            5.1695853471755981e-01 -1.0409620404243469e-01</leafValues></_>
        <_>
          <internalNodes>
            0 -1 906 1.5172487124800682e-02</internalNodes>
          <leafValues>
            -1.7473781108856201e-01 4.9794158339500427e-01</leafValues></_>
        <_>
          <internalNodes>
            0 -1 578 3.4475103020668030e-02</internalNodes>
          <leafValues>
            -1.8699640035629272e-01 3.8397884368896484e-01</leafValues></_>
        <_>
          <internalNodes>
            0 -1 825 -1.0685489978641272e-03</internalNodes>
          <leafValues>
            -4.2431768774986267e-01 1.2957438826560974e-01</leafValues></_>
        <_>
          <internalNodes>
            0 -1 825 7.9116958659142256e-04</internalNodes>
          <leafValues>
            2.0021493732929230e-01 -4.0746128559112549e-01</leafValues></_>
        <_>
          <internalNodes>
            0 -1 722 -1.5155300498008728e-02</internalNodes>
          <leafValues>
            3.9680987596511841e-01 -1.5411426126956940e-01</leafValues></_>
        <_>
          <internalNodes>
            0 -1 478 1.7004106193780899e-03</internalNodes>
          <leafValues>
            -1.7801135778427124e-01 3.5702428221702576e-01</leafValues></_>
        <_>
          <internalNodes>
            0 -1 757 -1.1510925367474556e-02</internalNodes>
          <leafValues>
            -6.8341714143753052e-01 8.8846027851104736e-02</leafValues></_>
        <_>
          <internalNodes>
            0 -1 136 1.5280636944225989e-05</internalNodes>
          <leafValues>
            -3.4200659394264221e-01 1.7138022184371948e-01</leafValues></_>
        <_>
          <internalNodes>
            0 -1 329 2.9252163949422538e-04</internalNodes>
          <leafValues>
            -3.7728217244148254e-01 1.4820331335067749e-01</leafValues></_>
        <_>
          <internalNodes>
            0 -1 412 3.8076560012996197e-03</internalNodes>
          <leafValues>
            1.0394611209630966e-01 -5.0619167089462280e-01</leafValues></_>
        <_>
          <internalNodes>
            0 -1 806 4.9397042021155357e-03</internalNodes>
          <leafValues>
            -1.5850347280502319e-01 3.3006891608238220e-01</leafValues></_>
        <_>
          <internalNodes>
            0 -1 807 5.4011507891118526e-03</internalNodes>
          <leafValues>
            -1.4994153380393982e-01 4.6227505803108215e-01</leafValues></_>
        <_>
          <internalNodes>
            0 -1 309 5.6446120142936707e-03</internalNodes>
          <leafValues>
            8.4195658564567566e-02 -7.5556272268295288e-01</leafValues></_>
        <_>
          <internalNodes>
            0 -1 42 5.3372286260128021e-02</internalNodes>
          <leafValues>
            5.3305093199014664e-02 -7.5842797756195068e-01</leafValues></_>
        <_>
          <internalNodes>
            0 -1 199 -1.6619065776467323e-02</internalNodes>
          <leafValues>
            -6.9900822639465332e-01 6.2689192593097687e-02</leafValues></_>
        <_>
          <internalNodes>
            0 -1 801 4.6144202351570129e-03</internalNodes>
          <leafValues>
            -1.6221186518669128e-01 3.2592955231666565e-01</leafValues></_>
        <_>
          <internalNodes>
            0 -1 750 4.9005267210304737e-03</internalNodes>
          <leafValues>
            -2.1781836450099945e-01 3.0010944604873657e-01</leafValues></_>
        <_>
          <internalNodes>
            0 -1 122 -1.0143186664208770e-03</internalNodes>
          <leafValues>
            -3.6496093869209290e-01 1.4694456756114960e-01</leafValues></_>
        <_>
          <internalNodes>
            0 -1 369 1.0657357051968575e-02</internalNodes>
          <leafValues>
            -1.7450006306171417e-01 3.1190618872642517e-01</leafValues></_>
        <_>
          <internalNodes>
            0 -1 10 -5.1004171837121248e-04</internalNodes>
          <leafValues>
            -3.8153886795043945e-01 1.4633628726005554e-01</leafValues></_>
        <_>
          <internalNodes>
            0 -1 10 3.5634753294289112e-04</internalNodes>
          <leafValues>
            1.7434766888618469e-01 -4.0035775303840637e-01</leafValues></_>
        <_>
          <internalNodes>
            0 -1 350 -6.2965147662907839e-04</internalNodes>
          <leafValues>
            3.1247395277023315e-01 -1.8678957223892212e-01</leafValues></_>
        <_>
          <internalNodes>
            0 -1 357 -1.2917774729430676e-03</internalNodes>
          <leafValues>
            3.5586032271385193e-01 -1.4681398868560791e-01</leafValues></_>
        <_>
          <internalNodes>
            0 -1 565 1.9798146095126867e-03</internalNodes>
          <leafValues>
            -1.5261973440647125e-01 3.5347846150398254e-01</leafValues></_>
        <_>
          <internalNodes>
            0 -1 476 -3.3448347821831703e-03</internalNodes>
          <leafValues>
            -4.2291682958602905e-01 1.3462470471858978e-01</leafValues></_>
        <_>
          <internalNodes>
            0 -1 213 1.9416821887716651e-03</internalNodes>
          <leafValues>
            -3.3198788762092590e-01 1.3738659024238586e-01</leafValues></_>
        <_>
          <internalNodes>
            0 -1 348 6.0973651707172394e-03</internalNodes>
          <leafValues>
            -1.6291734576225281e-01 3.1300020217895508e-01</leafValues></_>
        <_>
          <internalNodes>
            0 -1 1 -5.9499376220628619e-04</internalNodes>
          <leafValues>
            -3.1706717610359192e-01 1.5224009752273560e-01</leafValues></_>
        <_>
          <internalNodes>
            0 -1 834 3.0106713529676199e-03</internalNodes>
          <leafValues>
            -1.2129914015531540e-01 3.9345961809158325e-01</leafValues></_>
        <_>
          <internalNodes>
            0 -1 1 1.1454757768660784e-03</internalNodes>
          <leafValues>
            1.3943690061569214e-01 -3.3553346991539001e-01</leafValues></_>
        <_>
          <internalNodes>
            0 -1 934 2.7509077917784452e-03</internalNodes>
          <leafValues>
            -1.0159340500831604e-01 4.6323215961456299e-01</leafValues></_>
        <_>
          <internalNodes>
            0 -1 934 -2.2811426315456629e-03</internalNodes>
          <leafValues>
            4.6292731165885925e-01 -8.9273907244205475e-02</leafValues></_>
        <_>
          <internalNodes>
            0 -1 611 -1.2490485794842243e-02</internalNodes>
          <leafValues>
            2.7017906308174133e-01 -1.8150410056114197e-01</leafValues></_>
        <_>
          <internalNodes>
            0 -1 289 1.9479501992464066e-02</internalNodes>
          <leafValues>
            -8.0409877002239227e-02 6.5103667974472046e-01</leafValues></_>
        <_>
          <internalNodes>
            0 -1 635 6.4220917411148548e-03</internalNodes>
          <leafValues>
            8.5347563028335571e-02 -6.9571089744567871e-01</leafValues></_>
        <_>
          <internalNodes>
            0 -1 763 6.7245196551084518e-03</internalNodes>
          <leafValues>
            4.7561738640069962e-02 -7.8402507305145264e-01</leafValues></_>
        <_>
          <internalNodes>
            0 -1 610 4.4016479514539242e-03</internalNodes>
          <leafValues>
            7.9463042318820953e-02 -5.1410627365112305e-01</leafValues></_>
        <_>
          <internalNodes>
            0 -1 975 2.5443412363529205e-02</internalNodes>
          <leafValues>
            -7.9807497560977936e-02 6.5645468235015869e-01</leafValues></_>
        <_>
          <internalNodes>
            0 -1 857 -8.9475529966875911e-04</internalNodes>
          <leafValues>
            3.1214195489883423e-01 -1.4299651980400085e-01</leafValues></_>
        <_>
          <internalNodes>
            0 -1 819 6.5088104456663132e-03</internalNodes>
          <leafValues>
            -8.4758244454860687e-02 5.6570792198181152e-01</leafValues></_></weakClassifiers></_>
    <!-- stage 10 -->
    <_>
      <maxWeakCount>44</maxWeakCount>
      <stageThreshold>-1.5929087400436401e+00</stageThreshold>
      <weakClassifiers>
        <_>
          <internalNodes>
            0 -1 689 2.9188610613346100e-02</internalNodes>
          <leafValues>
            1.4873140491545200e-02 6.6214996576309204e-01</leafValues></_>
        <_>
          <internalNodes>
            0 -1 650 2.0438302308320999e-03</internalNodes>
          <leafValues>
            -2.8007498383522034e-01 3.0764538049697876e-01</leafValues></_>
        <_>
          <internalNodes>
            0 -1 941 -4.6280339360237122e-02</internalNodes>
          <leafValues>
            5.2512913942337036e-01 -1.5588623285293579e-01</leafValues></_>
        <_>
          <internalNodes>
            0 -1 180 1.5355266441474669e-05</internalNodes>
          <leafValues>
            -3.3368715643882751e-01 1.7400394380092621e-01</leafValues></_>
        <_>
          <internalNodes>
            0 -1 506 -5.3566630929708481e-02</internalNodes>
          <leafValues>
            5.5095279216766357e-01 -1.1169941723346710e-01</leafValues></_>
        <_>
          <internalNodes>
            0 -1 24 1.1376316659152508e-02</internalNodes>
          <leafValues>
            -2.5222498178482056e-01 2.2357353568077087e-01</leafValues></_>
        <_>
          <internalNodes>
            0 -1 283 1.4989867806434631e-02</internalNodes>
          <leafValues>
            -1.1043047904968262e-01 5.2208936214447021e-01</leafValues></_>
        <_>
          <internalNodes>
            0 -1 66 1.4879918126098346e-05</internalNodes>
          <leafValues>
            -2.2520931065082550e-01 2.6582938432693481e-01</leafValues></_>
        <_>
          <internalNodes>
            0 -1 576 2.0131819837843068e-05</internalNodes>
          <leafValues>
            -5.0634354352951050e-01 8.9801728725433350e-02</leafValues></_>
        <_>
          <internalNodes>
            0 -1 375 -1.6375866835005581e-05</internalNodes>
          <leafValues>
            1.9573168456554413e-01 -2.6062962412834167e-01</leafValues></_>
        <_>
          <internalNodes>
            0 -1 788 9.5659956336021423e-02</internalNodes>
          <leafValues>
            6.5095432102680206e-02 -7.8347069025039673e-01</leafValues></_>
        <_>
          <internalNodes>
            0 -1 631 1.3048514723777771e-02</internalNodes>
          <leafValues>
            -1.3846817612648010e-01 4.0770936012268066e-01</leafValues></_>
        <_>
          <internalNodes>
            0 -1 386 -1.8694743630476296e-05</internalNodes>
          <leafValues>
            2.3155649006366730e-01 -2.8945162892341614e-01</leafValues></_>
        <_>
          <internalNodes>
            0 -1 501 3.9190761744976044e-03</internalNodes>
          <leafValues>
            7.7224068343639374e-02 -6.7609316110610962e-01</leafValues></_>
        <_>
          <internalNodes>
            0 -1 736 8.0027896910905838e-04</internalNodes>
          <leafValues>
            -2.7310064435005188e-01 1.8400995433330536e-01</leafValues></_>
        <_>
          <internalNodes>
            0 -1 815 1.4430675655603409e-03</internalNodes>
          <leafValues>
            -1.8835502862930298e-01 2.9473650455474854e-01</leafValues></_>
        <_>
          <internalNodes>
            0 -1 151 -4.3590943096205592e-04</internalNodes>
          <leafValues>
            -4.4551968574523926e-01 1.2723921239376068e-01</leafValues></_>
        <_>
          <internalNodes>
            0 -1 151 4.5444039278663695e-04</internalNodes>
          <leafValues>
            1.3167341053485870e-01 -4.7211596369743347e-01</leafValues></_>
        <_>
          <internalNodes>
            0 -1 557 2.2151870653033257e-03</internalNodes>
          <leafValues>
            -1.5095932781696320e-01 3.2776716351509094e-01</leafValues></_>
        <_>
          <internalNodes>
            0 -1 645 -4.3897405266761780e-03</internalNodes>
          <leafValues>
            -6.4277344942092896e-01 8.4592781960964203e-02</leafValues></_>
        <_>
          <internalNodes>
            0 -1 822 -6.7601993214339018e-04</internalNodes>
          <leafValues>
            2.9750218987464905e-01 -1.8160784244537354e-01</leafValues></_>
        <_>
          <internalNodes>
            0 -1 893 -1.6862874617800117e-03</internalNodes>
          <leafValues>
            3.2458373904228210e-01 -1.3202573359012604e-01</leafValues></_>
        <_>
          <internalNodes>
            0 -1 212 -1.4620114117860794e-02</internalNodes>
          <leafValues>
            -6.6783922910690308e-01 7.0557765662670135e-02</leafValues></_>
        <_>
          <internalNodes>
            0 -1 327 1.4855790141155012e-05</internalNodes>
          <leafValues>
            -2.5084549188613892e-01 1.7585702240467072e-01</leafValues></_>
        <_>
          <internalNodes>
            0 -1 960 1.9688311964273453e-02</internalNodes>
          <leafValues>
            -7.4332959949970245e-02 6.5846568346023560e-01</leafValues></_>
        <_>
          <internalNodes>
            0 -1 319 1.0377821745350957e-03</internalNodes>
          <leafValues>
            -3.3103486895561218e-01 1.6019953787326813e-01</leafValues></_>
        <_>
          <internalNodes>
            0 -1 336 1.6707030226825736e-05</internalNodes>
          <leafValues>
            -2.5984433293342590e-01 2.2171749174594879e-01</leafValues></_>
        <_>
          <internalNodes>
            0 -1 543 -1.4095347374677658e-02</internalNodes>
          <leafValues>
            3.6194536089897156e-01 -1.3284985721111298e-01</leafValues></_>
        <_>
          <internalNodes>
            0 -1 692 2.5994980707764626e-02</internalNodes>
          <leafValues>
            7.0586442947387695e-02 -7.3670625686645508e-01</leafValues></_>
        <_>
          <internalNodes>
            0 -1 25 1.4845581972622313e-05</internalNodes>
          <leafValues>
            -2.7086430788040161e-01 1.6784399747848511e-01</leafValues></_>
        <_>
          <internalNodes>
            0 -1 657 1.5375340808532201e-05</internalNodes>
          <leafValues>
            -2.9195886850357056e-01 1.5537948906421661e-01</leafValues></_>
        <_>
          <internalNodes>
            0 -1 870 3.6408267915248871e-03</internalNodes>
          <leafValues>
            -1.0982012003660202e-01 4.2647886276245117e-01</leafValues></_>
        <_>
          <internalNodes>
            0 -1 551 2.0921528339385986e-03</internalNodes>
          <leafValues>
            -1.1094964295625687e-01 3.4805747866630554e-01</leafValues></_>
        <_>
          <internalNodes>
            0 -1 843 2.2274670191109180e-03</internalNodes>
          <leafValues>
            -1.4263114333152771e-01 2.7459719777107239e-01</leafValues></_>
        <_>
          <internalNodes>
            0 -1 798 -2.7818062808364630e-03</internalNodes>
          <leafValues>
            3.9891269803047180e-01 -1.2053912132978439e-01</leafValues></_>
        <_>
          <internalNodes>
            0 -1 428 -1.2903332710266113e-01</internalNodes>
          <leafValues>
            4.8508307337760925e-01 -9.1250151395797729e-02</leafValues></_>
        <_>
          <internalNodes>
            0 -1 437 2.7516646310687065e-02</internalNodes>
          <leafValues>
            -1.0716337710618973e-01 4.4493195414543152e-01</leafValues></_>
        <_>
          <internalNodes>
            0 -1 515 -2.3923698812723160e-02</internalNodes>
          <leafValues>
            3.7736493349075317e-01 -1.1520211398601532e-01</leafValues></_>
        <_>
          <internalNodes>
            0 -1 197 -4.9096755683422089e-03</internalNodes>
          <leafValues>
            2.9752945899963379e-01 -1.6515298187732697e-01</leafValues></_>
        <_>
          <internalNodes>
            0 -1 371 7.0286523550748825e-03</internalNodes>
          <leafValues>
            8.3998404443264008e-02 -5.8693927526473999e-01</leafValues></_>
        <_>
          <internalNodes>
            0 -1 201 -1.8189665675163269e-01</internalNodes>
          <leafValues>
            3.6803674697875977e-01 -1.3421250879764557e-01</leafValues></_>
        <_>
          <internalNodes>
            0 -1 899 -5.2216916810721159e-04</internalNodes>
          <leafValues>
            -3.9028695225715637e-01 1.1964220553636551e-01</leafValues></_>
        <_>
          <internalNodes>
            0 -1 899 3.5860104253515601e-04</internalNodes>
          <leafValues>
            1.2414833158254623e-01 -3.5649439692497253e-01</leafValues></_>
        <_>
          <internalNodes>
            0 -1 613 -1.4309389516711235e-02</internalNodes>
          <leafValues>
            -7.3294329643249512e-01 6.1754390597343445e-02</leafValues></_></weakClassifiers></_>
    <!-- stage 11 -->
    <_>
      <maxWeakCount>47</maxWeakCount>
      <stageThreshold>-1.4125511646270752e+00</stageThreshold>
      <weakClassifiers>
        <_>
          <internalNodes>
            0 -1 175 2.3633996024727821e-03</internalNodes>
          <leafValues>
            -7.1381792426109314e-02 5.4120415449142456e-01</leafValues></_>
        <_>
          <internalNodes>
            0 -1 828 1.4765422791242599e-02</internalNodes>
          <leafValues>
            -1.8275322020053864e-01 4.4992426037788391e-01</leafValues></_>
        <_>
          <internalNodes>
            0 -1 650 2.2749095223844051e-03</internalNodes>
          <leafValues>
            -2.9511973261833191e-01 2.4402409791946411e-01</leafValues></_>
        <_>
          <internalNodes>
            0 -1 946 2.9034122824668884e-02</internalNodes>
          <leafValues>
            -9.0670898556709290e-02 6.5386033058166504e-01</leafValues></_>
        <_>
          <internalNodes>
            0 -1 713 1.9257067469879985e-03</internalNodes>
          <leafValues>
            -2.1072019636631012e-01 2.7774468064308167e-01</leafValues></_>
        <_>
          <internalNodes>
            0 -1 764 -1.3705768622457981e-02</internalNodes>
          <leafValues>
            3.5865864157676697e-01 -1.4368776977062225e-01</leafValues></_>
        <_>
          <internalNodes>
            0 -1 984 -3.1396991107612848e-04</internalNodes>
          <leafValues>
            -3.7538996338844299e-01 1.4689928293228149e-01</leafValues></_>
        <_>
          <internalNodes>
            0 -1 984 2.6782706845551729e-04</internalNodes>
          <leafValues>
            1.6331806778907776e-01 -4.3920481204986572e-01</leafValues></_>
        <_>
          <internalNodes>
            0 -1 720 1.6453033313155174e-03</internalNodes>
          <leafValues>
            -1.4740647375583649e-01 3.3339956402778625e-01</leafValues></_>
        <_>
          <internalNodes>
            0 -1 99 -8.1540763378143311e-02</internalNodes>
          <leafValues>
            4.4845059514045715e-01 -1.2060766667127609e-01</leafValues></_>
        <_>
          <internalNodes>
            0 -1 280 7.2518521919846535e-03</internalNodes>
          <leafValues>
            -1.5549162030220032e-01 3.6929053068161011e-01</leafValues></_>
        <_>
          <internalNodes>
            0 -1 268 3.9794100448489189e-03</internalNodes>
          <leafValues>
            -1.9898985326290131e-01 3.0467057228088379e-01</leafValues></_>
        <_>
          <internalNodes>
            0 -1 558 -6.1976620927453041e-03</internalNodes>
          <leafValues>
            -8.0850368738174438e-01 6.4993135631084442e-02</leafValues></_>
        <_>
          <internalNodes>
            0 -1 439 -1.2476310366764665e-03</internalNodes>
          <leafValues>
            3.1521075963973999e-01 -1.5938620269298553e-01</leafValues></_>
        <_>
          <internalNodes>
            0 -1 736 1.8908053170889616e-03</internalNodes>
          <leafValues>
            -2.1467909216880798e-01 2.2852398455142975e-01</leafValues></_>
        <_>
          <internalNodes>
            0 -1 273 -8.6762290447950363e-03</internalNodes>
          <leafValues>
            -6.5634846687316895e-01 7.2458587586879730e-02</leafValues></_>
        <_>
          <internalNodes>
            0 -1 531 1.1049626022577286e-01</internalNodes>
          <leafValues>
            -9.4720870256423950e-02 5.9670811891555786e-01</leafValues></_>
        <_>
          <internalNodes>
            0 -1 485 -5.2510336972773075e-03</internalNodes>
          <leafValues>
            -4.6317660808563232e-01 1.1712914705276489e-01</leafValues></_>
        <_>
          <internalNodes>
            0 -1 644 -1.2028487399220467e-03</internalNodes>
          <leafValues>
            2.7404081821441650e-01 -1.6698044538497925e-01</leafValues></_>
        <_>
          <internalNodes>
            0 -1 207 -4.3926574289798737e-03</internalNodes>
          <leafValues>
            2.9009136557579041e-01 -1.5625576674938202e-01</leafValues></_>
        <_>
          <internalNodes>
            0 -1 276 -2.1337807178497314e-02</internalNodes>
          <leafValues>
            -5.3265720605850220e-01 1.0030408948659897e-01</leafValues></_>
        <_>
          <internalNodes>
            0 -1 178 -2.4208441376686096e-02</internalNodes>
          <leafValues>
            -6.0181432962417603e-01 6.9553889334201813e-02</leafValues></_>
        <_>
          <internalNodes>
            0 -1 39 -4.8519603908061981e-02</internalNodes>
          <leafValues>
            5.7163202762603760e-01 -9.1626763343811035e-02</leafValues></_>
        <_>
          <internalNodes>
            0 -1 96 8.6083486676216125e-02</internalNodes>
          <leafValues>
            -1.2271901220083237e-01 3.5209903120994568e-01</leafValues></_>
        <_>
          <internalNodes>
            0 -1 222 1.7958923126570880e-04</internalNodes>
          <leafValues>
            -3.0637124180793762e-01 1.4684514701366425e-01</leafValues></_>
        <_>
          <internalNodes>
            0 -1 661 1.6398302250308916e-05</internalNodes>
          <leafValues>
            -1.8138501048088074e-01 2.4658586084842682e-01</leafValues></_>
        <_>
          <internalNodes>
            0 -1 130 1.1285925284028053e-02</internalNodes>
          <leafValues>
            7.2555437684059143e-02 -6.8626570701599121e-01</leafValues></_>
        <_>
          <internalNodes>
            0 -1 62 -1.7535660881549120e-03</internalNodes>
          <leafValues>
            -3.4305405616760254e-01 1.3055893778800964e-01</leafValues></_>
        <_>
          <internalNodes>
            0 -1 956 4.1806697845458984e-03</internalNodes>
          <leafValues>
            -7.3868669569492340e-02 6.1206340789794922e-01</leafValues></_>
        <_>
          <internalNodes>
            0 -1 315 1.2324537150561810e-02</internalNodes>
          <leafValues>
            7.5163170695304871e-02 -5.7291734218597412e-01</leafValues></_>
        <_>
          <internalNodes>
            0 -1 780 6.2092132866382599e-03</internalNodes>
          <leafValues>
            -1.3079901039600372e-01 3.2954096794128418e-01</leafValues></_>
        <_>
          <internalNodes>
            0 -1 894 -1.1066562728956342e-03</internalNodes>
          <leafValues>
            3.0745798349380493e-01 -1.4718037843704224e-01</leafValues></_>
        <_>
          <internalNodes>
            0 -1 897 -1.4899719972163439e-03</internalNodes>
          <leafValues>
            3.7096717953681946e-01 -1.1836543679237366e-01</leafValues></_>
        <_>
          <internalNodes>
            0 -1 493 6.1515397392213345e-03</internalNodes>
          <leafValues>
            -1.6894951462745667e-01 2.5657394528388977e-01</leafValues></_>
        <_>
          <internalNodes>
            0 -1 582 -2.0263823680579662e-03</internalNodes>
          <leafValues>
            -6.2880086898803711e-01 7.5081408023834229e-02</leafValues></_>
        <_>
          <internalNodes>
            0 -1 700 -5.0340252928435802e-03</internalNodes>
          <leafValues>
            2.3516598343849182e-01 -1.9670325517654419e-01</leafValues></_>
        <_>
          <internalNodes>
            0 -1 328 3.2344902865588665e-04</internalNodes>
          <leafValues>
            -2.9344558715820313e-01 1.7442025244235992e-01</leafValues></_>
        <_>
          <internalNodes>
            0 -1 50 -1.0159082710742950e-02</internalNodes>
          <leafValues>
            3.5759484767913818e-01 -1.3734148442745209e-01</leafValues></_>
        <_>
          <internalNodes>
            0 -1 98 1.6664035618305206e-02</internalNodes>
          <leafValues>
            -1.4221724867820740e-01 3.2467842102050781e-01</leafValues></_>
        <_>
          <internalNodes>
            0 -1 993 2.5938350707292557e-02</internalNodes>
          <leafValues>
            -6.1278134584426880e-02 6.7001801729202271e-01</leafValues></_>
        <_>
          <internalNodes>
            0 -1 442 1.9795246422290802e-02</internalNodes>
          <leafValues>
            8.4027878940105438e-02 -5.1760667562484741e-01</leafValues></_>
        <_>
          <internalNodes>
            0 -1 749 2.3589928168803453e-03</internalNodes>
          <leafValues>
            -1.4576512575149536e-01 2.9509496688842773e-01</leafValues></_>
        <_>
          <internalNodes>
            0 -1 751 -9.7410921007394791e-03</internalNodes>
          <leafValues>
            5.9992671012878418e-01 -7.5922898948192596e-02</leafValues></_>
        <_>
          <internalNodes>
            0 -1 714 -3.0534449033439159e-03</internalNodes>
          <leafValues>
            -5.3049296140670776e-01 8.6530283093452454e-02</leafValues></_>
        <_>
          <internalNodes>
            0 -1 2 -1.6982771921902895e-03</internalNodes>
          <leafValues>
            -3.6909571290016174e-01 1.0288441926240921e-01</leafValues></_>
        <_>
          <internalNodes>
            0 -1 182 1.5794340521097183e-02</internalNodes>
          <leafValues>
            -1.5995381772518158e-01 2.5227189064025879e-01</leafValues></_>
        <_>
          <internalNodes>
            0 -1 922 -3.1351861543953419e-03</internalNodes>
          <leafValues>
            4.8146605491638184e-01 -7.9659715294837952e-02</leafValues></_></weakClassifiers></_>
    <!-- stage 12 -->
    <_>
      <maxWeakCount>52</maxWeakCount>
      <stageThreshold>-1.3900707960128784e+00</stageThreshold>
      <weakClassifiers>
        <_>
          <internalNodes>
            0 -1 574 -8.0131343565881252e-04</internalNodes>
          <leafValues>
            4.8338752985000610e-01 -2.1743643283843994e-01</leafValues></_>
        <_>
          <internalNodes>
            0 -1 427 1.5434379875659943e-01</internalNodes>
          <leafValues>
            -1.3326534628868103e-01 5.7224410772323608e-01</leafValues></_>
        <_>
          <internalNodes>
            0 -1 733 2.5877538137137890e-03</internalNodes>
          <leafValues>
            -2.5660344958305359e-01 2.7831813693046570e-01</leafValues></_>
        <_>
          <internalNodes>
            0 -1 528 1.1785911628976464e-03</internalNodes>
          <leafValues>
            -2.5413018465042114e-01 2.2648817300796509e-01</leafValues></_>
        <_>
          <internalNodes>
            0 -1 804 3.4011378884315491e-03</internalNodes>
          <leafValues>
            -1.6706863045692444e-01 3.3068189024925232e-01</leafValues></_>
        <_>
          <internalNodes>
            0 -1 741 5.3528556600213051e-03</internalNodes>
          <leafValues>
            -1.2389931082725525e-01 4.2434468865394592e-01</leafValues></_>
        <_>
          <internalNodes>
            0 -1 147 9.4684343785047531e-03</internalNodes>
          <leafValues>
            -3.0736124515533447e-01 1.5596647560596466e-01</leafValues></_>
        <_>
          <internalNodes>
            0 -1 564 -9.8576396703720093e-03</internalNodes>
          <leafValues>
            -4.5536193251609802e-01 9.6880450844764709e-02</leafValues></_>
        <_>
          <internalNodes>
            0 -1 786 -7.6251905411481857e-03</internalNodes>
          <leafValues>
            4.9759739637374878e-01 -9.3513302505016327e-02</leafValues></_>
        <_>
          <internalNodes>
            0 -1 507 2.8944667428731918e-03</internalNodes>
          <leafValues>
            1.0997323691844940e-01 -4.1576161980628967e-01</leafValues></_>
        <_>
          <internalNodes>
            0 -1 94 2.5729641318321228e-02</internalNodes>
          <leafValues>
            5.6278381496667862e-02 -6.6120427846908569e-01</leafValues></_>
        <_>
          <internalNodes>
            0 -1 317 4.1321341996081173e-04</internalNodes>
          <leafValues>
            -1.9813457131385803e-01 2.2301080822944641e-01</leafValues></_>
        <_>
          <internalNodes>
            0 -1 798 3.2522184774279594e-03</internalNodes>
          <leafValues>
            -1.1224453896284103e-01 3.3572617173194885e-01</leafValues></_>
        <_>
          <internalNodes>
            0 -1 792 1.5049927169457078e-03</internalNodes>
          <leafValues>
            -1.7905510962009430e-01 2.4213583767414093e-01</leafValues></_>
        <_>
          <internalNodes>
            0 -1 430 -5.9898351319134235e-03</internalNodes>
          <leafValues>
            -3.9045622944831848e-01 1.1299815773963928e-01</leafValues></_>
        <_>
          <internalNodes>
            0 -1 237 6.4559967722743750e-04</internalNodes>
          <leafValues>
            -2.5341182947158813e-01 1.5861858427524567e-01</leafValues></_>
        <_>
          <internalNodes>
            0 -1 643 3.9359927177429199e-03</internalNodes>
          <leafValues>
            -9.9758572876453400e-02 4.2220181226730347e-01</leafValues></_>
        <_>
          <internalNodes>
            0 -1 217 -1.0018822737038136e-02</internalNodes>
          <leafValues>
            -8.1735670566558838e-01 6.0393918305635452e-02</leafValues></_>
        <_>
          <internalNodes>
            0 -1 692 -2.3222785443067551e-02</internalNodes>
          <leafValues>
            -7.0519006252288818e-01 3.8566689938306808e-02</leafValues></_>
        <_>
          <internalNodes>
            0 -1 541 7.6278019696474075e-04</internalNodes>
          <leafValues>
            -1.8486000597476959e-01 2.0310902595520020e-01</leafValues></_>
        <_>
          <internalNodes>
            0 -1 701 1.1919187381863594e-02</internalNodes>
          <leafValues>
            6.2326364219188690e-02 -6.9744098186492920e-01</leafValues></_>
        <_>
          <internalNodes>
            0 -1 296 2.9357639141380787e-03</internalNodes>
          <leafValues>
            4.0950305759906769e-02 -7.3686289787292480e-01</leafValues></_>
        <_>
          <internalNodes>
            0 -1 979 2.9707103967666626e-02</internalNodes>
          <leafValues>
            -7.5256936252117157e-02 5.5897450447082520e-01</leafValues></_>
        <_>
          <internalNodes>
            0 -1 244 4.4254258682485670e-05</internalNodes>
          <leafValues>
            -2.1801553666591644e-01 1.6720965504646301e-01</leafValues></_>
        <_>
          <internalNodes>
            0 -1 109 -6.7765824496746063e-02</internalNodes>
          <leafValues>
            -6.5298551321029663e-01 6.0931246727705002e-02</leafValues></_>
        <_>
          <internalNodes>
            0 -1 713 1.6551306471228600e-03</internalNodes>
          <leafValues>
            -1.7350862920284271e-01 2.2789162397384644e-01</leafValues></_>
        <_>
          <internalNodes>
            0 -1 652 1.4041842950973660e-04</internalNodes>
          <leafValues>
            -2.4749988317489624e-01 1.5090510249137878e-01</leafValues></_>
        <_>
          <internalNodes>
            0 -1 811 2.3263692855834961e-02</internalNodes>
          <leafValues>
            -8.0748349428176880e-02 5.4562664031982422e-01</leafValues></_>
        <_>
          <internalNodes>
            0 -1 232 3.6475928500294685e-03</internalNodes>
          <leafValues>
            -1.5150515735149384e-01 2.4733006954193115e-01</leafValues></_>
        <_>
          <internalNodes>
            0 -1 604 2.9405422508716583e-02</internalNodes>
          <leafValues>
            5.7383116334676743e-02 -7.6499807834625244e-01</leafValues></_>
        <_>
          <internalNodes>
            0 -1 104 -1.2564073316752911e-02</internalNodes>
          <leafValues>
            2.9541802406311035e-01 -1.4265374839305878e-01</leafValues></_>
        <_>
          <internalNodes>
            0 -1 311 1.4311852864921093e-03</internalNodes>
          <leafValues>
            -2.6821029186248779e-01 1.5538249909877777e-01</leafValues></_>
        <_>
          <internalNodes>
            0 -1 407 5.3885006345808506e-03</internalNodes>
          <leafValues>
            6.1068456619977951e-02 -6.7448413372039795e-01</leafValues></_>
        <_>
          <internalNodes>
            0 -1 456 -5.9896660968661308e-04</internalNodes>
          <leafValues>
            1.8446359038352966e-01 -1.9687047600746155e-01</leafValues></_>
        <_>
          <internalNodes>
            0 -1 264 1.2696472927927971e-02</internalNodes>
          <leafValues>
            -9.7085677087306976e-02 3.6571103334426880e-01</leafValues></_>
        <_>
          <internalNodes>
            0 -1 186 -1.5102112293243408e-01</internalNodes>
          <leafValues>
            2.7473372220993042e-01 -1.5846037864685059e-01</leafValues></_>
        <_>
          <internalNodes>
            0 -1 725 7.1400217711925507e-03</internalNodes>
          <leafValues>
            -1.1231914162635803e-01 3.2793089747428894e-01</leafValues></_>
        <_>
          <internalNodes>
            0 -1 902 2.3278128355741501e-02</internalNodes>
          <leafValues>
            -6.7072950303554535e-02 5.0383400917053223e-01</leafValues></_>
        <_>
          <internalNodes>
            0 -1 177 9.4806868582963943e-03</internalNodes>
          <leafValues>
            8.0749459564685822e-02 -4.7282469272613525e-01</leafValues></_>
        <_>
          <internalNodes>
            0 -1 986 6.9240567972883582e-04</internalNodes>
          <leafValues>
            9.3344241380691528e-02 -3.6219492554664612e-01</leafValues></_>
        <_>
          <internalNodes>
            0 -1 681 3.1436947174370289e-03</internalNodes>
          <leafValues>
            -1.1774582415819168e-01 2.9355734586715698e-01</leafValues></_>
        <_>
          <internalNodes>
            0 -1 641 8.3991568535566330e-03</internalNodes>
          <leafValues>
            5.2872814238071442e-02 -6.9878751039505005e-01</leafValues></_>
        <_>
          <internalNodes>
            0 -1 934 3.0672983266413212e-03</internalNodes>
          <leafValues>
            -8.8647678494453430e-02 4.3306308984756470e-01</leafValues></_>
        <_>
          <internalNodes>
            0 -1 930 3.5867034457623959e-03</internalNodes>
          <leafValues>
            -6.7681737244129181e-02 4.9277487397193909e-01</leafValues></_>
        <_>
          <internalNodes>
            0 -1 616 2.0524852443486452e-03</internalNodes>
          <leafValues>
            -1.2129381299018860e-01 2.7963736653327942e-01</leafValues></_>
        <_>
          <internalNodes>
            0 -1 265 1.4933696947991848e-03</internalNodes>
          <leafValues>
            -2.3317737877368927e-01 1.5917210280895233e-01</leafValues></_>
        <_>
          <internalNodes>
            0 -1 161 4.6613615006208420e-02</internalNodes>
          <leafValues>
            -8.6041972041130066e-02 4.8094606399536133e-01</leafValues></_>
        <_>
          <internalNodes>
            0 -1 364 -1.6969848424196243e-02</internalNodes>
          <leafValues>
            2.6549953222274780e-01 -1.4779721200466156e-01</leafValues></_>
        <_>
          <internalNodes>
            0 -1 164 2.3505177348852158e-02</internalNodes>
          <leafValues>
            -1.1202522367238998e-01 3.7046709656715393e-01</leafValues></_>
        <_>
          <internalNodes>
            0 -1 896 1.4290879480540752e-03</internalNodes>
          <leafValues>
            -1.3571590185165405e-01 2.6696348190307617e-01</leafValues></_>
        <_>
          <internalNodes>
            0 -1 895 -8.5461023263633251e-04</internalNodes>
          <leafValues>
            2.5833642482757568e-01 -1.4994926750659943e-01</leafValues></_>
        <_>
          <internalNodes>
            0 -1 40 1.7315181903541088e-03</internalNodes>
          <leafValues>
            -2.5247848033905029e-01 1.5326380729675293e-01</leafValues></_></weakClassifiers></_>
    <!-- stage 13 -->
    <_>
      <maxWeakCount>57</maxWeakCount>
      <stageThreshold>-1.3521375656127930e+00</stageThreshold>
      <weakClassifiers>
        <_>
          <internalNodes>
            0 -1 176 1.0976286605000496e-02</internalNodes>
          <leafValues>
            3.3526364713907242e-03 5.2264380455017090e-01</leafValues></_>
        <_>
          <internalNodes>
            0 -1 867 2.9351456090807915e-02</internalNodes>
          <leafValues>
            -1.1488599330186844e-01 5.1532012224197388e-01</leafValues></_>
        <_>
          <internalNodes>
            0 -1 353 7.0784112904220819e-04</internalNodes>
          <leafValues>
            -3.6702531576156616e-01 1.6312231123447418e-01</leafValues></_>
        <_>
          <internalNodes>
            0 -1 475 -1.1052746325731277e-02</internalNodes>
          <leafValues>
            2.2058086097240448e-01 -2.2773934900760651e-01</leafValues></_>
        <_>
          <internalNodes>
            0 -1 624 -2.2077988833189011e-02</internalNodes>
          <leafValues>
            4.2531269788742065e-01 -1.5438060462474823e-01</leafValues></_>
        <_>
          <internalNodes>
            0 -1 774 -1.1444827541708946e-02</internalNodes>
          <leafValues>
            4.6495586633682251e-01 -9.8477169871330261e-02</leafValues></_>
        <_>
          <internalNodes>
            0 -1 393 -4.5447107404470444e-03</internalNodes>
          <leafValues>
            3.8612315058708191e-01 -1.2266618013381958e-01</leafValues></_>
        <_>
          <internalNodes>
            0 -1 545 -1.0124129243195057e-02</internalNodes>
          <leafValues>
            3.9305055141448975e-01 -1.4360176026821136e-01</leafValues></_>
        <_>
          <internalNodes>
            0 -1 702 2.6731247082352638e-02</internalNodes>
          <leafValues>
            1.0095307230949402e-01 -6.3173842430114746e-01</leafValues></_>
        <_>
          <internalNodes>
            0 -1 355 5.2404966205358505e-02</internalNodes>
          <leafValues>
            6.4634084701538086e-02 -7.0120811462402344e-01</leafValues></_>
        <_>
          <internalNodes>
            0 -1 323 4.0318554965779185e-05</internalNodes>
          <leafValues>
            -3.8829475641250610e-01 9.9333494901657104e-02</leafValues></_>
        <_>
          <internalNodes>
            0 -1 783 -3.1838734867051244e-04</internalNodes>
          <leafValues>
            -3.6690875887870789e-01 1.1854774504899979e-01</leafValues></_>
        <_>
          <internalNodes>
            0 -1 916 -2.9372787103056908e-03</internalNodes>
          <leafValues>
            5.0997173786163330e-01 -8.1774964928627014e-02</leafValues></_>
        <_>
          <internalNodes>
            0 -1 783 1.7861663945950568e-04</internalNodes>
          <leafValues>
            1.4821715652942657e-01 -3.1181591749191284e-01</leafValues></_>
        <_>
          <internalNodes>
            0 -1 90 -5.5266544222831726e-03</internalNodes>
          <leafValues>
            -4.5672687888145447e-01 8.3048112690448761e-02</leafValues></_>
        <_>
          <internalNodes>
            0 -1 73 2.9787118546664715e-03</internalNodes>
          <leafValues>
            -2.7124312520027161e-01 1.5658049285411835e-01</leafValues></_>
        <_>
          <internalNodes>
            0 -1 687 1.9049921538680792e-03</internalNodes>
          <leafValues>
            -1.4730218052864075e-01 2.9351475834846497e-01</leafValues></_>
        <_>
          <internalNodes>
            0 -1 781 -2.8786834445782006e-04</internalNodes>
          <leafValues>
            2.4063137173652649e-01 -1.7843395471572876e-01</leafValues></_>
        <_>
          <internalNodes>
            0 -1 443 1.4662826433777809e-03</internalNodes>
          <leafValues>
            -1.0937135666608810e-01 3.6545079946517944e-01</leafValues></_>
        <_>
          <internalNodes>
            0 -1 703 6.4923474565148354e-03</internalNodes>
          <leafValues>
            -1.2863934040069580e-01 2.9977542161941528e-01</leafValues></_>
        <_>
          <internalNodes>
            0 -1 561 4.2195180431008339e-03</internalNodes>
          <leafValues>
            -1.2409561127424240e-01 3.1921285390853882e-01</leafValues></_>
        <_>
          <internalNodes>
            0 -1 325 1.5111996326595545e-03</internalNodes>
          <leafValues>
            -2.6140362024307251e-01 1.6147011518478394e-01</leafValues></_>
        <_>
          <internalNodes>
            0 -1 17 -2.9425555840134621e-04</internalNodes>
          <leafValues>
            -3.4113144874572754e-01 1.2891609966754913e-01</leafValues></_>
        <_>
          <internalNodes>
            0 -1 381 7.2892000898718834e-03</internalNodes>
          <leafValues>
            9.4978049397468567e-02 -3.9120411872863770e-01</leafValues></_>
        <_>
          <internalNodes>
            0 -1 344 5.0348319113254547e-02</internalNodes>
          <leafValues>
            -1.1070355772972107e-01 3.8235068321228027e-01</leafValues></_>
        <_>
          <internalNodes>
            0 -1 937 -3.5154225770384073e-03</internalNodes>
          <leafValues>
            4.4037696719169617e-01 -8.5976183414459229e-02</leafValues></_>
        <_>
          <internalNodes>
            0 -1 303 -1.0305682197213173e-02</internalNodes>
          <leafValues>
            -7.0301699638366699e-01 5.4630853235721588e-02</leafValues></_>
        <_>
          <internalNodes>
            0 -1 805 1.2209403328597546e-02</internalNodes>
          <leafValues>
            -1.2106448411941528e-01 3.0815258622169495e-01</leafValues></_>
        <_>
          <internalNodes>
            0 -1 879 1.6283236443996429e-02</internalNodes>
          <leafValues>
            6.4776569604873657e-02 -6.3120764493942261e-01</leafValues></_>
        <_>
          <internalNodes>
            0 -1 536 -2.7234917506575584e-03</internalNodes>
          <leafValues>
            2.1004351973533630e-01 -1.9987104833126068e-01</leafValues></_>
        <_>
          <internalNodes>
            0 -1 978 2.3734554648399353e-02</internalNodes>
          <leafValues>
            -6.7733697593212128e-02 5.2745383977890015e-01</leafValues></_>
        <_>
          <internalNodes>
            0 -1 243 -3.8126501021906734e-04</internalNodes>
          <leafValues>
            -2.7792394161224365e-01 1.4047223329544067e-01</leafValues></_>
        <_>
          <internalNodes>
            0 -1 384 3.0844490975141525e-02</internalNodes>
          <leafValues>
            -7.4876144528388977e-02 5.2120113372802734e-01</leafValues></_>
        <_>
          <internalNodes>
            0 -1 84 9.8901512101292610e-03</internalNodes>
          <leafValues>
            5.3893186151981354e-02 -8.3704918622970581e-01</leafValues></_>
        <_>
          <internalNodes>
            0 -1 54 4.5956291258335114e-02</internalNodes>
          <leafValues>
            -2.1978802978992462e-01 1.7147736251354218e-01</leafValues></_>
        <_>
          <internalNodes>
            0 -1 821 1.1266032233834267e-03</internalNodes>
          <leafValues>
            -1.3902525603771210e-01 2.6683056354522705e-01</leafValues></_>
        <_>
          <internalNodes>
            0 -1 74 -3.0388105660676956e-02</internalNodes>
          <leafValues>
            -7.2549211978912354e-01 5.1374871283769608e-02</leafValues></_>
        <_>
          <internalNodes>
            0 -1 142 -4.1599582880735397e-02</internalNodes>
          <leafValues>
            5.5806010961532593e-01 -7.0649169385433197e-02</leafValues></_>
        <_>
          <internalNodes>
            0 -1 314 -1.6886331140995026e-03</internalNodes>
          <leafValues>
            -6.0880249738693237e-01 6.5951444208621979e-02</leafValues></_>
        <_>
          <internalNodes>
            0 -1 254 -4.3388390913605690e-03</internalNodes>
          <leafValues>
            4.8846897482872009e-01 -8.2456298172473907e-02</leafValues></_>
        <_>
          <internalNodes>
            0 -1 204 3.1798817217350006e-03</internalNodes>
          <leafValues>
            9.1479726135730743e-02 -4.0044483542442322e-01</leafValues></_>
        <_>
          <internalNodes>
            0 -1 20 -5.1413957029581070e-02</internalNodes>
          <leafValues>
            5.5802118778228760e-01 -7.3924548923969269e-02</leafValues></_>
        <_>
          <internalNodes>
            0 -1 26 9.8128700628876686e-03</internalNodes>
          <leafValues>
            -2.1995672583580017e-01 2.0241190493106842e-01</leafValues></_>
        <_>
          <internalNodes>
            0 -1 332 -3.5986721515655518e-02</internalNodes>
          <leafValues>
            -7.0688658952713013e-01 5.2996736019849777e-02</leafValues></_>
        <_>
          <internalNodes>
            0 -1 854 5.0248927436769009e-03</internalNodes>
          <leafValues>
            -9.1984525322914124e-02 4.3076241016387939e-01</leafValues></_>
        <_>
          <internalNodes>
            0 -1 852 1.0352190583944321e-03</internalNodes>
          <leafValues>
            -1.7568124830722809e-01 2.2220030426979065e-01</leafValues></_>
        <_>
          <internalNodes>
            0 -1 44 2.5335716782137752e-04</internalNodes>
          <leafValues>
            -2.4231715500354767e-01 1.4867551624774933e-01</leafValues></_>
        <_>
          <internalNodes>
            0 -1 519 -1.4764948748052120e-02</internalNodes>
          <leafValues>
            -6.8647032976150513e-01 4.9768980592489243e-02</leafValues></_>
        <_>
          <internalNodes>
            0 -1 152 -1.1101784184575081e-02</internalNodes>
          <leafValues>
            3.5469081997871399e-01 -1.1243151873350143e-01</leafValues></_>
        <_>
          <internalNodes>
            0 -1 304 -2.4750493466854095e-03</internalNodes>
          <leafValues>
            -7.2765964269638062e-01 5.4754335433244705e-02</leafValues></_>
        <_>
          <internalNodes>
            0 -1 826 2.0459573715925217e-02</internalNodes>
          <leafValues>
            4.4402867555618286e-02 -6.0049384832382202e-01</leafValues></_>
        <_>
          <internalNodes>
            0 -1 116 1.8456855323165655e-03</internalNodes>
          <leafValues>
            8.3387196063995361e-02 -3.9933767914772034e-01</leafValues></_>
        <_>
          <internalNodes>
            0 -1 346 -2.0223022438585758e-03</internalNodes>
          <leafValues>
            4.3273642659187317e-01 -8.1323273479938507e-02</leafValues></_>
        <_>
          <internalNodes>
            0 -1 235 8.0024253111332655e-04</internalNodes>
          <leafValues>
            8.9362882077693939e-02 -4.0827083587646484e-01</leafValues></_>
        <_>
          <internalNodes>
            0 -1 920 2.6920758187770844e-02</internalNodes>
          <leafValues>
            -7.1706958115100861e-02 5.0711286067962646e-01</leafValues></_>
        <_>
          <internalNodes>
            0 -1 931 -1.1799344792962074e-02</internalNodes>
          <leafValues>
            3.5708871483802795e-01 -9.6985079348087311e-02</leafValues></_>
        <_>
          <internalNodes>
            0 -1 249 4.0642464160919189e-01</internalNodes>
          <leafValues>
            -6.1808366328477859e-02 5.3179895877838135e-01</leafValues></_></weakClassifiers></_>
    <!-- stage 14 -->
    <_>
      <maxWeakCount>60</maxWeakCount>
      <stageThreshold>-1.4106520414352417e+00</stageThreshold>
      <weakClassifiers>
        <_>
          <internalNodes>
            0 -1 469 -1.4816932380199432e-03</internalNodes>
          <leafValues>
            4.7203969955444336e-01 -1.0832171142101288e-01</leafValues></_>
        <_>
          <internalNodes>
            0 -1 429 2.3069432377815247e-01</internalNodes>
          <leafValues>
            -1.0168527066707611e-01 4.7315862774848938e-01</leafValues></_>
        <_>
          <internalNodes>
            0 -1 461 1.8856488168239594e-02</internalNodes>
          <leafValues>
            1.3189852237701416e-01 -4.3817844986915588e-01</leafValues></_>
        <_>
          <internalNodes>
            0 -1 913 -4.4537289068102837e-03</internalNodes>
          <leafValues>
            6.0735940933227539e-01 -8.5665412247180939e-02</leafValues></_>
        <_>
          <internalNodes>
            0 -1 944 2.1141257137060165e-02</internalNodes>
          <leafValues>
            -1.2548965215682983e-01 4.3584331870079041e-01</leafValues></_>
        <_>
          <internalNodes>
            0 -1 274 -3.0050568282604218e-02</internalNodes>
          <leafValues>
            -7.4773854017257690e-01 7.1255788207054138e-02</leafValues></_>
        <_>
          <internalNodes>
            0 -1 589 1.6471080016344786e-05</internalNodes>
          <leafValues>
            -3.3106362819671631e-01 1.2581643462181091e-01</leafValues></_>
        <_>
          <internalNodes>
            0 -1 722 2.4209979921579361e-02</internalNodes>
          <leafValues>
            -8.5179068148136139e-02 6.4936041831970215e-01</leafValues></_>
        <_>
          <internalNodes>
            0 -1 721 -1.1809239163994789e-02</internalNodes>
          <leafValues>
            3.3463975787162781e-01 -1.2693600356578827e-01</leafValues></_>
        <_>
          <internalNodes>
            0 -1 901 7.6240923954173923e-04</internalNodes>
          <leafValues>
            1.3282334804534912e-01 -3.4917154908180237e-01</leafValues></_>
        <_>
          <internalNodes>
            0 -1 901 -6.8526924587786198e-04</internalNodes>
          <leafValues>
            -3.5890671610832214e-01 1.2133350223302841e-01</leafValues></_>
        <_>
          <internalNodes>
            0 -1 642 -2.0799145102500916e-02</internalNodes>
          <leafValues>
            -4.3663480877876282e-01 9.9936880171298981e-02</leafValues></_>
        <_>
          <internalNodes>
            0 -1 196 -4.8572476953268051e-03</internalNodes>
          <leafValues>
            2.8820970654487610e-01 -1.6046750545501709e-01</leafValues></_>
        <_>
          <internalNodes>
            0 -1 379 1.9990843720734119e-03</internalNodes>
          <leafValues>
            -2.0391163229942322e-01 2.8651618957519531e-01</leafValues></_>
        <_>
          <internalNodes>
            0 -1 255 4.0426403284072876e-03</internalNodes>
          <leafValues>
            -5.6342389434576035e-02 5.7596749067306519e-01</leafValues></_>
        <_>
          <internalNodes>
            0 -1 625 -5.4073296487331390e-03</internalNodes>
          <leafValues>
            -6.4038145542144775e-01 6.8423412740230560e-02</leafValues></_>
        <_>
          <internalNodes>
            0 -1 629 4.0727090090513229e-03</internalNodes>
          <leafValues>
            -1.9210577011108398e-01 1.8922817707061768e-01</leafValues></_>
        <_>
          <internalNodes>
            0 -1 540 -8.3880795864388347e-04</internalNodes>
          <leafValues>
            -3.0211994051933289e-01 1.3332037627696991e-01</leafValues></_>
        <_>
          <internalNodes>
            0 -1 772 3.6119315773248672e-03</internalNodes>
          <leafValues>
            -9.8592974245548248e-02 4.0601283311843872e-01</leafValues></_>
        <_>
          <internalNodes>
            0 -1 878 -3.5802922211587429e-03</internalNodes>
          <leafValues>
            5.1515692472457886e-01 -6.1206955462694168e-02</leafValues></_>
        <_>
          <internalNodes>
            0 -1 586 7.6689140405505896e-04</internalNodes>
          <leafValues>
            -2.1942402422428131e-01 1.7210385203361511e-01</leafValues></_>
        <_>
          <internalNodes>
            0 -1 334 1.6735530152800493e-05</internalNodes>
          <leafValues>
            -2.2093647718429565e-01 1.5723632276058197e-01</leafValues></_>
        <_>
          <internalNodes>
            0 -1 963 -5.3920103237032890e-03</internalNodes>
          <leafValues>
            3.0185112357139587e-01 -1.1904536932706833e-01</leafValues></_>
        <_>
          <internalNodes>
            0 -1 749 2.6487119030207396e-03</internalNodes>
          <leafValues>
            -1.2278178334236145e-01 2.7155631780624390e-01</leafValues></_>
        <_>
          <internalNodes>
            0 -1 567 -4.0252348408102989e-03</internalNodes>
          <leafValues>
            -6.2860524654388428e-01 6.1459012329578400e-02</leafValues></_>
        <_>
          <internalNodes>
            0 -1 79 8.7711401283740997e-03</internalNodes>
          <leafValues>
            4.1365861892700195e-02 -7.4506622552871704e-01</leafValues></_>
        <_>
          <internalNodes>
            0 -1 896 -4.0871207602322102e-03</internalNodes>
          <leafValues>
            4.2474839091300964e-01 -9.4607092440128326e-02</leafValues></_>
        <_>
          <internalNodes>
            0 -1 418 9.8095927387475967e-04</internalNodes>
          <leafValues>
            -2.8880813717842102e-01 1.2861323356628418e-01</leafValues></_>
        <_>
          <internalNodes>
            0 -1 52 4.5832702890038490e-03</internalNodes>
          <leafValues>
            -1.7292608320713043e-01 2.1013873815536499e-01</leafValues></_>
        <_>
          <internalNodes>
            0 -1 481 1.0382009670138359e-02</internalNodes>
          <leafValues>
            -1.3746328651905060e-01 3.6334943771362305e-01</leafValues></_>
        <_>
          <internalNodes>
            0 -1 572 -6.9538521347567439e-04</internalNodes>
          <leafValues>
            2.4976834654808044e-01 -1.3667130470275879e-01</leafValues></_>
        <_>
          <internalNodes>
            0 -1 392 5.3003383800387383e-03</internalNodes>
          <leafValues>
            -1.3638888299465179e-01 2.5673642754554749e-01</leafValues></_>
        <_>
          <internalNodes>
            0 -1 10 -3.0934420647099614e-04</internalNodes>
          <leafValues>
            -3.2217365503311157e-01 1.2125803530216217e-01</leafValues></_>
        <_>
          <internalNodes>
            0 -1 148 2.6563238352537155e-03</internalNodes>
          <leafValues>
            5.6434791535139084e-02 -5.9811514616012573e-01</leafValues></_>
        <_>
          <internalNodes>
            0 -1 687 -4.2583611793816090e-03</internalNodes>
          <leafValues>
            4.0553119778633118e-01 -8.6994156241416931e-02</leafValues></_>
        <_>
          <internalNodes>
            0 -1 500 4.1658431291580200e-03</internalNodes>
          <leafValues>
            8.6145862936973572e-02 -4.3004477024078369e-01</leafValues></_>
        <_>
          <internalNodes>
            0 -1 861 -1.5567727386951447e-03</internalNodes>
          <leafValues>
            3.3536648750305176e-01 -1.0372936725616455e-01</leafValues></_>
        <_>
          <internalNodes>
            0 -1 912 2.3217506706714630e-02</internalNodes>
          <leafValues>
