<?xml version="1.0"?>
<opencv_storage>
<cascade>
  <stageType>BOOST</stageType>
  <featureType>HAAR</featureType>
  <height>20</height>
  <width>20</width>
  <stageParams>
    <boostType>GAB</boostType>
    <minHitRate>9.9900001287460327e-01</minHitRate>
    <maxFalseAlarm>5.0000000000000000e-01</maxFalseAlarm>
    <weightTrimRate>9.4999999999999996e-01</weightTrimRate>
    <maxDepth>1</maxDepth>
    <maxWeakCount>100</maxWeakCount></stageParams>
  <featureParams>
    <maxCatCount>0</maxCatCount>
    <featSize>1</featSize>
    <mode>ALL</mode></featureParams>
  <stageNum>35</stageNum>
  <stages>
    <!-- stage 0 -->
    <_>
      <maxWeakCount>10</maxWeakCount>
      <stageThreshold>-1.8133178949356079e+00</stageThreshold>
      <weakClassifiers>
        <_>
          <internalNodes>
            0 -1 1052 2.0061668008565903e-02</internalNodes>
          <leafValues>
            -5.5312156677246094e-01 7.2113078832626343e-01</leafValues></_>
        <_>
          <internalNodes>
            0 -1 1383 1.5602908097207546e-03</internalNodes>
          <leafValues>
            -3.2566848397254944e-01 7.3269456624984741e-01</leafValues></_>
        <_>
          <internalNodes>
            0 -1 414 -6.7803859710693359e-02</internalNodes>
          <leafValues>
            -7.2303986549377441e-01 3.3697330951690674e-01</leafValues></_>
        <_>
          <internalNodes>
            0 -1 991 -2.6985662989318371e-03</internalNodes>
          <leafValues>
            6.0820591449737549e-01 -3.9626166224479675e-01</leafValues></_>
        <_>
          <internalNodes>
            0 -1 493 1.1702692136168480e-03</internalNodes>
          <leafValues>
            -2.4713318049907684e-01 7.0060664415359497e-01</leafValues></_>
        <_>
          <internalNodes>
            0 -1 611 5.5300682783126831e-02</internalNodes>
          <leafValues>
            -2.4867194890975952e-01 6.7976504564285278e-01</leafValues></_>
        <_>
          <internalNodes>
            0 -1 491 1.7559897387400270e-03</internalNodes>
          <leafValues>
            -2.1434368193149567e-01 6.7868202924728394e-01</leafValues></_>
        <_>
          <internalNodes>
            0 -1 508 -1.4769721310585737e-03</internalNodes>
          <leafValues>
            7.0671707391738892e-01 -2.4580101668834686e-01</leafValues></_>
        <_>
          <internalNodes>
            0 -1 1823 7.7662378316745162e-04</internalNodes>
          <leafValues>
            3.0899390578269958e-01 -5.4294538497924805e-01</leafValues></_>
        <_>
          <internalNodes>
            0 -1 635 2.2356021218001842e-03</internalNodes>
          <leafValues>
            -2.7331671118736267e-01 5.6509149074554443e-01</leafValues></_></weakClassifiers></_>
    <!-- stage 1 -->
    <_>
      <maxWeakCount>16</maxWeakCount>
      <stageThreshold>-1.5573447942733765e+00</stageThreshold>
      <weakClassifiers>
        <_>
          <internalNodes>
            0 -1 1174 -2.2585941478610039e-03</internalNodes>
          <leafValues>
            5.8565402030944824e-01 -6.1587303876876831e-01</leafValues></_>
        <_>
          <internalNodes>
            0 -1 898 1.3624507933855057e-02</internalNodes>
          <leafValues>
            -4.0778148174285889e-01 5.2255052328109741e-01</leafValues></_>
        <_>
          <internalNodes>
            0 -1 158 9.0819612145423889e-02</internalNodes>
          <leafValues>
            -2.2732672095298767e-01 5.5430984497070313e-01</leafValues></_>
        <_>
          <internalNodes>
            0 -1 493 6.1412272043526173e-04</internalNodes>
          <leafValues>
            -2.9489901661872864e-01 4.9975818395614624e-01</leafValues></_>
        <_>
          <internalNodes>
            0 -1 489 1.4031589962542057e-03</internalNodes>
          <leafValues>
            -2.2864216566085815e-01 5.3369897603988647e-01</leafValues></_>
        <_>
          <internalNodes>
            0 -1 1104 3.3585042692720890e-03</internalNodes>
          <leafValues>
            -3.2482215762138367e-01 3.5684329271316528e-01</leafValues></_>
        <_>
          <internalNodes>
            0 -1 920 3.7806236650794744e-04</internalNodes>
          <leafValues>
            -2.6822170615196228e-01 4.1157257556915283e-01</leafValues></_>
        <_>
          <internalNodes>
            0 -1 220 -2.3442376405000687e-02</internalNodes>
          <leafValues>
            2.9941788315773010e-01 -3.7516528367996216e-01</leafValues></_>
        <_>
          <internalNodes>
            0 -1 6 3.8065183907747269e-03</internalNodes>
          <leafValues>
            1.8202614784240723e-01 -5.7915282249450684e-01</leafValues></_>
        <_>
          <internalNodes>
            0 -1 1179 1.4304800424724817e-03</internalNodes>
          <leafValues>
            -2.5743412971496582e-01 4.4353479146957397e-01</leafValues></_>
        <_>
          <internalNodes>
            0 -1 7 -4.9651484005153179e-03</internalNodes>
          <leafValues>
            -4.5729556679725647e-01 2.1460099518299103e-01</leafValues></_>
        <_>
          <internalNodes>
            0 -1 321 1.8743010004982352e-03</internalNodes>
          <leafValues>
            -2.6818808913230896e-01 3.6182191967964172e-01</leafValues></_>
        <_>
          <internalNodes>
            0 -1 953 1.4738843310624361e-03</internalNodes>
          <leafValues>
            -2.1591588854789734e-01 4.5892661809921265e-01</leafValues></_>
        <_>
          <internalNodes>
            0 -1 822 -6.0946747660636902e-02</internalNodes>
          <leafValues>
            7.4002546072006226e-01 -1.0969401895999908e-01</leafValues></_>
        <_>
          <internalNodes>
            0 -1 276 8.0553002655506134e-02</internalNodes>
          <leafValues>
            -2.1201002597808838e-01 4.7042527794837952e-01</leafValues></_>
        <_>
          <internalNodes>
            0 -1 680 6.4777722582221031e-03</internalNodes>
          <leafValues>
            -1.7721825838088989e-01 4.8040810227394104e-01</leafValues></_></weakClassifiers></_>
    <!-- stage 2 -->
    <_>
      <maxWeakCount>24</maxWeakCount>
      <stageThreshold>-1.4088969230651855e+00</stageThreshold>
      <weakClassifiers>
        <_>
          <internalNodes>
            0 -1 825 4.9355834722518921e-02</internalNodes>
          <leafValues>
            -1.8817786872386932e-01 6.9540661573410034e-01</leafValues></_>
        <_>
          <internalNodes>
            0 -1 161 1.3121846318244934e-01</internalNodes>
          <leafValues>
            -1.4944404363632202e-01 5.9139239788055420e-01</leafValues></_>
        <_>
          <internalNodes>
            0 -1 970 3.9049994666129351e-03</internalNodes>
          <leafValues>
            -2.2324262559413910e-01 4.1455242037773132e-01</leafValues></_>
        <_>
          <internalNodes>
            0 -1 433 -2.2170193493366241e-02</internalNodes>
          <leafValues>
            2.4805428087711334e-01 -4.1181555390357971e-01</leafValues></_>
        <_>
          <internalNodes>
            0 -1 1125 3.4572593867778778e-03</internalNodes>
          <leafValues>
            -3.0535614490509033e-01 2.8861200809478760e-01</leafValues></_>
        <_>
          <internalNodes>
            0 -1 1846 9.3361409381031990e-04</internalNodes>
          <leafValues>
            1.6735830903053284e-01 -4.8473542928695679e-01</leafValues></_>
        <_>
          <internalNodes>
            0 -1 1376 5.5572402197867632e-04</internalNodes>
          <leafValues>
            -2.6002418994903564e-01 3.7117812037467957e-01</leafValues></_>
        <_>
          <internalNodes>
            0 -1 508 1.2718109646812081e-03</internalNodes>
          <leafValues>
            -1.9820803403854370e-01 3.8995087146759033e-01</leafValues></_>
        <_>
          <internalNodes>
            0 -1 1404 -8.3270147442817688e-03</internalNodes>
          <leafValues>
            -8.8952136039733887e-01 8.9862108230590820e-02</leafValues></_>
        <_>
          <internalNodes>
            0 -1 900 3.4070639230776578e-05</internalNodes>
          <leafValues>
            -4.7425293922424316e-01 1.6923919320106506e-01</leafValues></_>
        <_>
          <internalNodes>
            0 -1 815 1.7305454611778259e-01</internalNodes>
          <leafValues>
            -8.2173623144626617e-02 8.1649661064147949e-01</leafValues></_>
        <_>
          <internalNodes>
            0 -1 142 -9.5792755484580994e-02</internalNodes>
          <leafValues>
            5.8786135911941528e-01 -1.3129515945911407e-01</leafValues></_>
        <_>
          <internalNodes>
            0 -1 868 2.6486862916499376e-03</internalNodes>
          <leafValues>
            -1.2504738569259644e-01 5.1090168952941895e-01</leafValues></_>
        <_>
          <internalNodes>
            0 -1 636 2.7467040345072746e-03</internalNodes>
          <leafValues>
            -2.0254157483577728e-01 4.2261978983879089e-01</leafValues></_>
        <_>
          <internalNodes>
            0 -1 1866 -7.4976251926273108e-04</internalNodes>
          <leafValues>
            -5.3530424833297729e-01 1.4383620023727417e-01</leafValues></_>
        <_>
          <internalNodes>
            0 -1 136 7.2294590063393116e-04</internalNodes>
          <leafValues>
            1.7341728508472443e-01 -3.6973622441291809e-01</leafValues></_>
        <_>
          <internalNodes>
            0 -1 1447 -3.4642350510694087e-04</internalNodes>
          <leafValues>
            2.6519763469696045e-01 -2.5451067090034485e-01</leafValues></_>
        <_>
          <internalNodes>
            0 -1 703 -5.1583754830062389e-03</internalNodes>
          <leafValues>
            5.9707176685333252e-01 -1.0776449739933014e-01</leafValues></_>
        <_>
          <internalNodes>
            0 -1 635 1.2729073641821742e-03</internalNodes>
          <leafValues>
            -2.3756018280982971e-01 3.1583219766616821e-01</leafValues></_>
        <_>
          <internalNodes>
            0 -1 524 -2.0199386199237779e-05</internalNodes>
          <leafValues>
            1.5147997438907623e-01 -4.6840298175811768e-01</leafValues></_>
        <_>
          <internalNodes>
            0 -1 473 3.6343610845506191e-03</internalNodes>
          <leafValues>
            -1.2572333216667175e-01 5.6641435623168945e-01</leafValues></_>
        <_>
          <internalNodes>
            0 -1 136 -1.0329824872314930e-03</internalNodes>
          <leafValues>
            -4.4014200568199158e-01 1.6425654292106628e-01</leafValues></_>
        <_>
          <internalNodes>
            0 -1 333 1.2222044169902802e-03</internalNodes>
          <leafValues>
            -2.0149810612201691e-01 3.4738484025001526e-01</leafValues></_>
        <_>
          <internalNodes>
            0 -1 1124 1.3728239573538303e-03</internalNodes>
          <leafValues>
            -1.5886744856834412e-01 3.8181358575820923e-01</leafValues></_></weakClassifiers></_>
    <!-- stage 3 -->
    <_>
      <maxWeakCount>38</maxWeakCount>
      <stageThreshold>-1.5558875799179077e+00</stageThreshold>
      <weakClassifiers>
        <_>
          <internalNodes>
            0 -1 698 -2.6470497250556946e-02</internalNodes>
          <leafValues>
            6.0340136289596558e-01 -1.7564103007316589e-01</leafValues></_>
        <_>
          <internalNodes>
            0 -1 34 1.3600501418113708e-01</internalNodes>
          <leafValues>
            -1.9633455574512482e-01 5.0006484985351563e-01</leafValues></_>
        <_>
          <internalNodes>
            0 -1 991 -1.4963564462959766e-03</internalNodes>
          <leafValues>
            2.8785270452499390e-01 -3.0927085876464844e-01</leafValues></_>
        <_>
          <internalNodes>
            0 -1 267 9.8924175836145878e-04</internalNodes>
          <leafValues>
            1.7522491514682770e-01 -4.3622586131095886e-01</leafValues></_>
        <_>
          <internalNodes>
            0 -1 1504 3.1679130624979734e-03</internalNodes>
          <leafValues>
            -2.2274838387966156e-01 3.7998071312904358e-01</leafValues></_>
        <_>
          <internalNodes>
            0 -1 1305 4.0969988331198692e-03</internalNodes>
          <leafValues>
            -1.5324898064136505e-01 4.3448579311370850e-01</leafValues></_>
        <_>
          <internalNodes>
            0 -1 387 -8.9750107144936919e-04</internalNodes>
          <leafValues>
            -5.3247135877609253e-01 1.5073110163211823e-01</leafValues></_>
        <_>
          <internalNodes>
            0 -1 1534 4.3354677472962067e-05</internalNodes>
          <leafValues>
            -3.3553951978683472e-01 2.0969448983669281e-01</leafValues></_>
        <_>
          <internalNodes>
            0 -1 402 5.4536592215299606e-02</internalNodes>
          <leafValues>
            -1.2931159138679504e-01 5.6268393993377686e-01</leafValues></_>
        <_>
          <internalNodes>
            0 -1 1291 8.1567978486418724e-04</internalNodes>
          <leafValues>
            -4.1990539431571960e-01 1.7132662236690521e-01</leafValues></_>
        <_>
          <internalNodes>
            0 -1 1311 1.0426111519336700e-02</internalNodes>
          <leafValues>
            1.0903691500425339e-01 -6.1918950080871582e-01</leafValues></_>
        <_>
          <internalNodes>
            0 -1 1823 1.1411219602450728e-03</internalNodes>
          <leafValues>
            1.2553428113460541e-01 -4.2317539453506470e-01</leafValues></_>
        <_>
          <internalNodes>
            0 -1 677 7.3789252201095223e-04</internalNodes>
          <leafValues>
            -2.2545191645622253e-01 2.8134146332740784e-01</leafValues></_>
        <_>
          <internalNodes>
            0 -1 677 -4.8276982270181179e-03</internalNodes>
          <leafValues>
            6.4261060953140259e-01 -1.0843760520219803e-01</leafValues></_>
        <_>
          <internalNodes>
            0 -1 1302 2.3481147945858538e-04</internalNodes>
          <leafValues>
            -2.1450611948966980e-01 2.5745719671249390e-01</leafValues></_>
        <_>
          <internalNodes>
            0 -1 1843 -8.2425907021388412e-04</internalNodes>
          <leafValues>
            -4.6794152259826660e-01 1.2206932902336121e-01</leafValues></_>
        <_>
          <internalNodes>
            0 -1 1586 -1.8586365040391684e-03</internalNodes>
          <leafValues>
            3.4265717864036560e-01 -1.7298932373523712e-01</leafValues></_>
        <_>
          <internalNodes>
            0 -1 724 3.8728580693714321e-04</internalNodes>
          <leafValues>
            -1.9637741148471832e-01 2.8407713770866394e-01</leafValues></_>
        <_>
          <internalNodes>
            0 -1 724 -1.7223779577761889e-03</internalNodes>
          <leafValues>
            4.9484470486640930e-01 -1.4047321677207947e-01</leafValues></_>
        <_>
          <internalNodes>
            0 -1 525 9.1402856633067131e-03</internalNodes>
          <leafValues>
            9.1337315738201141e-02 -6.8601799011230469e-01</leafValues></_>
        <_>
          <internalNodes>
            0 -1 1540 -2.6083369739353657e-03</internalNodes>
          <leafValues>
            3.1710502505302429e-01 -1.9954824447631836e-01</leafValues></_>
        <_>
          <internalNodes>
            0 -1 1847 6.0033485293388367e-02</internalNodes>
          <leafValues>
            9.4712816178798676e-02 -6.1458480358123779e-01</leafValues></_>
        <_>
          <internalNodes>
            0 -1 1555 1.6814230475574732e-03</internalNodes>
          <leafValues>
            -1.5879660844802856e-01 3.5988560318946838e-01</leafValues></_>
        <_>
          <internalNodes>
            0 -1 690 -5.2935671992599964e-03</internalNodes>
          <leafValues>
            -6.6899067163467407e-01 8.2227490842342377e-02</leafValues></_>
        <_>
          <internalNodes>
            0 -1 957 4.7426484525203705e-04</internalNodes>
          <leafValues>
            -1.8748866021633148e-01 2.9170650243759155e-01</leafValues></_>
        <_>
          <internalNodes>
            0 -1 976 5.1308283582329750e-04</internalNodes>
          <leafValues>
            -1.6508740186691284e-01 3.0334302783012390e-01</leafValues></_>
        <_>
          <internalNodes>
            0 -1 594 -1.1128932237625122e-01</internalNodes>
          <leafValues>
            4.9672132730484009e-01 -1.0264150053262711e-01</leafValues></_>
        <_>
          <internalNodes>
            0 -1 953 1.5656569739803672e-03</internalNodes>
          <leafValues>
            -1.7948509752750397e-01 3.3061280846595764e-01</leafValues></_>
        <_>
          <internalNodes>
            0 -1 67 -5.3451873362064362e-02</internalNodes>
          <leafValues>
            4.6401584148406982e-01 -1.0779204219579697e-01</leafValues></_>
        <_>
          <internalNodes>
            0 -1 1490 1.6003954410552979e-01</internalNodes>
          <leafValues>
            8.4349311888217926e-02 -7.4149668216705322e-01</leafValues></_>
        <_>
          <internalNodes>
            0 -1 60 -8.5110811050981283e-04</internalNodes>
          <leafValues>
            -4.3275007605552673e-01 1.0272525250911713e-01</leafValues></_>
        <_>
          <internalNodes>
            0 -1 739 1.5613855794072151e-04</internalNodes>
          <leafValues>
            -1.7371772229671478e-01 3.0691245198249817e-01</leafValues></_>
        <_>
          <internalNodes>
            0 -1 60 8.4544741548597813e-04</internalNodes>
          <leafValues>
            1.2102722376585007e-01 -4.2155078053474426e-01</leafValues></_>
        <_>
          <internalNodes>
            0 -1 549 7.7839344157837331e-05</internalNodes>
          <leafValues>
            -2.0862612128257751e-01 2.5735059380531311e-01</leafValues></_>
        <_>
          <internalNodes>
            0 -1 1799 2.9712861403822899e-02</internalNodes>
          <leafValues>
            -2.2958675026893616e-01 2.0187938213348389e-01</leafValues></_>
        <_>
          <internalNodes>
            0 -1 743 3.5909767029806972e-04</internalNodes>
          <leafValues>
            -1.7537032067775726e-01 2.9298120737075806e-01</leafValues></_>
        <_>
          <internalNodes>
            0 -1 1196 1.6186283901333809e-03</internalNodes>
          <leafValues>
            -1.5903860330581665e-01 3.3767253160476685e-01</leafValues></_>
        <_>
          <internalNodes>
            0 -1 1512 -2.1460780873894691e-02</internalNodes>
          <leafValues>
            -6.3491404056549072e-01 8.1922821700572968e-02</leafValues></_></weakClassifiers></_>
    <!-- stage 4 -->
    <_>
      <maxWeakCount>31</maxWeakCount>
      <stageThreshold>-1.3537213802337646e+00</stageThreshold>
      <weakClassifiers>
        <_>
          <internalNodes>
            0 -1 1076 4.3217036873102188e-03</internalNodes>
          <leafValues>
            -2.2327044606208801e-01 5.5266416072845459e-01</leafValues></_>
        <_>
          <internalNodes>
            0 -1 77 1.7385080456733704e-01</internalNodes>
          <leafValues>
            -2.0439244806766510e-01 4.0773463249206543e-01</leafValues></_>
        <_>
          <internalNodes>
            0 -1 1496 4.6978127211332321e-03</internalNodes>
          <leafValues>
            -1.7695768177509308e-01 4.8216146230697632e-01</leafValues></_>
        <_>
          <internalNodes>
            0 -1 1301 2.9565407894551754e-03</internalNodes>
          <leafValues>
            -2.0183207094669342e-01 5.7955509424209595e-01</leafValues></_>
        <_>
          <internalNodes>
            0 -1 853 4.9191690050065517e-03</internalNodes>
          <leafValues>
            -1.5669444203376770e-01 4.4240191578865051e-01</leafValues></_>
        <_>
          <internalNodes>
            0 -1 333 2.5507672689855099e-03</internalNodes>
          <leafValues>
            -1.4427457749843597e-01 5.0137001276016235e-01</leafValues></_>
        <_>
          <internalNodes>
            0 -1 333 -4.0419371798634529e-03</internalNodes>
          <leafValues>
            6.0063248872756958e-01 -1.1472015082836151e-01</leafValues></_>
        <_>
          <internalNodes>
            0 -1 703 -3.4221399109810591e-03</internalNodes>
          <leafValues>
            4.7447112202644348e-01 -1.4774957299232483e-01</leafValues></_>
        <_>
          <internalNodes>
            0 -1 1129 1.6617577784927562e-05</internalNodes>
          <leafValues>
            -3.7477627396583557e-01 2.0418405532836914e-01</leafValues></_>
        <_>
          <internalNodes>
            0 -1 1352 -4.7517558559775352e-03</internalNodes>
          <leafValues>
            -5.8852285146713257e-01 1.3583657145500183e-01</leafValues></_>
        <_>
          <internalNodes>
            0 -1 1103 -1.7759657930582762e-03</internalNodes>
          <leafValues>
            5.4839265346527100e-01 -1.5363459289073944e-01</leafValues></_>
        <_>
          <internalNodes>
            0 -1 1600 -3.1273835338652134e-04</internalNodes>
          <leafValues>
            -4.0144896507263184e-01 1.7962145805358887e-01</leafValues></_>
        <_>
          <internalNodes>
            0 -1 1600 2.3185962345451117e-04</internalNodes>
          <leafValues>
            1.6290158033370972e-01 -4.4937255978584290e-01</leafValues></_>
        <_>
          <internalNodes>
            0 -1 493 9.1140624135732651e-04</internalNodes>
          <leafValues>
            -1.8573300540447235e-01 3.0480399727821350e-01</leafValues></_>
        <_>
          <internalNodes>
            0 -1 1430 1.4205977786332369e-03</internalNodes>
          <leafValues>
            -1.3681565225124359e-01 4.0280538797378540e-01</leafValues></_>
        <_>
          <internalNodes>
            0 -1 1194 6.1247451230883598e-03</internalNodes>
          <leafValues>
            8.5199631750583649e-02 -7.8439444303512573e-01</leafValues></_>
        <_>
          <internalNodes>
            0 -1 722 -2.7212446555495262e-02</internalNodes>
          <leafValues>
            -6.6905361413955688e-01 6.9326385855674744e-02</leafValues></_>
        <_>
          <internalNodes>
            0 -1 1155 8.6121255299076438e-04</internalNodes>
          <leafValues>
            -2.5562456250190735e-01 1.9589377939701080e-01</leafValues></_>
        <_>
          <internalNodes>
            0 -1 1535 -3.6017321981489658e-03</internalNodes>
          <leafValues>
            4.5003390312194824e-01 -1.0861822962760925e-01</leafValues></_>
        <_>
          <internalNodes>
            0 -1 204 -3.0499443411827087e-02</internalNodes>
          <leafValues>
            -5.7003605365753174e-01 9.4319723546504974e-02</leafValues></_>
        <_>
          <internalNodes>
            0 -1 1199 1.3712889049202204e-03</internalNodes>
          <leafValues>
            -1.4614348113536835e-01 3.6192244291305542e-01</leafValues></_>
        <_>
          <internalNodes>
            0 -1 279 4.8281718045473099e-04</internalNodes>
          <leafValues>
            1.4551450312137604e-01 -3.4046214818954468e-01</leafValues></_>
        <_>
          <internalNodes>
            0 -1 279 -1.8845961312763393e-04</internalNodes>
          <leafValues>
            -3.2665157318115234e-01 1.4703378081321716e-01</leafValues></_>
        <_>
          <internalNodes>
            0 -1 493 -3.0188616365194321e-03</internalNodes>
          <leafValues>
            5.7329583168029785e-01 -8.5189126431941986e-02</leafValues></_>
        <_>
          <internalNodes>
            0 -1 1536 5.0427427049726248e-04</internalNodes>
          <leafValues>
            -2.5307911634445190e-01 1.9179397821426392e-01</leafValues></_>
        <_>
          <internalNodes>
            0 -1 473 -3.7533943541347980e-03</internalNodes>
          <leafValues>
            4.0384328365325928e-01 -1.2501765787601471e-01</leafValues></_>
        <_>
          <internalNodes>
            0 -1 518 5.3413743153214455e-03</internalNodes>
          <leafValues>
            8.9299969375133514e-02 -6.2283688783645630e-01</leafValues></_>
        <_>
          <internalNodes>
            0 -1 1704 -1.2643930967897177e-03</internalNodes>
          <leafValues>
            4.0261259675025940e-01 -1.2913300096988678e-01</leafValues></_>
        <_>
          <internalNodes>
            0 -1 672 -7.7473009005188942e-03</internalNodes>
          <leafValues>
            -6.7290276288986206e-01 8.4058679640293121e-02</leafValues></_>
        <_>
          <internalNodes>
            0 -1 543 -1.4133737422525883e-03</internalNodes>
          <leafValues>
            3.4165301918983459e-01 -1.5075315535068512e-01</leafValues></_>
        <_>
          <internalNodes>
            0 -1 1196 8.3053932758048177e-04</internalNodes>
          <leafValues>
            -1.8142360448837280e-01 2.6766979694366455e-01</leafValues></_></weakClassifiers></_>
    <!-- stage 5 -->
    <_>
      <maxWeakCount>26</maxWeakCount>
      <stageThreshold>-1.3298761844635010e+00</stageThreshold>
      <weakClassifiers>
        <_>
          <internalNodes>
            0 -1 1170 -3.6488505429588258e-05</internalNodes>
          <leafValues>
            6.4897263050079346e-01 -7.3937154375016689e-03</leafValues></_>
        <_>
          <internalNodes>
            0 -1 1484 1.1879466183017939e-04</internalNodes>
          <leafValues>
            -2.5594452023506165e-01 4.2598706483840942e-01</leafValues></_>
        <_>
          <internalNodes>
            0 -1 1000 2.1583540365099907e-04</internalNodes>
          <leafValues>
            -2.5433456897735596e-01 3.7847471237182617e-01</leafValues></_>
        <_>
          <internalNodes>
            0 -1 1287 -2.9845056124031544e-03</internalNodes>
          <leafValues>
            6.1067306995391846e-01 -1.9428847730159760e-01</leafValues></_>
        <_>
          <internalNodes>
            0 -1 920 2.2781592269893736e-04</internalNodes>
          <leafValues>
            -2.5225618481636047e-01 3.6865466833114624e-01</leafValues></_>
        <_>
          <internalNodes>
            0 -1 888 -3.1333533115684986e-04</internalNodes>
          <leafValues>
            4.1301763057708740e-01 -2.3393774032592773e-01</leafValues></_>
        <_>
          <internalNodes>
            0 -1 703 1.8337776418775320e-03</internalNodes>
          <leafValues>
            -2.0356854796409607e-01 4.8680710792541504e-01</leafValues></_>
        <_>
          <internalNodes>
            0 -1 774 2.0564113219734281e-04</internalNodes>
          <leafValues>
            -1.9416195154190063e-01 3.6413729190826416e-01</leafValues></_>
        <_>
          <internalNodes>
            0 -1 773 2.2690869809594005e-04</internalNodes>
          <leafValues>
            -2.4559630453586578e-01 3.1706169247627258e-01</leafValues></_>
        <_>
          <internalNodes>
            0 -1 491 1.1964091099798679e-03</internalNodes>
          <leafValues>
            -1.7429147660732269e-01 4.0408769249916077e-01</leafValues></_>
        <_>
          <internalNodes>
            0 -1 657 3.2949913293123245e-04</internalNodes>
          <leafValues>
            -2.6240888237953186e-01 2.6980209350585938e-01</leafValues></_>
        <_>
          <internalNodes>
            0 -1 716 -2.4622041732072830e-02</internalNodes>
          <leafValues>
            -5.2611863613128662e-01 1.4264543354511261e-01</leafValues></_>
        <_>
          <internalNodes>
            0 -1 849 9.6826674416661263e-03</internalNodes>
          <leafValues>
            -1.8676848709583282e-01 4.0613004565238953e-01</leafValues></_>
        <_>
          <internalNodes>
            0 -1 1172 2.4435671046376228e-02</internalNodes>
          <leafValues>
            8.0429561436176300e-02 -8.4162729978561401e-01</leafValues></_>
        <_>
          <internalNodes>
            0 -1 1396 4.7250045463442802e-03</internalNodes>
          <leafValues>
            9.6701346337795258e-02 -6.1604970693588257e-01</leafValues></_>
        <_>
          <internalNodes>
            0 -1 341 9.5378011465072632e-03</internalNodes>
          <leafValues>
            1.0792015492916107e-01 -5.8629417419433594e-01</leafValues></_>
        <_>
          <internalNodes>
            0 -1 1268 6.1135925352573395e-03</internalNodes>
          <leafValues>
            -1.1742424964904785e-01 5.8169800043106079e-01</leafValues></_>
        <_>
          <internalNodes>
            0 -1 493 1.0329996002838016e-03</internalNodes>
          <leafValues>
            -1.7015929520130157e-01 3.4465566277503967e-01</leafValues></_>
        <_>
          <internalNodes>
            0 -1 1637 1.9579073414206505e-03</internalNodes>
          <leafValues>
            -1.5329746901988983e-01 3.9945107698440552e-01</leafValues></_>
        <_>
          <internalNodes>
            0 -1 227 3.2352196285501122e-04</internalNodes>
          <leafValues>
            -4.6404156088829041e-01 1.3223108649253845e-01</leafValues></_>
        <_>
          <internalNodes>
            0 -1 159 1.5270574949681759e-02</internalNodes>
          <leafValues>
            -1.7090728878974915e-01 3.4754073619842529e-01</leafValues></_>
        <_>
          <internalNodes>
            0 -1 1207 1.2091563548892736e-03</internalNodes>
          <leafValues>
            -1.3678079843521118e-01 4.0078091621398926e-01</leafValues></_>
        <_>
          <internalNodes>
            0 -1 1679 -1.6129702329635620e-02</internalNodes>
          <leafValues>
            -5.2490919828414917e-01 1.1027682572603226e-01</leafValues></_>
        <_>
          <internalNodes>
            0 -1 1516 3.9613437838852406e-03</internalNodes>
          <leafValues>
            -1.1703901737928391e-01 5.0623011589050293e-01</leafValues></_>
        <_>
          <internalNodes>
            0 -1 909 -1.3889532536268234e-02</internalNodes>
          <leafValues>
            -6.4521908760070801e-01 9.4361267983913422e-02</leafValues></_>
        <_>
          <internalNodes>
            0 -1 656 6.0138409025967121e-04</internalNodes>
          <leafValues>
            -2.1392826735973358e-01 2.5312882661819458e-01</leafValues></_></weakClassifiers></_>
    <!-- stage 6 -->
    <_>
      <maxWeakCount>45</maxWeakCount>
      <stageThreshold>-1.4514986276626587e+00</stageThreshold>
      <weakClassifiers>
        <_>
          <internalNodes>
            0 -1 74 1.3146322965621948e-01</internalNodes>
          <leafValues>
            1.5054285526275635e-01 7.3206079006195068e-01</leafValues></_>
        <_>
          <internalNodes>
            0 -1 1402 1.4239513548091054e-03</internalNodes>
          <leafValues>
            1.6353768110275269e-01 -4.9260061979293823e-01</leafValues></_>
        <_>
          <internalNodes>
            0 -1 473 4.2369076982140541e-03</internalNodes>
          <leafValues>
            -1.1351720243692398e-01 5.2595269680023193e-01</leafValues></_>
        <_>
          <internalNodes>
            0 -1 473 -4.2536123655736446e-03</internalNodes>
          <leafValues>
            5.1534408330917358e-01 -1.6331610083580017e-01</leafValues></_>
        <_>
          <internalNodes>
            0 -1 61 -1.0548159480094910e-03</internalNodes>
          <leafValues>
            -3.9200150966644287e-01 1.4969387650489807e-01</leafValues></_>
        <_>
          <internalNodes>
            0 -1 61 1.0642214911058545e-03</internalNodes>
          <leafValues>
            2.3866562545299530e-01 -4.7386682033538818e-01</leafValues></_>
        <_>
          <internalNodes>
            0 -1 356 2.9009650461375713e-03</internalNodes>
          <leafValues>
            -1.0781221091747284e-01 5.8733022212982178e-01</leafValues></_>
        <_>
          <internalNodes>
            0 -1 1492 3.8958992809057236e-03</internalNodes>
          <leafValues>
            -1.1466033011674881e-01 4.4821912050247192e-01</leafValues></_>
        <_>
          <internalNodes>
            0 -1 1486 -1.3278749771416187e-02</internalNodes>
          <leafValues>
            6.7669904232025146e-01 -1.0312449932098389e-01</leafValues></_>
        <_>
          <internalNodes>
            0 -1 1176 -2.7104590088129044e-02</internalNodes>
          <leafValues>
            -7.2326517105102539e-01 8.7962530553340912e-02</leafValues></_>
        <_>
          <internalNodes>
            0 -1 1099 2.4844938889145851e-03</internalNodes>
          <leafValues>
            -1.4721821248531342e-01 3.3087226748466492e-01</leafValues></_>
        <_>
          <internalNodes>
            0 -1 1084 -8.0315712839365005e-03</internalNodes>
          <leafValues>
            5.8998507261276245e-01 -8.6545936763286591e-02</leafValues></_>
        <_>
          <internalNodes>
            0 -1 537 8.5393507033586502e-03</internalNodes>
          <leafValues>
            7.1951635181903839e-02 -7.6185822486877441e-01</leafValues></_>
        <_>
          <internalNodes>
            0 -1 966 2.0883608609437943e-02</internalNodes>
          <leafValues>
            6.4899846911430359e-02 -6.5012609958648682e-01</leafValues></_>
        <_>
          <internalNodes>
            0 -1 530 2.2779405117034912e-03</internalNodes>
          <leafValues>
            -1.1193678528070450e-01 4.5898663997650146e-01</leafValues></_>
        <_>
          <internalNodes>
            0 -1 1848 -3.9390713209286332e-04</internalNodes>
          <leafValues>
            -3.4533059597015381e-01 1.3535273075103760e-01</leafValues></_>
        <_>
          <internalNodes>
            0 -1 311 -2.2500753402709961e-03</internalNodes>
          <leafValues>
            -4.9192702770233154e-01 9.2131890356540680e-02</leafValues></_>
        <_>
          <internalNodes>
            0 -1 835 3.4408520907163620e-02</internalNodes>
          <leafValues>
            8.4805428981781006e-02 -6.4053416252136230e-01</leafValues></_>
        <_>
          <internalNodes>
            0 -1 1848 3.5484813270159066e-04</internalNodes>
          <leafValues>
            1.1458984017372131e-01 -3.5257080197334290e-01</leafValues></_>
        <_>
          <internalNodes>
            0 -1 1302 1.6054813386290334e-05</internalNodes>
          <leafValues>
            -2.2276805341243744e-01 1.9653995335102081e-01</leafValues></_>
        <_>
          <internalNodes>
            0 -1 1543 -8.1414021551609039e-03</internalNodes>
          <leafValues>
            4.2566961050033569e-01 -1.0684200376272202e-01</leafValues></_>
        <_>
          <internalNodes>
            0 -1 333 -4.1814800351858139e-03</internalNodes>
          <leafValues>
            4.7010990977287292e-01 -8.4899730980396271e-02</leafValues></_>
        <_>
          <internalNodes>
            0 -1 493 1.3064508093520999e-03</internalNodes>
          <leafValues>
            -1.5783390402793884e-01 3.2250285148620605e-01</leafValues></_>
        <_>
          <internalNodes>
            0 -1 1660 2.1928932517766953e-02</internalNodes>
          <leafValues>
            6.1481967568397522e-02 -7.2789615392684937e-01</leafValues></_>
        <_>
          <internalNodes>
            0 -1 1613 -1.1186314746737480e-02</internalNodes>
          <leafValues>
            5.3581982851028442e-01 -9.3475431203842163e-02</leafValues></_>
        <_>
          <internalNodes>
            0 -1 695 -1.0344769805669785e-02</internalNodes>
          <leafValues>
            -6.7270153760910034e-01 7.2887316346168518e-02</leafValues></_>
        <_>
          <internalNodes>
            0 -1 955 4.0222187526524067e-03</internalNodes>
          <leafValues>
            -1.0341109335422516e-01 4.2924886941909790e-01</leafValues></_>
        <_>
          <internalNodes>
            0 -1 955 -4.6234382316470146e-03</internalNodes>
          <leafValues>
            5.1388913393020630e-01 -7.3128372430801392e-02</leafValues></_>
        <_>
          <internalNodes>
            0 -1 519 1.3063572347164154e-02</internalNodes>
          <leafValues>
            8.0576188862323761e-02 -5.3526753187179565e-01</leafValues></_>
        <_>
          <internalNodes>
            0 -1 566 3.1074373982846737e-03</internalNodes>
          <leafValues>
            7.8884176909923553e-02 -4.7094640135765076e-01</leafValues></_>
        <_>
          <internalNodes>
            0 -1 343 1.7226007767021656e-03</internalNodes>
          <leafValues>
            -1.3560643792152405e-01 2.9517018795013428e-01</leafValues></_>
        <_>
          <internalNodes>
            0 -1 1235 -4.7994381748139858e-04</internalNodes>
          <leafValues>
            1.8337436020374298e-01 -2.2092820703983307e-01</leafValues></_>
        <_>
          <internalNodes>
            0 -1 1286 5.3720432333648205e-04</internalNodes>
          <leafValues>
            1.3339750468730927e-01 -2.9899793863296509e-01</leafValues></_>
        <_>
          <internalNodes>
            0 -1 1583 1.5895516844466329e-03</internalNodes>
          <leafValues>
            -1.0760057717561722e-01 3.8588109612464905e-01</leafValues></_>
        <_>
          <internalNodes>
            0 -1 1111 1.9888414535671473e-03</internalNodes>
          <leafValues>
            -3.5163724422454834e-01 1.2103511393070221e-01</leafValues></_>
        <_>
          <internalNodes>
            0 -1 1765 -3.1553176231682301e-03</internalNodes>
          <leafValues>
            5.7381165027618408e-01 -7.1396991610527039e-02</leafValues></_>
        <_>
          <internalNodes>
            0 -1 1315 -2.5384671986103058e-02</internalNodes>
          <leafValues>
            -5.7849031686782837e-01 7.6300218701362610e-02</leafValues></_>
        <_>
          <internalNodes>
            0 -1 15 8.1897014752030373e-04</internalNodes>
          <leafValues>
            9.3715049326419830e-02 -3.7824848294258118e-01</leafValues></_>
        <_>
          <internalNodes>
            0 -1 15 -4.5826268615201116e-04</internalNodes>
          <leafValues>
            -3.4159514307975769e-01 1.0483060032129288e-01</leafValues></_>
        <_>
          <internalNodes>
            0 -1 1421 7.6485570752993226e-04</internalNodes>
          <leafValues>
            -1.4657849073410034e-01 2.5250521302223206e-01</leafValues></_>
        <_>
          <internalNodes>
            0 -1 621 1.4405662193894386e-02</internalNodes>
          <leafValues>
            -8.3958230912685394e-02 4.2782670259475708e-01</leafValues></_>
        <_>
          <internalNodes>
            0 -1 643 -1.0736461728811264e-02</internalNodes>
          <leafValues>
            -7.1582442522048950e-01 6.1541739851236343e-02</leafValues></_>
        <_>
          <internalNodes>
            0 -1 215 6.6944174468517303e-03</internalNodes>
          <leafValues>
            -7.9263783991336823e-02 5.6065785884857178e-01</leafValues></_>
        <_>
          <internalNodes>
            0 -1 1874 -4.7560059465467930e-04</internalNodes>
          <leafValues>
            -3.0381044745445251e-01 1.1886989325284958e-01</leafValues></_>
        <_>
          <internalNodes>
            0 -1 586 -4.2361430823802948e-03</internalNodes>
          <leafValues>
            5.1095074415206909e-01 -7.2148881852626801e-02</leafValues></_></weakClassifiers></_>
    <!-- stage 7 -->
    <_>
      <maxWeakCount>51</maxWeakCount>
      <stageThreshold>-1.2178604602813721e+00</stageThreshold>
      <weakClassifiers>
        <_>
          <internalNodes>
            0 -1 68 5.7555943727493286e-01</internalNodes>
          <leafValues>
            7.4764482676982880e-02 6.5494889020919800e-01</leafValues></_>
        <_>
          <internalNodes>
            0 -1 1153 -1.0112747550010681e-03</internalNodes>
          <leafValues>
            -6.2871539592742920e-01 1.3539925217628479e-01</leafValues></_>
        <_>
          <internalNodes>
            0 -1 94 -1.2164202053099871e-03</internalNodes>
          <leafValues>
            -3.8630312681198120e-01 1.4043183624744415e-01</leafValues></_>
        <_>
          <internalNodes>
            0 -1 135 6.5717531833797693e-04</internalNodes>
          <leafValues>
            1.4861625432968140e-01 -4.4525247812271118e-01</leafValues></_>
        <_>
          <internalNodes>
            0 -1 869 7.3907256592065096e-04</internalNodes>
          <leafValues>
            -2.3345676064491272e-01 2.3524013161659241e-01</leafValues></_>
        <_>
          <internalNodes>
            0 -1 1515 5.1430688472464681e-04</internalNodes>
          <leafValues>
            -1.8862965703010559e-01 2.5224742293357849e-01</leafValues></_>
        <_>
          <internalNodes>
            0 -1 890 7.7940087066963315e-04</internalNodes>
          <leafValues>
            -2.3284468054771423e-01 2.4042777717113495e-01</leafValues></_>
        <_>
          <internalNodes>
            0 -1 1327 3.2582920975983143e-03</internalNodes>
          <leafValues>
            -1.8514457345008850e-01 3.0559796094894409e-01</leafValues></_>
        <_>
          <internalNodes>
            0 -1 322 2.3794795852154493e-03</internalNodes>
          <leafValues>
            -1.3843841850757599e-01 3.3467179536819458e-01</leafValues></_>
        <_>
          <internalNodes>
            0 -1 1834 -8.3066843217238784e-04</internalNodes>
          <leafValues>
            -2.6008769869804382e-01 1.8472850322723389e-01</leafValues></_>
        <_>
          <internalNodes>
            0 -1 1647 -1.1773603036999702e-02</internalNodes>
          <leafValues>
            -6.3491660356521606e-01 7.2112113237380981e-02</leafValues></_>
        <_>
          <internalNodes>
            0 -1 1376 1.0203714482486248e-03</internalNodes>
          <leafValues>
            -1.5090754628181458e-01 2.6881077885627747e-01</leafValues></_>
        <_>
          <internalNodes>
            0 -1 33 1.3998332619667053e-01</internalNodes>
          <leafValues>
            -9.7106598317623138e-02 4.2284038662910461e-01</leafValues></_>
        <_>
          <internalNodes>
            0 -1 1822 -5.6734838290140033e-04</internalNodes>
          <leafValues>
            -3.2301735877990723e-01 1.1839623004198074e-01</leafValues></_>
        <_>
          <internalNodes>
            0 -1 1822 2.8125673998147249e-04</internalNodes>
          <leafValues>
            1.4750036597251892e-01 -3.0212253332138062e-01</leafValues></_>
        <_>
          <internalNodes>
            0 -1 1500 1.6852978151291609e-03</internalNodes>
          <leafValues>
            -1.3046853244304657e-01 3.1829789280891418e-01</leafValues></_>
        <_>
          <internalNodes>
            0 -1 1633 1.4909540768712759e-03</internalNodes>
          <leafValues>
            -1.2629616260528564e-01 3.0067217350006104e-01</leafValues></_>
        <_>
          <internalNodes>
            0 -1 1191 4.5753326267004013e-03</internalNodes>
          <leafValues>
            -1.7473407089710236e-01 2.0829610526561737e-01</leafValues></_>
        <_>
          <internalNodes>
            0 -1 1521 3.8366271182894707e-03</internalNodes>
          <leafValues>
            6.8469576537609100e-02 -4.9471506476402283e-01</leafValues></_>
        <_>
          <internalNodes>
            0 -1 659 5.2375100494828075e-05</internalNodes>
          <leafValues>
            -3.1814649701118469e-01 1.0489321500062943e-01</leafValues></_>
        <_>
          <internalNodes>
            0 -1 466 -4.5476020313799381e-03</internalNodes>
          <leafValues>
            3.9243674278259277e-01 -9.4893887639045715e-02</leafValues></_>
        <_>
          <internalNodes>
            0 -1 704 9.6936826594173908e-04</internalNodes>
          <leafValues>
            -1.5917280316352844e-01 2.4127465486526489e-01</leafValues></_>
        <_>
          <internalNodes>
            0 -1 702 -1.5769721940159798e-03</internalNodes>
          <leafValues>
            3.2299560308456421e-01 -1.1237405240535736e-01</leafValues></_>
        <_>
          <internalNodes>
            0 -1 1227 -4.1926032863557339e-03</internalNodes>
          <leafValues>
            -5.2086806297302246e-01 6.9397792220115662e-02</leafValues></_>
        <_>
          <internalNodes>
            0 -1 731 8.4426235407590866e-03</internalNodes>
          <leafValues>
            4.4955600053071976e-02 -7.1434003114700317e-01</leafValues></_>
        <_>
          <internalNodes>
            0 -1 278 3.7257650494575500e-01</internalNodes>
          <leafValues>
            3.9468362927436829e-02 -7.8655523061752319e-01</leafValues></_>
        <_>
          <internalNodes>
            0 -1 909 -1.6291113570332527e-02</internalNodes>
          <leafValues>
            -6.3811463117599487e-01 4.2558699846267700e-02</leafValues></_>
        <_>
          <internalNodes>
            0 -1 703 -5.4859532974660397e-03</internalNodes>
          <leafValues>
            4.3099042773246765e-01 -8.8770277798175812e-02</leafValues></_>
        <_>
          <internalNodes>
            0 -1 13 -2.2371215163730085e-04</internalNodes>
          <leafValues>
            -2.8292915225028992e-01 1.2183120101690292e-01</leafValues></_>
        <_>
          <internalNodes>
            0 -1 13 6.1813136562705040e-04</internalNodes>
          <leafValues>
            1.0097638517618179e-01 -3.4938123822212219e-01</leafValues></_>
        <_>
          <internalNodes>
            0 -1 510 1.3093943707644939e-03</internalNodes>
          <leafValues>
            -1.2151087075471878e-01 3.1022024154663086e-01</leafValues></_>
        <_>
          <internalNodes>
            0 -1 1353 1.9130319356918335e-02</internalNodes>
          <leafValues>
            6.7465290427207947e-02 -6.2338477373123169e-01</leafValues></_>
        <_>
          <internalNodes>
            0 -1 1658 -5.9711281210184097e-03</internalNodes>
          <leafValues>
            3.9610242843627930e-01 -8.4183521568775177e-02</leafValues></_>
        <_>
          <internalNodes>
            0 -1 808 -1.5775965154170990e-01</internalNodes>
          <leafValues>
            5.4327636957168579e-01 -5.5019814521074295e-02</leafValues></_>
        <_>
          <internalNodes>
            0 -1 163 3.6655075848102570e-02</internalNodes>
          <leafValues>
            5.9953425079584122e-02 -5.7730883359909058e-01</leafValues></_>
        <_>
          <internalNodes>
            0 -1 464 2.5109709240496159e-03</internalNodes>
          <leafValues>
            -8.0673426389694214e-02 3.8357666134834290e-01</leafValues></_>
        <_>
          <internalNodes>
            0 -1 654 -1.6054813386290334e-05</internalNodes>
          <leafValues>
            1.7428648471832275e-01 -1.9079689681529999e-01</leafValues></_>
        <_>
          <internalNodes>
            0 -1 454 2.1151963621377945e-02</internalNodes>
          <leafValues>
            -9.0165726840496063e-02 3.6834719777107239e-01</leafValues></_>
        <_>
          <internalNodes>
            0 -1 327 -4.0151737630367279e-02</internalNodes>
          <leafValues>
            -6.9809752702713013e-01 4.9802694469690323e-02</leafValues></_>
        <_>
          <internalNodes>
            0 -1 1373 1.3354897499084473e-02</internalNodes>
          <leafValues>
            -1.1070470511913300e-01 3.2711705565452576e-01</leafValues></_>
        <_>
          <internalNodes>
            0 -1 1396 4.3526245281100273e-03</internalNodes>
          <leafValues>
            7.2477452456951141e-02 -4.1426417231559753e-01</leafValues></_>
        <_>
          <internalNodes>
            0 -1 1562 -1.1013202369213104e-02</internalNodes>
          <leafValues>
            -5.9917092323303223e-01 5.2499745041131973e-02</leafValues></_>
        <_>
          <internalNodes>
            0 -1 1123 7.5083150295540690e-04</internalNodes>
          <leafValues>
            -1.5694212913513184e-01 1.9604679942131042e-01</leafValues></_>
        <_>
          <internalNodes>
            0 -1 889 1.6592168249189854e-03</internalNodes>
          <leafValues>
            -1.2230762839317322e-01 2.4519245326519012e-01</leafValues></_>
        <_>
          <internalNodes>
            0 -1 1527 -1.6559804789721966e-03</internalNodes>
          <leafValues>
            2.9962214827537537e-01 -1.4535400271415710e-01</leafValues></_>
        <_>
          <internalNodes>
            0 -1 1621 1.1010880023241043e-01</internalNodes>
          <leafValues>
            -1.4333949983119965e-01 2.1942560374736786e-01</leafValues></_>
        <_>
          <internalNodes>
            0 -1 1806 4.5982669689692557e-05</internalNodes>
          <leafValues>
            -1.6819337010383606e-01 2.0405264198780060e-01</leafValues></_>
        <_>
          <internalNodes>
            0 -1 1560 6.4866435714066029e-03</internalNodes>
          <leafValues>
            7.2272688150405884e-02 -4.6203407645225525e-01</leafValues></_>
        <_>
          <internalNodes>
            0 -1 621 7.8529389575123787e-03</internalNodes>
          <leafValues>
            -1.2540967762470245e-01 2.7620196342468262e-01</leafValues></_>
        <_>
          <internalNodes>
            0 -1 1226 -7.9115293920040131e-03</internalNodes>
          <leafValues>
            1.9783486425876617e-01 -1.6121228039264679e-01</leafValues></_>
        <_>
          <internalNodes>
            0 -1 196 5.4134987294673920e-04</internalNodes>
          <leafValues>
            1.0140760242938995e-01 -2.7861019968986511e-01</leafValues></_></weakClassifiers></_>
    <!-- stage 8 -->
    <_>
      <maxWeakCount>63</maxWeakCount>
      <stageThreshold>-1.3652404546737671e+00</stageThreshold>
      <weakClassifiers>
        <_>
          <internalNodes>
            0 -1 68 6.3336545228958130e-01</internalNodes>
          <leafValues>
            9.6182085573673248e-02 6.9707208871841431e-01</leafValues></_>
        <_>
          <internalNodes>
            0 -1 134 -3.2448710408061743e-04</internalNodes>
          <leafValues>
            -4.1304802894592285e-01 2.1930584311485291e-01</leafValues></_>
        <_>
          <internalNodes>
            0 -1 134 3.3589033409953117e-04</internalNodes>
          <leafValues>
            2.0577634871006012e-01 -4.9902963638305664e-01</leafValues></_>
        <_>
          <internalNodes>
            0 -1 30 -7.8618549741804600e-04</internalNodes>
          <leafValues>
            -4.0299293398857117e-01 1.1286958307027817e-01</leafValues></_>
        <_>
          <internalNodes>
            0 -1 30 5.0308671779930592e-04</internalNodes>
          <leafValues>
            1.3558815419673920e-01 -3.6746925115585327e-01</leafValues></_>
        <_>
          <internalNodes>
            0 -1 1484 1.6004863937268965e-05</internalNodes>
          <leafValues>
            -2.5002068281173706e-01 1.9171841442584991e-01</leafValues></_>
        <_>
          <internalNodes>
            0 -1 1279 6.0697447042912245e-04</internalNodes>
          <leafValues>
            -3.9865070581436157e-01 7.6707378029823303e-02</leafValues></_>
        <_>
          <internalNodes>
            0 -1 1874 5.1748024998232722e-04</internalNodes>
          <leafValues>
            1.0900218039751053e-01 -3.2757812738418579e-01</leafValues></_>
        <_>
          <internalNodes>
            0 -1 1086 -5.2393525838851929e-03</internalNodes>
          <leafValues>
            3.0881375074386597e-01 -1.1992428451776505e-01</leafValues></_>
        <_>
          <internalNodes>
            0 -1 1320 2.2414212580770254e-03</internalNodes>
          <leafValues>
            -1.5277852118015289e-01 2.9823738336563110e-01</leafValues></_>
        <_>
          <internalNodes>
            0 -1 1874 -4.0718217496760190e-04</internalNodes>
          <leafValues>
            -3.1683853268623352e-01 1.2575152516365051e-01</leafValues></_>
        <_>
          <internalNodes>
            0 -1 1302 1.6054813386290334e-05</internalNodes>
          <leafValues>
            -2.1903440356254578e-01 1.8631537258625031e-01</leafValues></_>
        <_>
          <internalNodes>
            0 -1 1287 -4.4696801342070103e-03</internalNodes>
          <leafValues>
            4.1115126013755798e-01 -8.7347187101840973e-02</leafValues></_>
        <_>
          <internalNodes>
            0 -1 735 7.8817047178745270e-03</internalNodes>
          <leafValues>
            4.5376103371381760e-02 -7.5787431001663208e-01</leafValues></_>
        <_>
          <internalNodes>
            0 -1 703 -3.8363318890333176e-03</internalNodes>
          <leafValues>
            3.3285263180732727e-01 -1.0627999901771545e-01</leafValues></_>
        <_>
          <internalNodes>
            0 -1 703 3.4601895604282618e-03</internalNodes>
          <leafValues>
            -1.2855499982833862e-01 4.1658523678779602e-01</leafValues></_>
        <_>
          <internalNodes>
            0 -1 1501 1.9597474019974470e-03</internalNodes>
          <leafValues>
            1.0330045223236084e-01 -3.8067328929901123e-01</leafValues></_>
        <_>
          <internalNodes>
            0 -1 909 7.9982513561844826e-03</internalNodes>
          <leafValues>
            1.3116396963596344e-01 -2.6072964072227478e-01</leafValues></_>
        <_>
          <internalNodes>
            0 -1 1380 2.3027383722364902e-03</internalNodes>
          <leafValues>
            8.8437162339687347e-02 -4.5591008663177490e-01</leafValues></_>
        <_>
          <internalNodes>
            0 -1 902 4.2509855702519417e-03</internalNodes>
          <leafValues>
            -3.1280753016471863e-01 1.0906200855970383e-01</leafValues></_>
        <_>
          <internalNodes>
            0 -1 1091 1.9834309816360474e-02</internalNodes>
          <leafValues>
            6.9663077592849731e-02 -4.9429631233215332e-01</leafValues></_>
        <_>
          <internalNodes>
            0 -1 677 4.8281543422490358e-04</internalNodes>
          <leafValues>
            -1.8903355300426483e-01 1.6623055934906006e-01</leafValues></_>
        <_>
          <internalNodes>
            0 -1 465 1.1836255900561810e-02</internalNodes>
          <leafValues>
            -1.1077059805393219e-01 3.5487821698188782e-01</leafValues></_>
        <_>
          <internalNodes>
            0 -1 1390 1.7139406409114599e-03</internalNodes>
          <leafValues>
            6.4639672636985779e-02 -5.6131994724273682e-01</leafValues></_>
        <_>
          <internalNodes>
            0 -1 1539 -7.5447219423949718e-03</internalNodes>
          <leafValues>
            -5.3648513555526733e-01 5.3826835006475449e-02</leafValues></_>
        <_>
          <internalNodes>
            0 -1 1 -2.1763271070085466e-04</internalNodes>
          <leafValues>
            -2.6390427350997925e-01 1.2317080050706863e-01</leafValues></_>
        <_>
          <internalNodes>
            0 -1 1 3.9009074680507183e-04</internalNodes>
          <leafValues>
            1.2246686220169067e-01 -3.0427202582359314e-01</leafValues></_>
        <_>
          <internalNodes>
            0 -1 1376 1.4349013799801469e-03</internalNodes>
          <leafValues>
            -1.2362677603960037e-01 2.7276438474655151e-01</leafValues></_>
        <_>
          <internalNodes>
            0 -1 1199 -4.5934207737445831e-03</internalNodes>
          <leafValues>
            5.9812241792678833e-01 -4.9196291714906693e-02</leafValues></_>
        <_>
          <internalNodes>
            0 -1 317 1.9370883237570524e-03</internalNodes>
          <leafValues>
            -1.1962585151195526e-01 2.6451289653778076e-01</leafValues></_>
        <_>
          <internalNodes>
            0 -1 382 2.7862228453159332e-03</internalNodes>
          <leafValues>
            7.6555572450160980e-02 -4.1905802488327026e-01</leafValues></_>
        <_>
          <internalNodes>
            0 -1 560 1.5427733160322532e-05</internalNodes>
          <leafValues>
            -2.0573931932449341e-01 1.7447565495967865e-01</leafValues></_>
        <_>
          <internalNodes>
            0 -1 956 -3.2228310592472553e-03</internalNodes>
          <leafValues>
            3.8706445693969727e-01 -8.4563918411731720e-02</leafValues></_>
        <_>
          <internalNodes>
            0 -1 1402 -3.3470480702817440e-03</internalNodes>
          <leafValues>
            -4.0278214216232300e-01 8.7030708789825439e-02</leafValues></_>
        <_>
          <internalNodes>
            0 -1 1730 -4.5951274223625660e-03</internalNodes>
          <leafValues>
            5.2834659814834595e-01 -6.1521541327238083e-02</leafValues></_>
        <_>
          <internalNodes>
            0 -1 1224 -8.1426575779914856e-03</internalNodes>
          <leafValues>
            -4.0227192640304565e-01 7.5444325804710388e-02</leafValues></_>
        <_>
          <internalNodes>
            0 -1 852 7.4714426882565022e-03</internalNodes>
          <leafValues>
            -6.9561168551445007e-02 4.4487497210502625e-01</leafValues></_>
        <_>
          <internalNodes>
            0 -1 245 9.9010588601231575e-03</internalNodes>
          <leafValues>
            -1.2600782513618469e-01 2.3052620887756348e-01</leafValues></_>
        <_>
          <internalNodes>
            0 -1 1298 -3.0262969434261322e-02</internalNodes>
          <leafValues>
            -4.9531659483909607e-01 5.4974693804979324e-02</leafValues></_>
        <_>
          <internalNodes>
            0 -1 1743 -2.7090116054750979e-04</internalNodes>
          <leafValues>
            -2.1865013241767883e-01 1.2565730512142181e-01</leafValues></_>
        <_>
          <internalNodes>
            0 -1 1722 1.1018785834312439e-01</internalNodes>
          <leafValues>
            -1.3287621736526489e-01 2.0669008791446686e-01</leafValues></_>
        <_>
          <internalNodes>
            0 -1 694 3.8154262583702803e-03</internalNodes>
          <leafValues>
            -1.2022805213928223e-01 2.7471050620079041e-01</leafValues></_>
        <_>
          <internalNodes>
            0 -1 642 9.5244552940130234e-03</internalNodes>
          <leafValues>
            -1.2612584233283997e-01 2.6301833987236023e-01</leafValues></_>
        <_>
          <internalNodes>
            0 -1 311 7.9213303979486227e-04</internalNodes>
          <leafValues>
            -3.3665800094604492e-01 8.2506209611892700e-02</leafValues></_>
        <_>
          <internalNodes>
            0 -1 117 1.1160567402839661e-02</internalNodes>
          <leafValues>
            -1.2163989245891571e-01 2.2086714208126068e-01</leafValues></_>
        <_>
          <internalNodes>
            0 -1 1574 8.7600927799940109e-03</internalNodes>
          <leafValues>
            -1.0365705192089081e-01 2.4709831178188324e-01</leafValues></_>
        <_>
          <internalNodes>
            0 -1 961 3.1871828832663596e-04</internalNodes>
          <leafValues>
            -1.4185781776905060e-01 1.9938229024410248e-01</leafValues></_>
        <_>
          <internalNodes>
            0 -1 92 8.2871515769511461e-04</internalNodes>
          <leafValues>
            9.0417742729187012e-02 -3.3689334988594055e-01</leafValues></_>
        <_>
          <internalNodes>
            0 -1 1493 -9.3065798282623291e-03</internalNodes>
          <leafValues>
            4.6099379658699036e-01 -6.6228501498699188e-02</leafValues></_>
        <_>
          <internalNodes>
            0 -1 918 2.3938345839269459e-04</internalNodes>
          <leafValues>
            -1.6889010369777679e-01 1.6500487923622131e-01</leafValues></_>
        <_>
          <internalNodes>
            0 -1 697 3.3356223255395889e-02</internalNodes>
          <leafValues>
            3.9845820516347885e-02 -6.9899386167526245e-01</leafValues></_>
        <_>
          <internalNodes>
            0 -1 1617 -5.2758567035198212e-03</internalNodes>
          <leafValues>
            2.7810195088386536e-01 -9.8918884992599487e-02</leafValues></_>
        <_>
          <internalNodes>
            0 -1 1780 -1.1479465756565332e-03</internalNodes>
          <leafValues>
            -2.7238452434539795e-01 1.0665904730558395e-01</leafValues></_>
        <_>
          <internalNodes>
            0 -1 1715 3.7917960435152054e-03</internalNodes>
          <leafValues>
            8.0227702856063843e-02 -3.5671192407608032e-01</leafValues></_>
        <_>
          <internalNodes>
            0 -1 1807 1.6723462613299489e-03</internalNodes>
          <leafValues>
            -3.0455285310745239e-01 9.1416306793689728e-02</leafValues></_>
        <_>
          <internalNodes>
            0 -1 45 -1.8781809508800507e-01</internalNodes>
          <leafValues>
            5.8217144012451172e-01 -5.2600506693124771e-02</leafValues></_>
        <_>
          <internalNodes>
            0 -1 1640 1.0850297985598445e-03</internalNodes>
          <leafValues>
            -1.1405589431524277e-01 2.4366772174835205e-01</leafValues></_>
        <_>
          <internalNodes>
            0 -1 1591 3.3755761105567217e-03</internalNodes>
          <leafValues>
            -1.1939518153667450e-01 2.2832247614860535e-01</leafValues></_>
        <_>
          <internalNodes>
            0 -1 250 -3.6808006465435028e-02</internalNodes>
          <leafValues>
            -6.2213492393493652e-01 4.5198600739240646e-02</leafValues></_>
        <_>
          <internalNodes>
            0 -1 704 4.7999667003750801e-04</internalNodes>
          <leafValues>
            -1.7009122669696808e-01 1.6714437305927277e-01</leafValues></_>
        <_>
          <internalNodes>
            0 -1 807 1.6309967637062073e-01</internalNodes>
          <leafValues>
            -6.3043959438800812e-02 4.7243565320968628e-01</leafValues></_>
        <_>
          <internalNodes>
            0 -1 942 1.0566350538283587e-03</internalNodes>
          <leafValues>
            -1.5653569996356964e-01 1.9175273180007935e-01</leafValues></_>
        <_>
          <internalNodes>
            0 -1 493 -4.3085631914436817e-03</internalNodes>
          <leafValues>
            4.9457910656929016e-01 -6.0821879655122757e-02</leafValues></_></weakClassifiers></_>
    <!-- stage 9 -->
    <_>
      <maxWeakCount>74</maxWeakCount>
      <stageThreshold>-1.3254251480102539e+00</stageThreshold>
      <weakClassifiers>
        <_>
          <internalNodes>
            0 -1 108 2.3452349007129669e-01</internalNodes>
          <leafValues>
            1.7718484997749329e-01 6.8989419937133789e-01</leafValues></_>
        <_>
          <internalNodes>
            0 -1 92 -3.3731613075360656e-04</internalNodes>
          <leafValues>
            -3.8699126243591309e-01 1.8624061346054077e-01</leafValues></_>
        <_>
          <internalNodes>
            0 -1 92 3.1158598721958697e-04</internalNodes>
          <leafValues>
            1.3383647799491882e-01 -3.9876368641853333e-01</leafValues></_>
        <_>
          <internalNodes>
            0 -1 1709 -2.6914908085018396e-04</internalNodes>
          <leafValues>
            -3.1640586256980896e-01 1.2328445911407471e-01</leafValues></_>
        <_>
          <internalNodes>
            0 -1 1709 1.8750911112874746e-04</internalNodes>
          <leafValues>
            1.6018761694431305e-01 -3.4856501221656799e-01</leafValues></_>
        <_>
          <internalNodes>
            0 -1 1263 1.1277591809630394e-02</internalNodes>
          <leafValues>
            -1.4107348024845123e-01 3.8516613841056824e-01</leafValues></_>
        <_>
          <internalNodes>
            0 -1 1262 -6.6355704329907894e-03</internalNodes>
          <leafValues>
            3.1037360429763794e-01 -1.4215555787086487e-01</leafValues></_>
        <_>
          <internalNodes>
            0 -1 659 5.3051009308546782e-04</internalNodes>
          <leafValues>
            -3.3178874850273132e-01 1.2221712619066238e-01</leafValues></_>
        <_>
          <internalNodes>
            0 -1 831 -1.1668270453810692e-02</internalNodes>
          <leafValues>
            3.5657498240470886e-01 -1.2137309461832047e-01</leafValues></_>
        <_>
          <internalNodes>
            0 -1 853 8.4861516952514648e-03</internalNodes>
          <leafValues>
            -9.8462156951427460e-02 3.8757619261741638e-01</leafValues></_>
        <_>
          <internalNodes>
            0 -1 235 3.1686727888882160e-03</internalNodes>
          <leafValues>
            -1.7468617856502533e-01 2.0594212412834167e-01</leafValues></_>
        <_>
          <internalNodes>
            0 -1 449 -1.8945802003145218e-02</internalNodes>
          <leafValues>
            -5.2600008249282837e-01 7.5397938489913940e-02</leafValues></_>
        <_>
          <internalNodes>
            0 -1 1523 7.7814597170799971e-04</internalNodes>
          <leafValues>
            -3.0172806978225708e-01 1.0657583177089691e-01</leafValues></_>
        <_>
          <internalNodes>
            0 -1 1516 2.7863052673637867e-03</internalNodes>
          <leafValues>
            -1.0644990205764771e-01 2.9688459634780884e-01</leafValues></_>
        <_>
          <internalNodes>
            0 -1 1529 6.4386483281850815e-03</internalNodes>
          <leafValues>
            -1.0118406265974045e-01 2.9103285074234009e-01</leafValues></_>
        <_>
          <internalNodes>
            0 -1 283 9.3218401074409485e-02</internalNodes>
          <leafValues>
            -1.7105829715728760e-01 1.8472179770469666e-01</leafValues></_>
        <_>
          <internalNodes>
            0 -1 1402 -1.7431852029403672e-05</internalNodes>
          <leafValues>
            1.5223787724971771e-01 -2.3318049311637878e-01</leafValues></_>
        <_>
          <internalNodes>
            0 -1 920 1.5718364011263475e-05</internalNodes>
          <leafValues>
            -2.1731665730476379e-01 1.5487280488014221e-01</leafValues></_>
        <_>
          <internalNodes>
            0 -1 703 3.8259662687778473e-03</internalNodes>
          <leafValues>
            -9.4794057309627533e-02 3.4029647707939148e-01</leafValues></_>
        <_>
          <internalNodes>
            0 -1 93 1.4309305697679520e-03</internalNodes>
          <leafValues>
            1.0976087301969528e-01 -3.2074069976806641e-01</leafValues></_>
        <_>
          <internalNodes>
            0 -1 944 -4.5427898876368999e-03</internalNodes>
          <leafValues>
            5.0632351636886597e-01 -6.3376180827617645e-02</leafValues></_>
        <_>
          <internalNodes>
            0 -1 47 -3.8384486106224358e-04</internalNodes>
          <leafValues>
            -2.4986076354980469e-01 1.2194962054491043e-01</leafValues></_>
        <_>
          <internalNodes>
            0 -1 627 4.0309537202119827e-02</internalNodes>
          <leafValues>
            4.1835833340883255e-02 -6.2302368879318237e-01</leafValues></_>
        <_>
          <internalNodes>
            0 -1 900 1.1478815227746964e-02</internalNodes>
          <leafValues>
            7.1148835122585297e-02 -4.3573158979415894e-01</leafValues></_>
        <_>
          <internalNodes>
            0 -1 1127 9.1137662529945374e-03</internalNodes>
          <leafValues>
            -7.5109347701072693e-02 4.0539711713790894e-01</leafValues></_>
        <_>
          <internalNodes>
            0 -1 1380 1.7036907374858856e-03</internalNodes>
          <leafValues>
            7.7033780515193939e-02 -3.8026729226112366e-01</leafValues></_>
        <_>
          <internalNodes>
            0 -1 330 3.7290692329406738e-02</internalNodes>
          <leafValues>
            5.3652983158826828e-02 -5.6476736068725586e-01</leafValues></_>
        <_>
          <internalNodes>
            0 -1 173 1.1322916485369205e-02</internalNodes>
          <leafValues>
            5.6250452995300293e-02 -4.9599519371986389e-01</leafValues></_>
        <_>
          <internalNodes>
            0 -1 44 -3.2638391712680459e-04</internalNodes>
          <leafValues>
            -2.0722633600234985e-01 1.3094779849052429e-01</leafValues></_>
        <_>
          <internalNodes>
            0 -1 43 4.8123882152140141e-04</internalNodes>
          <leafValues>
            9.4070143997669220e-02 -2.6747798919677734e-01</leafValues></_>
        <_>
          <internalNodes>
            0 -1 673 1.4609636738896370e-02</internalNodes>
          <leafValues>
            -8.1299349665641785e-02 3.3053630590438843e-01</leafValues></_>
        <_>
          <internalNodes>
            0 -1 1421 9.9579873494803905e-04</internalNodes>
          <leafValues>
            -1.2832927703857422e-01 2.5881347060203552e-01</leafValues></_>
        <_>
          <internalNodes>
            0 -1 1692 -9.7061990527436137e-04</internalNodes>
          <leafValues>
            2.0361775159835815e-01 -1.4465260505676270e-01</leafValues></_>
        <_>
          <internalNodes>
            0 -1 653 -4.8468649387359619e-02</internalNodes>
          <leafValues>
            2.0251135528087616e-01 -1.3425999879837036e-01</leafValues></_>
        <_>
          <internalNodes>
            0 -1 1135 -5.5885743349790573e-03</internalNodes>
          <leafValues>
            -2.8399395942687988e-01 9.7874291241168976e-02</leafValues></_>
        <_>
          <internalNodes>
            0 -1 1660 2.3991908878087997e-02</internalNodes>
          <leafValues>
            3.3535614609718323e-02 -7.4224334955215454e-01</leafValues></_>
        <_>
          <internalNodes>
            0 -1 1810 -9.7569059580564499e-03</internalNodes>
          <leafValues>
            6.8218505382537842e-01 -4.2842634022235870e-02</leafValues></_>
        <_>
          <internalNodes>
            0 -1 1615 -5.0132069736719131e-03</internalNodes>
          <leafValues>
            4.3176835775375366e-01 -5.2300348877906799e-02</leafValues></_>
        <_>
          <internalNodes>
            0 -1 1850 -5.8955443091690540e-04</internalNodes>
          <leafValues>
            -2.8172916173934937e-01 9.8077572882175446e-02</leafValues></_>
        <_>
          <internalNodes>
            0 -1 1850 5.5227335542440414e-04</internalNodes>
          <leafValues>
            8.9462101459503174e-02 -2.8409984707832336e-01</leafValues></_>
        <_>
          <internalNodes>
            0 -1 1759 -5.1363050006330013e-03</internalNodes>
          <leafValues>
            4.4902467727661133e-01 -6.1654929071664810e-02</leafValues></_>
        <_>
          <internalNodes>
            0 -1 633 1.0629878379404545e-03</internalNodes>
          <leafValues>
            -1.3366074860095978e-01 1.9652853906154633e-01</leafValues></_>
        <_>
          <internalNodes>
            0 -1 3 -1.2133458629250526e-02</internalNodes>
          <leafValues>
            -3.6868533492088318e-01 7.0628106594085693e-02</leafValues></_>
        <_>
          <internalNodes>
            0 -1 164 3.1694965437054634e-03</internalNodes>
          <leafValues>
            -7.6791048049926758e-02 3.1591275334358215e-01</leafValues></_>
        <_>
          <internalNodes>
            0 -1 1092 -1.8988978117704391e-02</internalNodes>
          <leafValues>
            -3.7103304266929626e-01 6.9521613419055939e-02</leafValues></_>
        <_>
          <internalNodes>
            0 -1 617 4.9035921692848206e-02</internalNodes>
          <leafValues>
            4.4369157403707504e-02 -4.9335440993309021e-01</leafValues></_>
        <_>
          <internalNodes>
            0 -1 1186 -7.0206467062234879e-03</internalNodes>
          <leafValues>
            -2.6526081562042236e-01 8.9015081524848938e-02</leafValues></_>
        <_>
          <internalNodes>
            0 -1 1137 7.3667862452566624e-03</internalNodes>
          <leafValues>
            3.5420693457126617e-02 -6.6189390420913696e-01</leafValues></_>
        <_>
          <internalNodes>
            0 -1 786 4.8331841826438904e-03</internalNodes>
          <leafValues>
            -8.6899287998676300e-02 3.1819912791252136e-01</leafValues></_>
        <_>
          <internalNodes>
            0 -1 1867 -5.8145786169916391e-04</internalNodes>
          <leafValues>
            -2.5540024042129517e-01 9.4671055674552917e-02</leafValues></_>
        <_>
          <internalNodes>
            0 -1 718 8.1270374357700348e-03</internalNodes>
          <leafValues>
            -1.6062362492084503e-01 1.4305610954761505e-01</leafValues></_>
        <_>
          <internalNodes>
            0 -1 1384 -2.0180940628051758e-03</internalNodes>
          <leafValues>
            3.0341243743896484e-01 -1.0664737969636917e-01</leafValues></_>
        <_>
          <internalNodes>
            0 -1 1331 1.7031094059348106e-02</internalNodes>
          <leafValues>
            -5.8482524007558823e-02 4.1993635892868042e-01</leafValues></_>
        <_>
          <internalNodes>
            0 -1 962 1.8054926767945290e-03</internalNodes>
          <leafValues>
            -1.3160130381584167e-01 2.0198865234851837e-01</leafValues></_>
        <_>
          <internalNodes>
            0 -1 679 3.5514421761035919e-03</internalNodes>
          <leafValues>
            -6.3150271773338318e-02 4.0206602215766907e-01</leafValues></_>
        <_>
          <internalNodes>
            0 -1 1165 6.2313824892044067e-03</internalNodes>
          <leafValues>
            6.0680504888296127e-02 -4.6914011240005493e-01</leafValues></_>
        <_>
          <internalNodes>
            0 -1 1867 1.9184546545147896e-04</internalNodes>
          <leafValues>
            1.0378827899694443e-01 -2.3357380926609039e-01</leafValues></_>
        <_>
          <internalNodes>
            0 -1 1278 7.4617710197344422e-04</internalNodes>
          <leafValues>
            -2.9727339744567871e-01 8.6841002106666565e-02</leafValues></_>
        <_>
          <internalNodes>
            0 -1 1661 -9.9877882748842239e-03</internalNodes>
          <leafValues>
            -6.5039408206939697e-01 3.3152315765619278e-02</leafValues></_>
        <_>
          <internalNodes>
            0 -1 1340 1.0306353215128183e-03</internalNodes>
          <leafValues>
            1.1809573322534561e-01 -1.9751667976379395e-01</leafValues></_>
        <_>
          <internalNodes>
            0 -1 1341 2.1928176283836365e-03</internalNodes>
          <leafValues>
            -1.0253037512302399e-01 2.5083532929420471e-01</leafValues></_>
        <_>
          <internalNodes>
            0 -1 1350 3.6913494113832712e-03</internalNodes>
          <leafValues>
            -9.0048953890800476e-02 3.1247448921203613e-01</leafValues></_>
        <_>
          <internalNodes>
            0 -1 1008 7.4529228731989861e-03</internalNodes>
          <leafValues>
            4.5044738799333572e-02 -6.0347992181777954e-01</leafValues></_>
        <_>
          <internalNodes>
            0 -1 756 9.3556419014930725e-03</internalNodes>
          <leafValues>
            -1.4348691701889038e-01 1.7076790332794189e-01</leafValues></_>
        <_>
          <internalNodes>
            0 -1 564 -1.1596952099353075e-03</internalNodes>
          <leafValues>
            1.9634754955768585e-01 -1.4726792275905609e-01</leafValues></_>
        <_>
          <internalNodes>
            0 -1 25 -3.1156116165220737e-04</internalNodes>
          <leafValues>
            -2.4396601319313049e-01 1.0385948419570923e-01</leafValues></_>
        <_>
          <internalNodes>
            0 -1 990 -5.2757025696337223e-03</internalNodes>
          <leafValues>
            2.3890811204910278e-01 -1.0070724785327911e-01</leafValues></_>
        <_>
          <internalNodes>
            0 -1 1217 1.2226052349433303e-03</internalNodes>
          <leafValues>
            -8.2589991390705109e-02 3.1290689110755920e-01</leafValues></_>
        <_>
          <internalNodes>
            0 -1 350 7.3973201215267181e-03</internalNodes>
          <leafValues>
            5.8979004621505737e-02 -4.8956766724586487e-01</leafValues></_>
        <_>
          <internalNodes>
            0 -1 1517 5.8963890187442303e-03</internalNodes>
          <leafValues>
            -1.1621310561895370e-01 2.1763658523559570e-01</leafValues></_>
        <_>
          <internalNodes>
            0 -1 1750 -7.1448204107582569e-04</internalNodes>
          <leafValues>
            -2.2705261409282684e-01 1.0542781651020050e-01</leafValues></_>
        <_>
          <internalNodes>
            0 -1 664 -1.3551142066717148e-02</internalNodes>
          <leafValues>
            -8.5876947641372681e-01 2.5828361511230469e-02</leafValues></_>
        <_>
          <internalNodes>
            0 -1 360 3.4389859065413475e-03</internalNodes>
          <leafValues>
            -1.3917471468448639e-01 1.6790772974491119e-01</leafValues></_>
        <_>
          <internalNodes>
            0 -1 1641 8.4203277947381139e-04</internalNodes>
          <leafValues>
            -1.3268867135047913e-01 1.8471060693264008e-01</leafValues></_></weakClassifiers></_>
    <!-- stage 10 -->
    <_>
      <maxWeakCount>79</maxWeakCount>
      <stageThreshold>-1.3901386260986328e+00</stageThreshold>
      <weakClassifiers>
        <_>
          <internalNodes>
            0 -1 39 8.4395021200180054e-02</internalNodes>
          <leafValues>
            1.7803449928760529e-01 6.9936591386795044e-01</leafValues></_>
        <_>
          <internalNodes>
            0 -1 1108 5.1163383759558201e-03</internalNodes>
          <leafValues>
            -8.4486491978168488e-02 4.2141389846801758e-01</leafValues></_>
        <_>
          <internalNodes>
            0 -1 600 -4.1783653199672699e-02</internalNodes>
          <leafValues>
            2.7864485979080200e-01 -1.8107332289218903e-01</leafValues></_>
        <_>
          <internalNodes>
            0 -1 868 -4.2242328636348248e-03</internalNodes>
          <leafValues>
            4.0901729464530945e-01 -9.1457314789295197e-02</leafValues></_>
        <_>
          <internalNodes>
            0 -1 576 5.8298045769333839e-04</internalNodes>
          <leafValues>
            1.2545123696327209e-01 -3.3333110809326172e-01</leafValues></_>
        <_>
          <internalNodes>
            0 -1 576 -3.9098979323171079e-04</internalNodes>
          <leafValues>
            -3.7983337044715881e-01 7.5084410607814789e-02</leafValues></_>
        <_>
          <internalNodes>
            0 -1 1234 -1.5466788681806065e-05</internalNodes>
          <leafValues>
            1.5900346636772156e-01 -2.1868214011192322e-01</leafValues></_>
        <_>
          <internalNodes>
            0 -1 755 -1.1124012060463428e-02</internalNodes>
          <leafValues>
            3.7924358248710632e-01 -1.1828576773405075e-01</leafValues></_>
        <_>
          <internalNodes>
            0 -1 1703 1.6096661056508310e-05</internalNodes>
          <leafValues>
            -1.6799700260162354e-01 1.9962061941623688e-01</leafValues></_>
        <_>
          <internalNodes>
            0 -1 991 -2.2307494655251503e-03</internalNodes>
          <leafValues>
            1.7544479668140411e-01 -1.8552599847316742e-01</leafValues></_>
        <_>
          <internalNodes>
            0 -1 813 1.9757617264986038e-02</internalNodes>
          <leafValues>
            -9.0089760720729828e-02 3.3687892556190491e-01</leafValues></_>
        <_>
          <internalNodes>
            0 -1 589 -1.0271584615111351e-02</internalNodes>
          <leafValues>
            2.8932484984397888e-01 -1.1468887329101563e-01</leafValues></_>
        <_>
          <internalNodes>
            0 -1 327 -3.1507629901170731e-02</internalNodes>
          <leafValues>
            -5.0385689735412598e-01 6.2752850353717804e-02</leafValues></_>
        <_>
          <internalNodes>
            0 -1 1670 -5.8142254129052162e-03</internalNodes>
          <leafValues>
            5.9347838163375854e-01 -4.7866147011518478e-02</leafValues></_>
        <_>
          <internalNodes>
            0 -1 1181 7.9416332300752401e-04</internalNodes>
          <leafValues>
            -1.2127229571342468e-01 2.4570660293102264e-01</leafValues></_>
        <_>
          <internalNodes>
            0 -1 775 7.8836176544427872e-03</internalNodes>
          <leafValues>
            4.8723977059125900e-02 -6.3408398628234863e-01</leafValues></_>
        <_>
          <internalNodes>
            0 -1 955 3.2691331580281258e-03</internalNodes>
          <leafValues>
            -1.0338675975799561e-01 2.9091274738311768e-01</leafValues></_>
        <_>
          <internalNodes>
            0 -1 143 7.2693064808845520e-02</internalNodes>
          <leafValues>
            -7.8144729137420654e-02 4.0596958994865417e-01</leafValues></_>
        <_>
          <internalNodes>
            0 -1 1628 -3.4667100757360458e-02</internalNodes>
          <leafValues>
            -5.7766860723495483e-01 6.3439048826694489e-02</leafValues></_>
        <_>
          <internalNodes>
            0 -1 491 2.5412188842892647e-03</internalNodes>
          <leafValues>
            -1.1458699405193329e-01 2.8209468722343445e-01</leafValues></_>
        <_>
          <internalNodes>
            0 -1 701 5.4635340347886086e-04</internalNodes>
          <leafValues>
            -1.9136391580104828e-01 1.7635305225849152e-01</leafValues></_>
        <_>
          <internalNodes>
            0 -1 869 4.5617474825121462e-04</internalNodes>
          <leafValues>
            -1.6911992430686951e-01 1.7831967771053314e-01</leafValues></_>
        <_>
          <internalNodes>
            0 -1 1316 6.8175069987773895e-02</internalNodes>
          <leafValues>
            -8.2216195762157440e-02 4.3088224530220032e-01</leafValues></_>
        <_>
          <internalNodes>
            0 -1 453 9.2416480183601379e-03</internalNodes>
          <leafValues>
            -2.0865295827388763e-01 1.5646256506443024e-01</leafValues></_>
        <_>
          <internalNodes>
            0 -1 1014 3.2394914887845516e-03</internalNodes>
          <leafValues>
            -1.4099147915840149e-01 2.1496745944023132e-01</leafValues></_>
        <_>
          <internalNodes>
            0 -1 1709 -4.7124281991273165e-04</internalNodes>
          <leafValues>
            -3.2155093550682068e-01 9.7407311201095581e-02</leafValues></_>
        <_>
          <internalNodes>
            0 -1 1709 3.3347617136314511e-04</internalNodes>
          <leafValues>
            1.1510831117630005e-01 -3.5728058218955994e-01</leafValues></_>
        <_>
          <internalNodes>
            0 -1 849 6.9017838686704636e-03</internalNodes>
          <leafValues>
            -1.3611929118633270e-01 2.2894844412803650e-01</leafValues></_>
        <_>
          <internalNodes>
            0 -1 493 1.0074756573885679e-03</internalNodes>
          <leafValues>
            -1.4782078564167023e-01 2.2366751730442047e-01</leafValues></_>
        <_>
          <internalNodes>
            0 -1 477 -3.1366809271275997e-03</internalNodes>
          <leafValues>
            3.1938019394874573e-01 -1.0140028595924377e-01</leafValues></_>
        <_>
          <internalNodes>
            0 -1 679 -4.5894915238022804e-03</internalNodes>
          <leafValues>
            5.2157926559448242e-01 -5.8770261704921722e-02</leafValues></_>
        <_>
          <internalNodes>
            0 -1 769 9.0815750882029533e-03</internalNodes>
          <leafValues>
            5.0062797963619232e-02 -6.8163299560546875e-01</leafValues></_>
        <_>
          <internalNodes>
            0 -1 1300 1.6013349522836506e-05</internalNodes>
          <leafValues>
            -1.9696851074695587e-01 1.3547387719154358e-01</leafValues></_>
        <_>
          <internalNodes>
            0 -1 25 7.3592778062447906e-04</internalNodes>
          <leafValues>
            8.7082237005233765e-02 -2.9731571674346924e-01</leafValues></_>
        <_>
          <internalNodes>
            0 -1 1658 -3.2934150658547878e-03</internalNodes>
          <leafValues>
            2.5623258948326111e-01 -1.0709732025861740e-01</leafValues></_>
        <_>
          <internalNodes>
            0 -1 371 1.6434758435934782e-05</internalNodes>
          <leafValues>
            -1.5785045921802521e-01 1.6941109299659729e-01</leafValues></_>
        <_>
          <internalNodes>
            0 -1 1051 1.5351932233897969e-05</internalNodes>
          <leafValues>
            -1.6729524731636047e-01 1.5934361517429352e-01</leafValues></_>
        <_>
          <internalNodes>
            0 -1 1494 -7.4211293831467628e-03</internalNodes>
          <leafValues>
            2.5458717346191406e-01 -1.0547800362110138e-01</leafValues></_>
        <_>
          <internalNodes>
            0 -1 551 6.7579532042145729e-03</internalNodes>
          <leafValues>
            6.1652261763811111e-02 -4.3195217847824097e-01</leafValues></_>
        <_>
          <internalNodes>
            0 -1 979 8.5884984582662582e-03</internalNodes>
          <leafValues>
            3.9531141519546509e-02 -6.0924804210662842e-01</leafValues></_>
        <_>
          <internalNodes>
            0 -1 530 -1.8799024401232600e-03</internalNodes>
          <leafValues>
            2.6824438571929932e-01 -9.0470269322395325e-02</leafValues></_>
        <_>
          <internalNodes>
            0 -1 543 -1.1157002300024033e-03</internalNodes>
          <leafValues>
            2.2559440135955811e-01 -1.1207216233015060e-01</leafValues></_>
        <_>
          <internalNodes>
            0 -1 1196 9.5620285719633102e-04</internalNodes>
          <leafValues>
            -1.4269249141216278e-01 1.9264163076877594e-01</leafValues></_>
        <_>
          <internalNodes>
            0 -1 1855 -1.0474568698555231e-03</internalNodes>
          <leafValues>
            -2.5719183683395386e-01 1.0733627527952194e-01</leafValues></_>
        <_>
          <internalNodes>
            0 -1 712 9.6293445676565170e-03</internalNodes>
          <leafValues>
            -1.8158410489559174e-01 1.3791733980178833e-01</leafValues></_>
        <_>
          <internalNodes>
            0 -1 1421 7.7104778029024601e-04</internalNodes>
          <leafValues>
            -1.3374699652194977e-01 2.3573599755764008e-01</leafValues></_>
        <_>
          <internalNodes>
            0 -1 762 -2.6530055329203606e-03</internalNodes>
          <leafValues>
            2.4135091900825500e-01 -1.2632411718368530e-01</leafValues></_>
        <_>
          <internalNodes>
            0 -1 23 -5.7104695588350296e-04</internalNodes>
          <leafValues>
            -2.6761916279792786e-01 1.0306671261787415e-01</leafValues></_>
        <_>
          <internalNodes>
            0 -1 696 -1.2808989733457565e-02</internalNodes>
          <leafValues>
            -6.5833777189254761e-01 3.6000631749629974e-02</leafValues></_>
        <_>
          <internalNodes>
            0 -1 939 -3.9621841278858483e-04</internalNodes>
          <leafValues>
            1.8237909674644470e-01 -1.7261198163032532e-01</leafValues></_>
        <_>
          <internalNodes>
            0 -1 1211 -4.1608745232224464e-03</internalNodes>
          <leafValues>
            3.0965712666511536e-01 -9.8677277565002441e-02</leafValues></_>
        <_>
          <internalNodes>
            0 -1 462 2.9484950937330723e-03</internalNodes>
          <leafValues>
            -8.2300126552581787e-02 2.8474828600883484e-01</leafValues></_>
        <_>
          <internalNodes>
            0 -1 370 1.6083371519926004e-05</internalNodes>
          <leafValues>
            -1.5478862822055817e-01 1.5215675532817841e-01</leafValues></_>
        <_>
          <internalNodes>
            0 -1 362 1.0555006563663483e-02</internalNodes>
          <leafValues>
            3.8105346262454987e-02 -6.7246890068054199e-01</leafValues></_>
        <_>
          <internalNodes>
            0 -1 1202 3.6438861570786685e-05</internalNodes>
          <leafValues>
            -1.9835872948169708e-01 1.2856510281562805e-01</leafValues></_>
        <_>
          <internalNodes>
            0 -1 1299 2.3407574743032455e-02</internalNodes>
          <leafValues>
            -7.5405918061733246e-02 3.2966935634613037e-01</leafValues></_>
        <_>
          <internalNodes>
            0 -1 1397 -8.4591750055551529e-03</internalNodes>
          <leafValues>
            -5.0548452138900757e-01 5.2456390112638474e-02</leafValues></_>
        <_>
          <internalNodes>
            0 -1 839 -2.5563025847077370e-03</internalNodes>
          <leafValues>
            2.1347998082637787e-01 -1.2864720821380615e-01</leafValues></_>
        <_>
          <internalNodes>
            0 -1 879 -1.0291803628206253e-02</internalNodes>
          <leafValues>
            -4.5763516426086426e-01 6.0609515756368637e-02</leafValues></_>
        <_>
          <internalNodes>
            0 -1 1381 -4.7863731160759926e-03</internalNodes>
          <leafValues>
            -4.8975819349288940e-01 5.1128275692462921e-02</leafValues></_>
        <_>
          <internalNodes>
            0 -1 1270 -2.0730204880237579e-02</internalNodes>
          <leafValues>
            2.8295749425888062e-01 -9.4422891736030579e-02</leafValues></_>
        <_>
          <internalNodes>
            0 -1 42 -1.3003793358802795e-01</internalNodes>
          <leafValues>
            3.7793633341789246e-01 -6.5522052347660065e-02</leafValues></_>
        <_>
          <internalNodes>
            0 -1 24 1.2335537374019623e-01</internalNodes>
          <leafValues>
            -1.7239221930503845e-01 1.9991488754749298e-01</leafValues></_>
        <_>
          <internalNodes>
            0 -1 1783 1.9791291654109955e-01</internalNodes>
          <leafValues>
            4.3576162308454514e-02 -6.4280575513839722e-01</leafValues></_>
        <_>
          <internalNodes>
            0 -1 1778 -3.7368959747254848e-03</internalNodes>
          <leafValues>
            4.2839169502258301e-01 -6.0362353920936584e-02</leafValues></_>
        <_>
          <internalNodes>
            0 -1 1 -2.4857523385435343e-04</internalNodes>
          <leafValues>
            -2.6571053266525269e-01 9.8750017583370209e-02</leafValues></_>
        <_>
          <internalNodes>
            0 -1 1 4.2984687024727464e-04</internalNodes>
          <leafValues>
            9.5531858503818512e-02 -2.9060885310173035e-01</leafValues></_>
        <_>
          <internalNodes>
            0 -1 1197 -5.3764646872878075e-04</internalNodes>
          <leafValues>
            1.7888703942298889e-01 -1.3536436855792999e-01</leafValues></_>
        <_>
          <internalNodes>
            0 -1 961 4.3233658652752638e-04</internalNodes>
          <leafValues>
            -1.4346753060817719e-01 1.7977635562419891e-01</leafValues></_>
        <_>
          <internalNodes>
            0 -1 709 -3.4283420536667109e-03</internalNodes>
          <leafValues>
            2.9150399565696716e-01 -9.6017874777317047e-02</leafValues></_>
        <_>
          <internalNodes>
            0 -1 302 -4.2470686137676239e-02</internalNodes>
          <leafValues>
            -6.6729450225830078e-01 3.8443017750978470e-02</leafValues></_>
        <_>
          <internalNodes>
            0 -1 319 3.9447909221053123e-03</internalNodes>
          <leafValues>
            -1.0643732547760010e-01 2.1766133606433868e-01</leafValues></_>
        <_>
          <internalNodes>
            0 -1 297 7.0096522569656372e-02</internalNodes>
          <leafValues>
            -1.5974457561969757e-01 1.4268402755260468e-01</leafValues></_>
        <_>
          <internalNodes>
            0 -1 1231 4.7597140073776245e-03</internalNodes>
          <leafValues>
            4.8144645988941193e-02 -4.7429284453392029e-01</leafValues></_>
        <_>
          <internalNodes>
            0 -1 1656 2.5873822160065174e-03</internalNodes>
          <leafValues>
            -6.7325562238693237e-02 3.7323671579360962e-01</leafValues></_>
        <_>
          <internalNodes>
            0 -1 1777 -4.9291882896795869e-04</internalNodes>
          <leafValues>
            -2.7564710378646851e-01 8.8909946382045746e-02</leafValues></_>
        <_>
          <internalNodes>
            0 -1 1485 3.6324488464742899e-03</internalNodes>
          <leafValues>
            -8.2103088498115540e-02 3.1300613284111023e-01</leafValues></_>
        <_>
          <internalNodes>
            0 -1 1374 -2.4199589097406715e-04</internalNodes>
          <leafValues>
            1.5170127153396606e-01 -1.6308981180191040e-01</leafValues></_>
        <_>
          <internalNodes>
            0 -1 344 3.2901831436902285e-03</internalNodes>
          <leafValues>
            -5.9812381863594055e-02 4.1134983301162720e-01</leafValues></_></weakClassifiers></_>
    <!-- stage 11 -->
    <_>
      <maxWeakCount>79</maxWeakCount>
      <stageThreshold>-1.1442379951477051e+00</stageThreshold>
      <weakClassifiers>
        <_>
          <internalNodes>
            0 -1 1094 3.4314771182835102e-03</internalNodes>
          <leafValues>
            -3.5536874085664749e-02 4.8456838726997375e-01</leafValues></_>
        <_>
          <internalNodes>
            0 -1 80 6.1532869935035706e-02</internalNodes>
          <leafValues>
            -7.3872961103916168e-02 4.6087768673896790e-01</leafValues></_>
        <_>
          <internalNodes>
            0 -1 1521 2.5185975246131420e-03</internalNodes>
          <leafValues>
            7.8945681452751160e-02 -4.3895021080970764e-01</leafValues></_>
        <_>
          <internalNodes>
            0 -1 0 -2.1156112779863179e-04</internalNodes>
          <leafValues>
            -2.9077404737472534e-01 1.0279951244592667e-01</leafValues></_>
        <_>
          <internalNodes>
            0 -1 799 1.0528351180255413e-02</internalNodes>
          <leafValues>
            -1.0532560199499130e-01 3.0795681476593018e-01</leafValues></_>
        <_>
          <internalNodes>
            0 -1 356 2.3581837303936481e-03</internalNodes>
          <leafValues>
            -9.6595630049705505e-02 3.6583349108695984e-01</leafValues></_>
        <_>
          <internalNodes>
            0 -1 0 3.7024816265329719e-04</internalNodes>
          <leafValues>
            8.3232805132865906e-02 -3.4217038750648499e-01</leafValues></_>
        <_>
          <internalNodes>
            0 -1 530 2.4410849437117577e-03</internalNodes>
          <leafValues>
            -8.3613924682140350e-02 3.8017100095748901e-01</leafValues></_>
        <_>
          <internalNodes>
            0 -1 1388 -4.3891370296478271e-03</internalNodes>
          <leafValues>
            3.0388966202735901e-01 -1.0677392035722733e-01</leafValues></_>
        <_>
          <internalNodes>
            0 -1 805 1.4817703515291214e-02</internalNodes>
          <leafValues>
            -1.0805627703666687e-01 2.6830995082855225e-01</leafValues></_>
        <_>
          <internalNodes>
            0 -1 942 -2.8055543079972267e-03</internalNodes>
          <leafValues>
            4.3051892518997192e-01 -5.9628322720527649e-02</leafValues></_>
        <_>
          <internalNodes>
            0 -1 724 8.7940518278628588e-04</internalNodes>
          <leafValues>
            -1.4636111259460449e-01 2.1589499711990356e-01</leafValues></_>
        <_>
          <internalNodes>
            0 -1 1710 -1.0324607137590647e-03</internalNodes>
          <leafValues>
            -3.2889303565025330e-01 8.4323152899742126e-02</leafValues></_>
        <_>
          <internalNodes>
            0 -1 1036 -2.3090828210115433e-02</internalNodes>
          <leafValues>
            2.8530734777450562e-01 -9.9815592169761658e-02</leafValues></_>
        <_>
          <internalNodes>
            0 -1 733 1.3410769402980804e-02</internalNodes>
          <leafValues>
            5.3664643317461014e-02 -5.3707027435302734e-01</leafValues></_>
        <_>
          <internalNodes>
            0 -1 743 2.3488870356231928e-03</internalNodes>
          <leafValues>
            -7.6113224029541016e-02 3.6131626367568970e-01</leafValues></_>
        <_>
          <internalNodes>
            0 -1 353 -3.1802557408809662e-02</internalNodes>
          <leafValues>
            -4.7752135992050171e-01 6.0948800295591354e-02</leafValues></_>
        <_>
          <internalNodes>
            0 -1 1369 4.6565122902393341e-02</internalNodes>
          <leafValues>
            -1.9411742687225342e-01 1.4734238386154175e-01</leafValues></_>
        <_>
          <internalNodes>
            0 -1 487 5.2158823236823082e-03</internalNodes>
          <leafValues>
            -1.0673671215772629e-01 2.4438782036304474e-01</leafValues></_>
        <_>
          <internalNodes>
            0 -1 1399 -1.1549981310963631e-02</internalNodes>
          <leafValues>
            -4.6861818432807922e-01 6.3629850745201111e-02</leafValues></_>
        <_>
          <internalNodes>
            0 -1 706 2.0441077649593353e-03</internalNodes>
          <leafValues>
            -9.7103409469127655e-02 3.0391854047775269e-01</leafValues></_>
        <_>
          <internalNodes>
            0 -1 1731 -5.3088883869349957e-03</internalNodes>
          <leafValues>
            4.6106183528900146e-01 -5.3742457181215286e-02</leafValues></_>
        <_>
          <internalNodes>
            0 -1 1710 4.3022984755225480e-04</internalNodes>
          <leafValues>
