<?xml version="1.0"?>
<opencv_storage>
<cascade>
  <stageType>BOOST</stageType>
  <featureType>HAAR</featureType>
  <height>20</height>
  <width>20</width>
  <stageParams>
    <boostType>GAB</boostType>
    <minHitRate>9.9900001287460327e-01</minHitRate>
    <maxFalseAlarm>5.0000000000000000e-01</maxFalseAlarm>
    <weightTrimRate>9.4999999999999996e-01</weightTrimRate>
    <maxDepth>1</maxDepth>
    <maxWeakCount>100</maxWeakCount></stageParams>
  <featureParams>
    <maxCatCount>0</maxCatCount>
    <featSize>1</featSize>
    <mode>ALL</mode></featureParams>
  <stageNum>31</stageNum>
  <stages>
    <!-- stage 0 -->
    <_>
      <maxWeakCount>11</maxWeakCount>
      <stageThreshold>-1.9421037435531616e+00</stageThreshold>
      <weakClassifiers>
        <_>
          <internalNodes>
            0 -1 554 5.1520504057407379e-03</internalNodes>
          <leafValues>
            -4.2761147022247314e-01 7.6842474937438965e-01</leafValues></_>
        <_>
          <internalNodes>
            0 -1 607 -2.8820298612117767e-03</internalNodes>
          <leafValues>
            7.8192067146301270e-01 -2.6445665955543518e-01</leafValues></_>
        <_>
          <internalNodes>
            0 -1 1066 8.5600707679986954e-03</internalNodes>
          <leafValues>
            -4.3663200736045837e-01 5.0319486856460571e-01</leafValues></_>
        <_>
          <internalNodes>
            0 -1 572 -9.7771575674414635e-03</internalNodes>
          <leafValues>
            6.9531607627868652e-01 -2.7801746129989624e-01</leafValues></_>
        <_>
          <internalNodes>
            0 -1 805 8.0038737505674362e-03</internalNodes>
          <leafValues>
            -2.4589279294013977e-01 6.7535907030105591e-01</leafValues></_>
        <_>
          <internalNodes>
            0 -1 806 -1.7406409606337547e-03</internalNodes>
          <leafValues>
            6.6530865430831909e-01 -3.5129132866859436e-01</leafValues></_>
        <_>
          <internalNodes>
            0 -1 149 -1.1727119982242584e-01</internalNodes>
          <leafValues>
            -8.1118893623352051e-01 2.4428871273994446e-01</leafValues></_>
        <_>
          <internalNodes>
            0 -1 868 3.0913078226149082e-03</internalNodes>
          <leafValues>
            2.2920459508895874e-01 -7.1635687351226807e-01</leafValues></_>
        <_>
          <internalNodes>
            0 -1 611 -1.9613229669630527e-03</internalNodes>
          <leafValues>
            5.5160480737686157e-01 -3.1818976998329163e-01</leafValues></_>
        <_>
          <internalNodes>
            0 -1 101 8.4401611238718033e-03</internalNodes>
          <leafValues>
            3.2945320010185242e-01 -4.9208503961563110e-01</leafValues></_>
        <_>
          <internalNodes>
            0 -1 449 1.5355875948444009e-03</internalNodes>
          <leafValues>
            -4.9399718642234802e-01 2.9201942682266235e-01</leafValues></_></weakClassifiers></_>
    <!-- stage 1 -->
    <_>
      <maxWeakCount>19</maxWeakCount>
      <stageThreshold>-1.7373133897781372e+00</stageThreshold>
      <weakClassifiers>
        <_>
          <internalNodes>
            0 -1 301 5.7765124365687370e-03</internalNodes>
          <leafValues>
            -2.4527092278003693e-01 6.4019721746444702e-01</leafValues></_>
        <_>
          <internalNodes>
            0 -1 621 4.4692192226648331e-02</internalNodes>
          <leafValues>
            -3.4754616022109985e-01 5.9134674072265625e-01</leafValues></_>
        <_>
          <internalNodes>
            0 -1 577 2.4176950100809336e-03</internalNodes>
          <leafValues>
            -3.4070318937301636e-01 4.9699836969375610e-01</leafValues></_>
        <_>
          <internalNodes>
            0 -1 353 1.4713779091835022e-03</internalNodes>
          <leafValues>
            -2.4782669544219971e-01 5.1353323459625244e-01</leafValues></_>
        <_>
          <internalNodes>
            0 -1 606 1.9922511652112007e-02</internalNodes>
          <leafValues>
            1.3739700615406036e-01 -8.4175276756286621e-01</leafValues></_>
        <_>
          <internalNodes>
            0 -1 7 5.2665394544601440e-01</internalNodes>
          <leafValues>
            1.5787883102893829e-01 -8.1771522760391235e-01</leafValues></_>
        <_>
          <internalNodes>
            0 -1 582 -2.7545098215341568e-02</internalNodes>
          <leafValues>
            5.8970826864242554e-01 -2.4804121255874634e-01</leafValues></_>
        <_>
          <internalNodes>
            0 -1 340 1.0908318683505058e-02</internalNodes>
          <leafValues>
            -3.3549258112907410e-01 4.6058082580566406e-01</leafValues></_>
        <_>
          <internalNodes>
            0 -1 612 3.4389927983283997e-02</internalNodes>
          <leafValues>
            1.6536736488342285e-01 -7.7521806955337524e-01</leafValues></_>
        <_>
          <internalNodes>
            0 -1 9 3.6324937827885151e-03</internalNodes>
          <leafValues>
            2.8759768605232239e-01 -3.8288560509681702e-01</leafValues></_>
        <_>
          <internalNodes>
            0 -1 812 1.4196550473570824e-03</internalNodes>
          <leafValues>
            -2.8002518415451050e-01 4.1581913828849792e-01</leafValues></_>
        <_>
          <internalNodes>
            0 -1 662 2.0614820532500744e-03</internalNodes>
          <leafValues>
            2.1522688865661621e-01 -5.1626068353652954e-01</leafValues></_>
        <_>
          <internalNodes>
            0 -1 835 -2.2833608090877533e-03</internalNodes>
          <leafValues>
            2.5306937098503113e-01 -4.0560692548751831e-01</leafValues></_>
        <_>
          <internalNodes>
            0 -1 128 -2.6618510484695435e-02</internalNodes>
          <leafValues>
            5.8665007352828979e-01 -1.9201393425464630e-01</leafValues></_>
        <_>
          <internalNodes>
            0 -1 79 2.9419096186757088e-02</internalNodes>
          <leafValues>
            -1.4508524537086487e-01 6.6852140426635742e-01</leafValues></_>
        <_>
          <internalNodes>
            0 -1 478 -3.2290603965520859e-02</internalNodes>
          <leafValues>
            5.5561226606369019e-01 -1.7884095013141632e-01</leafValues></_>
        <_>
          <internalNodes>
            0 -1 158 -1.8711268901824951e-02</internalNodes>
          <leafValues>
            -7.4557715654373169e-01 1.7191259562969208e-01</leafValues></_>
        <_>
          <internalNodes>
            0 -1 228 -4.7203969210386276e-02</internalNodes>
          <leafValues>
            7.1890306472778320e-01 -1.4955271780490875e-01</leafValues></_>
        <_>
          <internalNodes>
            0 -1 58 8.7290914962068200e-04</internalNodes>
          <leafValues>
            2.0794250071048737e-01 -4.4922170042991638e-01</leafValues></_></weakClassifiers></_>
    <!-- stage 2 -->
    <_>
      <maxWeakCount>23</maxWeakCount>
      <stageThreshold>-1.5777531862258911e+00</stageThreshold>
      <weakClassifiers>
        <_>
          <internalNodes>
            0 -1 977 -1.0400099679827690e-02</internalNodes>
          <leafValues>
            6.4360660314559937e-01 -1.8329878151416779e-01</leafValues></_>
        <_>
          <internalNodes>
            0 -1 660 1.1133872903883457e-03</internalNodes>
          <leafValues>
            3.0399119853973389e-01 -6.5151268243789673e-01</leafValues></_>
        <_>
          <internalNodes>
            0 -1 104 1.0173533856868744e-01</internalNodes>
          <leafValues>
            -3.1838127970695496e-01 4.6582382917404175e-01</leafValues></_>
        <_>
          <internalNodes>
            0 -1 263 -1.6136362683027983e-03</internalNodes>
          <leafValues>
            3.1168502569198608e-01 -5.1123774051666260e-01</leafValues></_>
        <_>
          <internalNodes>
            0 -1 330 1.0123702231794596e-03</internalNodes>
          <leafValues>
            1.9848325848579407e-01 -4.6595108509063721e-01</leafValues></_>
        <_>
          <internalNodes>
            0 -1 447 7.6791928149759769e-03</internalNodes>
          <leafValues>
            -3.6235451698303223e-01 2.5926420092582703e-01</leafValues></_>
        <_>
          <internalNodes>
            0 -1 231 3.3531881868839264e-02</internalNodes>
          <leafValues>
            -1.9100442528724670e-01 5.7449954748153687e-01</leafValues></_>
        <_>
          <internalNodes>
            0 -1 482 1.4316590968519449e-03</internalNodes>
          <leafValues>
            -2.9128456115722656e-01 3.2969841361045837e-01</leafValues></_>
        <_>
          <internalNodes>
            0 -1 548 2.2467370145022869e-03</internalNodes>
          <leafValues>
            1.3009439408779144e-01 -8.8676977157592773e-01</leafValues></_>
        <_>
          <internalNodes>
            0 -1 444 -2.3535015061497688e-03</internalNodes>
          <leafValues>
            -7.1613001823425293e-01 1.2241405993700027e-01</leafValues></_>
        <_>
          <internalNodes>
            0 -1 333 3.1545080244541168e-02</internalNodes>
          <leafValues>
            -1.7504343390464783e-01 5.7895177602767944e-01</leafValues></_>
        <_>
          <internalNodes>
            0 -1 688 -6.9481357932090759e-02</internalNodes>
          <leafValues>
            5.9977364540100098e-01 -1.5269835293292999e-01</leafValues></_>
        <_>
          <internalNodes>
            0 -1 811 1.4976426027715206e-03</internalNodes>
          <leafValues>
            -2.0669704675674438e-01 4.1755232214927673e-01</leafValues></_>
        <_>
          <internalNodes>
            0 -1 330 -1.0636403458192945e-03</internalNodes>
          <leafValues>
            -4.6650579571723938e-01 1.9968511164188385e-01</leafValues></_>
        <_>
          <internalNodes>
            0 -1 633 -4.2374476790428162e-02</internalNodes>
          <leafValues>
            5.5952793359756470e-01 -1.5273325145244598e-01</leafValues></_>
        <_>
          <internalNodes>
            0 -1 668 3.3575389534235001e-03</internalNodes>
          <leafValues>
            1.3013568520545959e-01 -7.5967341661453247e-01</leafValues></_>
        <_>
          <internalNodes>
            0 -1 361 1.6729945316910744e-02</internalNodes>
          <leafValues>
            1.4826384186744690e-01 -5.8128446340560913e-01</leafValues></_>
        <_>
          <internalNodes>
            0 -1 234 6.1027292162179947e-02</internalNodes>
          <leafValues>
            -2.0019938051700592e-01 5.1579535007476807e-01</leafValues></_>
        <_>
          <internalNodes>
            0 -1 626 -1.8543335609138012e-03</internalNodes>
          <leafValues>
            3.6176550388336182e-01 -2.5363200902938843e-01</leafValues></_>
        <_>
          <internalNodes>
            0 -1 779 -2.4266909807920456e-02</internalNodes>
          <leafValues>
            -6.4496529102325439e-01 1.3201245665550232e-01</leafValues></_>
        <_>
          <internalNodes>
            0 -1 857 1.8495374824851751e-03</internalNodes>
          <leafValues>
            -2.5214213132858276e-01 3.5621801018714905e-01</leafValues></_>
        <_>
          <internalNodes>
            0 -1 762 -1.0931063443422318e-03</internalNodes>
          <leafValues>
            -7.7527725696563721e-01 1.2574258446693420e-01</leafValues></_>
        <_>
          <internalNodes>
            0 -1 935 5.7119112461805344e-03</internalNodes>
          <leafValues>
            -2.1916849911212921e-01 4.5057153701782227e-01</leafValues></_></weakClassifiers></_>
    <!-- stage 3 -->
    <_>
      <maxWeakCount>23</maxWeakCount>
      <stageThreshold>-1.5394213199615479e+00</stageThreshold>
      <weakClassifiers>
        <_>
          <internalNodes>
            0 -1 608 5.3914459422230721e-03</internalNodes>
          <leafValues>
            -2.6652806997299194e-01 5.5208492279052734e-01</leafValues></_>
        <_>
          <internalNodes>
            0 -1 553 3.1748185865581036e-03</internalNodes>
          <leafValues>
            -5.0704836845397949e-01 2.9322898387908936e-01</leafValues></_>
        <_>
          <internalNodes>
            0 -1 26 7.0234440267086029e-02</internalNodes>
          <leafValues>
            -1.9026617705821991e-01 6.3379669189453125e-01</leafValues></_>
        <_>
          <internalNodes>
            0 -1 601 -1.2156170560047030e-03</internalNodes>
          <leafValues>
            3.7681862711906433e-01 -3.3246561884880066e-01</leafValues></_>
        <_>
          <internalNodes>
            0 -1 606 -4.4208750128746033e-02</internalNodes>
          <leafValues>
            -7.5440239906311035e-01 1.1311192065477371e-01</leafValues></_>
        <_>
          <internalNodes>
            0 -1 332 5.1018942147493362e-02</internalNodes>
          <leafValues>
            -1.9436454772949219e-01 6.4213758707046509e-01</leafValues></_>
        <_>
          <internalNodes>
            0 -1 295 4.5862738043069839e-02</internalNodes>
          <leafValues>
            1.7411175370216370e-01 -6.8844079971313477e-01</leafValues></_>
        <_>
          <internalNodes>
            0 -1 545 4.8534522647969425e-05</internalNodes>
          <leafValues>
            -4.4938123226165771e-01 2.2540311515331268e-01</leafValues></_>
        <_>
          <internalNodes>
            0 -1 339 -1.5004264190793037e-02</internalNodes>
          <leafValues>
            -7.3510956764221191e-01 1.4603014290332794e-01</leafValues></_>
        <_>
          <internalNodes>
            0 -1 353 1.7196132102981210e-03</internalNodes>
          <leafValues>
            -2.5060218572616577e-01 4.6014621853828430e-01</leafValues></_>
        <_>
          <internalNodes>
            0 -1 485 1.2197780888527632e-03</internalNodes>
          <leafValues>
            -2.9278829693794250e-01 4.2998358607292175e-01</leafValues></_>
        <_>
          <internalNodes>
            0 -1 564 6.2534464523196220e-03</internalNodes>
          <leafValues>
            1.4891019463539124e-01 -7.4751663208007813e-01</leafValues></_>
        <_>
          <internalNodes>
            0 -1 503 1.9968047126894817e-05</internalNodes>
          <leafValues>
            -4.5019567012786865e-01 2.1376895904541016e-01</leafValues></_>
        <_>
          <internalNodes>
            0 -1 1022 2.1219272166490555e-03</internalNodes>
          <leafValues>
            -3.5142558813095093e-01 2.5618910789489746e-01</leafValues></_>
        <_>
          <internalNodes>
            0 -1 771 1.0482852812856436e-03</internalNodes>
          <leafValues>
            2.0125447213649750e-01 -4.4758588075637817e-01</leafValues></_>
        <_>
          <internalNodes>
            0 -1 591 3.7040829192847013e-03</internalNodes>
          <leafValues>
            -2.1563789248466492e-01 4.3135344982147217e-01</leafValues></_>
        <_>
          <internalNodes>
            0 -1 934 3.0108310747891665e-03</internalNodes>
          <leafValues>
            -2.3917546868324280e-01 4.1256520152091980e-01</leafValues></_>
        <_>
          <internalNodes>
            0 -1 558 -1.1663306504487991e-03</internalNodes>
          <leafValues>
            -7.7445811033248901e-01 1.4391136169433594e-01</leafValues></_>
        <_>
          <internalNodes>
            0 -1 226 7.8558898530900478e-04</internalNodes>
          <leafValues>
            1.1888737976551056e-01 -5.4957222938537598e-01</leafValues></_>
        <_>
          <internalNodes>
            0 -1 618 -3.7661839742213488e-03</internalNodes>
          <leafValues>
            3.1293821334838867e-01 -2.8339624404907227e-01</leafValues></_>
        <_>
          <internalNodes>
            0 -1 909 -5.7289176620543003e-03</internalNodes>
          <leafValues>
            -7.8016936779022217e-01 1.0915585607290268e-01</leafValues></_>
        <_>
          <internalNodes>
            0 -1 885 -2.7032985817641020e-03</internalNodes>
          <leafValues>
            4.2187839746475220e-01 -2.1769228577613831e-01</leafValues></_>
        <_>
          <internalNodes>
            0 -1 550 6.6501093097031116e-03</internalNodes>
          <leafValues>
            1.0027413070201874e-01 -8.5196638107299805e-01</leafValues></_></weakClassifiers></_>
    <!-- stage 4 -->
    <_>
      <maxWeakCount>23</maxWeakCount>
      <stageThreshold>-1.5097481012344360e+00</stageThreshold>
      <weakClassifiers>
        <_>
          <internalNodes>
            0 -1 669 -3.5042343661189079e-03</internalNodes>
          <leafValues>
            5.8676058053970337e-01 -2.0055229961872101e-01</leafValues></_>
        <_>
          <internalNodes>
            0 -1 108 1.4241016469895840e-02</internalNodes>
          <leafValues>
            -2.1340535581111908e-01 5.4456150531768799e-01</leafValues></_>
        <_>
          <internalNodes>
            0 -1 309 2.7880542911589146e-03</internalNodes>
          <leafValues>
            -5.0565969944000244e-01 2.6325899362564087e-01</leafValues></_>
        <_>
          <internalNodes>
            0 -1 785 1.2473294511437416e-02</internalNodes>
          <leafValues>
            1.2863184511661530e-01 -7.7487128973007202e-01</leafValues></_>
        <_>
          <internalNodes>
            0 -1 635 -3.3905529417097569e-03</internalNodes>
          <leafValues>
            3.8852187991142273e-01 -2.6976338028907776e-01</leafValues></_>
        <_>
          <internalNodes>
            0 -1 110 -2.8349645435810089e-03</internalNodes>
          <leafValues>
            5.3925806283950806e-01 -1.8813957273960114e-01</leafValues></_>
        <_>
          <internalNodes>
            0 -1 164 -1.9261635607108474e-03</internalNodes>
          <leafValues>
            4.9744361639022827e-01 -2.0024083554744720e-01</leafValues></_>
        <_>
          <internalNodes>
            0 -1 77 5.0516590476036072e-02</internalNodes>
          <leafValues>
            1.4745689928531647e-01 -7.6595985889434814e-01</leafValues></_>
        <_>
          <internalNodes>
            0 -1 417 2.4029300548136234e-03</internalNodes>
          <leafValues>
            -3.3099427819252014e-01 2.6583421230316162e-01</leafValues></_>
        <_>
          <internalNodes>
            0 -1 247 -1.9922709092497826e-02</internalNodes>
          <leafValues>
            -7.9912155866622925e-01 1.0783284902572632e-01</leafValues></_>
        <_>
          <internalNodes>
            0 -1 505 -2.0730844698846340e-03</internalNodes>
          <leafValues>
            6.0981553792953491e-01 -1.7619782686233521e-01</leafValues></_>
        <_>
          <internalNodes>
            0 -1 199 3.0589012429118156e-02</internalNodes>
          <leafValues>
            1.3480313122272491e-01 -7.8480339050292969e-01</leafValues></_>
        <_>
          <internalNodes>
            0 -1 1049 9.2993746511638165e-04</internalNodes>
          <leafValues>
            1.5094913542270660e-01 -4.8835477232933044e-01</leafValues></_>
        <_>
          <internalNodes>
            0 -1 895 -1.5349872410297394e-03</internalNodes>
          <leafValues>
            4.1610360145568848e-01 -2.0320579409599304e-01</leafValues></_>
        <_>
          <internalNodes>
            0 -1 873 3.5441881045699120e-03</internalNodes>
          <leafValues>
            -1.7855639755725861e-01 4.8154678940773010e-01</leafValues></_>
        <_>
          <internalNodes>
            0 -1 229 3.1166136264801025e-02</internalNodes>
          <leafValues>
            -1.7971093952655792e-01 4.8967820405960083e-01</leafValues></_>
        <_>
          <internalNodes>
            0 -1 775 -5.4157078266143799e-02</internalNodes>
          <leafValues>
            -7.2410422563552856e-01 1.1216725409030914e-01</leafValues></_>
        <_>
          <internalNodes>
            0 -1 1049 -9.2522171325981617e-04</internalNodes>
          <leafValues>
            -4.7255641222000122e-01 1.5911489725112915e-01</leafValues></_>
        <_>
          <internalNodes>
            0 -1 454 7.4933664873242378e-03</internalNodes>
          <leafValues>
            9.2308163642883301e-02 -8.0871862173080444e-01</leafValues></_>
        <_>
          <internalNodes>
            0 -1 375 5.7593744713813066e-04</internalNodes>
          <leafValues>
            -2.4512226879596710e-01 3.5234805941581726e-01</leafValues></_>
        <_>
          <internalNodes>
            0 -1 363 1.9419203745201230e-03</internalNodes>
          <leafValues>
            -2.0730727910995483e-01 4.5281344652175903e-01</leafValues></_>
        <_>
          <internalNodes>
            0 -1 227 4.8438884317874908e-02</internalNodes>
          <leafValues>
            1.4514437317848206e-01 -6.9546842575073242e-01</leafValues></_>
        <_>
          <internalNodes>
            0 -1 448 5.4220974561758339e-05</internalNodes>
          <leafValues>
            -4.9085211753845215e-01 1.6055813431739807e-01</leafValues></_></weakClassifiers></_>
    <!-- stage 5 -->
    <_>
      <maxWeakCount>14</maxWeakCount>
      <stageThreshold>-1.2013604640960693e+00</stageThreshold>
      <weakClassifiers>
        <_>
          <internalNodes>
            0 -1 253 -1.1050482280552387e-03</internalNodes>
          <leafValues>
            6.5085536241531372e-01 -9.0248964726924896e-02</leafValues></_>
        <_>
          <internalNodes>
            0 -1 985 1.5000748680904508e-04</internalNodes>
          <leafValues>
            -3.1176310777664185e-01 4.6231421828269958e-01</leafValues></_>
        <_>
          <internalNodes>
            0 -1 134 5.7150085922330618e-04</internalNodes>
          <leafValues>
            -2.8861844539642334e-01 4.6186131238937378e-01</leafValues></_>
        <_>
          <internalNodes>
            0 -1 209 5.6362268514931202e-04</internalNodes>
          <leafValues>
            -3.2604113221168518e-01 3.8968822360038757e-01</leafValues></_>
        <_>
          <internalNodes>
            0 -1 90 5.3758337162435055e-04</internalNodes>
          <leafValues>
            -2.6238813996315002e-01 4.5535039901733398e-01</leafValues></_>
        <_>
          <internalNodes>
            0 -1 484 -1.5189657278824598e-04</internalNodes>
          <leafValues>
            3.1647765636444092e-01 -3.4936675429344177e-01</leafValues></_>
        <_>
          <internalNodes>
            0 -1 15 3.2698208093643188e-01</internalNodes>
          <leafValues>
            -1.5888550877571106e-01 5.6580168008804321e-01</leafValues></_>
        <_>
          <internalNodes>
            0 -1 628 -1.6785271000117064e-03</internalNodes>
          <leafValues>
            4.0361022949218750e-01 -2.7217203378677368e-01</leafValues></_>
        <_>
          <internalNodes>
            0 -1 617 4.5915588736534119e-02</internalNodes>
          <leafValues>
            1.3925021886825562e-01 -8.2276707887649536e-01</leafValues></_>
        <_>
          <internalNodes>
            0 -1 722 1.5839153900742531e-02</internalNodes>
          <leafValues>
            1.2277328968048096e-01 -8.2873088121414185e-01</leafValues></_>
        <_>
          <internalNodes>
            0 -1 373 9.5602648798376322e-04</internalNodes>
          <leafValues>
            -2.6708328723907471e-01 3.7354671955108643e-01</leafValues></_>
        <_>
          <internalNodes>
            0 -1 501 8.2358927465975285e-04</internalNodes>
          <leafValues>
            -2.4047639966011047e-01 4.3020460009574890e-01</leafValues></_>
        <_>
          <internalNodes>
            0 -1 174 -4.1417308151721954e-02</internalNodes>
          <leafValues>
            -7.4345606565475464e-01 1.4971393346786499e-01</leafValues></_>
        <_>
          <internalNodes>
            0 -1 116 -3.7736888043582439e-03</internalNodes>
          <leafValues>
            5.8852189779281616e-01 -1.6519191861152649e-01</leafValues></_></weakClassifiers></_>
    <!-- stage 6 -->
    <_>
      <maxWeakCount>29</maxWeakCount>
      <stageThreshold>-1.4741784334182739e+00</stageThreshold>
      <weakClassifiers>
        <_>
          <internalNodes>
            0 -1 609 -3.7603162229061127e-02</internalNodes>
          <leafValues>
            -7.3611110448837280e-01 4.2632851004600525e-01</leafValues></_>
        <_>
          <internalNodes>
            0 -1 609 1.3440022245049477e-02</internalNodes>
          <leafValues>
            2.5036528706550598e-01 -6.0038608312606812e-01</leafValues></_>
        <_>
          <internalNodes>
            0 -1 15 3.6389642953872681e-01</internalNodes>
          <leafValues>
            -2.4943624436855316e-01 5.0858861207962036e-01</leafValues></_>
        <_>
          <internalNodes>
            0 -1 501 -2.9027855489403009e-03</internalNodes>
          <leafValues>
            5.7172334194183350e-01 -1.5969981253147125e-01</leafValues></_>
        <_>
          <internalNodes>
            0 -1 373 -2.3582642897963524e-03</internalNodes>
          <leafValues>
            5.2605658769607544e-01 -1.7532297968864441e-01</leafValues></_>
        <_>
          <internalNodes>
            0 -1 563 1.8347660443396308e-05</internalNodes>
          <leafValues>
            -5.3127467632293701e-01 1.5847876667976379e-01</leafValues></_>
        <_>
          <internalNodes>
            0 -1 3 -1.0458539472892880e-03</internalNodes>
          <leafValues>
            -4.1312596201896667e-01 1.9951684772968292e-01</leafValues></_>
        <_>
          <internalNodes>
            0 -1 3 7.8662304440513253e-04</internalNodes>
          <leafValues>
            1.9683064520359039e-01 -4.2540371417999268e-01</leafValues></_>
        <_>
          <internalNodes>
            0 -1 267 -2.9654395766556263e-03</internalNodes>
          <leafValues>
            5.9941065311431885e-01 -1.5185414254665375e-01</leafValues></_>
        <_>
          <internalNodes>
            0 -1 569 4.4333726691547781e-05</internalNodes>
          <leafValues>
            -3.0478036403656006e-01 3.0389869213104248e-01</leafValues></_>
        <_>
          <internalNodes>
            0 -1 1036 4.4143958948552608e-03</internalNodes>
          <leafValues>
            -1.6883966326713562e-01 4.5197838544845581e-01</leafValues></_>
        <_>
          <internalNodes>
            0 -1 895 -2.7064569294452667e-03</internalNodes>
          <leafValues>
            5.1679211854934692e-01 -1.3213132321834564e-01</leafValues></_>
        <_>
          <internalNodes>
            0 -1 785 1.0909847915172577e-02</internalNodes>
          <leafValues>
            1.1674458533525467e-01 -6.7318117618560791e-01</leafValues></_>
        <_>
          <internalNodes>
            0 -1 672 -3.2947491854429245e-03</internalNodes>
          <leafValues>
            -8.2325512170791626e-01 7.5351886451244354e-02</leafValues></_>
        <_>
          <internalNodes>
            0 -1 256 2.3935989011079073e-03</internalNodes>
          <leafValues>
            -1.8747425079345703e-01 4.3345820903778076e-01</leafValues></_>
        <_>
          <internalNodes>
            0 -1 252 -1.5582829713821411e-02</internalNodes>
          <leafValues>
            -7.8361117839813232e-01 1.0801185667514801e-01</leafValues></_>
        <_>
          <internalNodes>
            0 -1 116 -4.1444636881351471e-03</internalNodes>
          <leafValues>
            5.4483592510223389e-01 -1.4894062280654907e-01</leafValues></_>
        <_>
          <internalNodes>
            0 -1 313 -2.4523155298084021e-03</internalNodes>
          <leafValues>
            -7.8368788957595825e-01 1.1008136719465256e-01</leafValues></_>
        <_>
          <internalNodes>
            0 -1 874 -5.4439352825284004e-03</internalNodes>
          <leafValues>
            3.1786930561065674e-01 -2.3107358813285828e-01</leafValues></_>
        <_>
          <internalNodes>
            0 -1 116 2.9617757536470890e-03</internalNodes>
          <leafValues>
            -1.2815998494625092e-01 5.3656870126724243e-01</leafValues></_>
        <_>
          <internalNodes>
            0 -1 1073 1.6859536990523338e-02</internalNodes>
          <leafValues>
            -1.4519183337688446e-01 4.3864077329635620e-01</leafValues></_>
        <_>
          <internalNodes>
            0 -1 171 2.8758995234966278e-02</internalNodes>
          <leafValues>
            1.1872620135545731e-01 -6.1700552701950073e-01</leafValues></_>
        <_>
          <internalNodes>
            0 -1 127 -2.2317821159958839e-02</internalNodes>
          <leafValues>
            4.4342738389968872e-01 -1.8157503008842468e-01</leafValues></_>
        <_>
          <internalNodes>
            0 -1 241 2.0839411765336990e-02</internalNodes>
          <leafValues>
            -1.5676710009574890e-01 4.0315538644790649e-01</leafValues></_>
        <_>
          <internalNodes>
            0 -1 477 -2.8169639408588409e-02</internalNodes>
          <leafValues>
            3.9249309897422791e-01 -1.9278112053871155e-01</leafValues></_>
        <_>
          <internalNodes>
            0 -1 834 -3.7322910502552986e-03</internalNodes>
          <leafValues>
            -6.6880679130554199e-01 1.0828261077404022e-01</leafValues></_>
        <_>
          <internalNodes>
            0 -1 715 -2.2857345640659332e-02</internalNodes>
          <leafValues>
            -7.4429374933242798e-01 6.8727575242519379e-02</leafValues></_>
        <_>
          <internalNodes>
            0 -1 1008 1.7258242005482316e-03</internalNodes>
          <leafValues>
            -1.8200877308845520e-01 3.8667434453964233e-01</leafValues></_>
        <_>
          <internalNodes>
            0 -1 203 8.2540288567543030e-03</internalNodes>
          <leafValues>
            9.5813944935798645e-02 -7.0372158288955688e-01</leafValues></_></weakClassifiers></_>
    <!-- stage 7 -->
    <_>
      <maxWeakCount>29</maxWeakCount>
      <stageThreshold>-1.3778988122940063e+00</stageThreshold>
      <weakClassifiers>
        <_>
          <internalNodes>
            0 -1 667 6.8744262680411339e-03</internalNodes>
          <leafValues>
            4.4303798675537109e-01 -6.0509556531906128e-01</leafValues></_>
        <_>
          <internalNodes>
            0 -1 556 4.8117800615727901e-03</internalNodes>
          <leafValues>
            -4.5218467712402344e-01 2.1399591863155365e-01</leafValues></_>
        <_>
          <internalNodes>
            0 -1 348 -1.0892077349126339e-02</internalNodes>
          <leafValues>
            -7.3746770620346069e-01 1.1869692802429199e-01</leafValues></_>
        <_>
          <internalNodes>
            0 -1 366 -1.5756091670482419e-05</internalNodes>
          <leafValues>
            2.4255248904228210e-01 -3.7547326087951660e-01</leafValues></_>
        <_>
          <internalNodes>
            0 -1 423 1.6865293218870647e-05</internalNodes>
          <leafValues>
            -4.8608341813087463e-01 1.6178023815155029e-01</leafValues></_>
        <_>
          <internalNodes>
            0 -1 1027 -3.7886376958340406e-04</internalNodes>
          <leafValues>
            -4.7599837183952332e-01 1.5604998171329498e-01</leafValues></_>
        <_>
          <internalNodes>
            0 -1 159 7.2790205478668213e-02</internalNodes>
          <leafValues>
            -2.9156711697578430e-01 2.8089728951454163e-01</leafValues></_>
        <_>
          <internalNodes>
            0 -1 595 -3.8552884012460709e-02</internalNodes>
          <leafValues>
            -8.1168335676193237e-01 8.4265954792499542e-02</leafValues></_>
        <_>
          <internalNodes>
            0 -1 431 5.5818697437644005e-03</internalNodes>
          <leafValues>
            6.7938387393951416e-02 -8.3393836021423340e-01</leafValues></_>
        <_>
          <internalNodes>
            0 -1 629 5.2255988121032715e-03</internalNodes>
          <leafValues>
            -1.3254219293594360e-01 6.0346621274948120e-01</leafValues></_>
        <_>
          <internalNodes>
            0 -1 1027 2.8574845055118203e-04</internalNodes>
          <leafValues>
            1.6613447666168213e-01 -4.2441484332084656e-01</leafValues></_>
        <_>
          <internalNodes>
            0 -1 732 2.5256834924221039e-02</internalNodes>
          <leafValues>
            -1.0506918281316757e-01 6.9157910346984863e-01</leafValues></_>
        <_>
          <internalNodes>
            0 -1 292 2.4485327303409576e-03</internalNodes>
          <leafValues>
            -3.5400673747062683e-01 2.3211871087551117e-01</leafValues></_>
        <_>
          <internalNodes>
            0 -1 295 3.6631491035223007e-02</internalNodes>
          <leafValues>
            1.1348731815814972e-01 -5.7493060827255249e-01</leafValues></_>
        <_>
          <internalNodes>
            0 -1 485 9.7215035930275917e-04</internalNodes>
          <leafValues>
            -2.1223349869251251e-01 3.0774655938148499e-01</leafValues></_>
        <_>
          <internalNodes>
            0 -1 583 1.9677816890180111e-03</internalNodes>
          <leafValues>
            -2.6699396967887878e-01 3.4981340169906616e-01</leafValues></_>
        <_>
          <internalNodes>
            0 -1 665 -3.6041564308106899e-03</internalNodes>
          <leafValues>
            -7.0736306905746460e-01 9.1738916933536530e-02</leafValues></_>
        <_>
          <internalNodes>
            0 -1 353 2.2975106257945299e-03</internalNodes>
          <leafValues>
            -1.7536115646362305e-01 3.7477821111679077e-01</leafValues></_>
        <_>
          <internalNodes>
            0 -1 906 -1.5561598047497682e-05</internalNodes>
          <leafValues>
            2.0777934789657593e-01 -3.3945801854133606e-01</leafValues></_>
        <_>
          <internalNodes>
            0 -1 624 3.6521054804325104e-02</internalNodes>
          <leafValues>
            -1.5336038172245026e-01 4.5354795455932617e-01</leafValues></_>
        <_>
          <internalNodes>
            0 -1 63 3.3339082729071379e-03</internalNodes>
          <leafValues>
            1.8857632577419281e-01 -3.6803773045539856e-01</leafValues></_>
        <_>
          <internalNodes>
            0 -1 143 -1.0986750712618232e-03</internalNodes>
          <leafValues>
            -4.1834607720375061e-01 1.5105688571929932e-01</leafValues></_>
        <_>
          <internalNodes>
            0 -1 739 -3.4312695264816284e-02</internalNodes>
          <leafValues>
            4.2213290929794312e-01 -1.6194045543670654e-01</leafValues></_>
        <_>
          <internalNodes>
            0 -1 914 2.8689668979495764e-03</internalNodes>
          <leafValues>
            1.0142998397350311e-01 -6.3684797286987305e-01</leafValues></_>
        <_>
          <internalNodes>
            0 -1 922 -4.5750020071864128e-03</internalNodes>
          <leafValues>
            5.9638053178787231e-01 -1.1355561763048172e-01</leafValues></_>
        <_>
          <internalNodes>
            0 -1 496 1.2232807464897633e-02</internalNodes>
          <leafValues>
            1.0097253322601318e-01 -6.6248446702957153e-01</leafValues></_>
        <_>
          <internalNodes>
            0 -1 713 4.2808577418327332e-03</internalNodes>
          <leafValues>
            -1.5642739832401276e-01 4.1625258326530457e-01</leafValues></_>
        <_>
          <internalNodes>
            0 -1 443 8.0359112471342087e-03</internalNodes>
          <leafValues>
            -1.3361395895481110e-01 4.1837564110755920e-01</leafValues></_>
        <_>
          <internalNodes>
            0 -1 314 4.3047070503234863e-03</internalNodes>
          <leafValues>
            7.3263600468635559e-02 -8.6300712823867798e-01</leafValues></_></weakClassifiers></_>
    <!-- stage 8 -->
    <_>
      <maxWeakCount>35</maxWeakCount>
      <stageThreshold>-1.4020695686340332e+00</stageThreshold>
      <weakClassifiers>
        <_>
          <internalNodes>
            0 -1 442 -2.7689132839441299e-03</internalNodes>
          <leafValues>
            -6.9599997997283936e-01 4.2690908908843994e-01</leafValues></_>
        <_>
          <internalNodes>
            0 -1 14 2.9651507735252380e-01</internalNodes>
          <leafValues>
            -1.6329614818096161e-01 5.0462788343429565e-01</leafValues></_>
        <_>
          <internalNodes>
            0 -1 271 -1.2965617934241891e-03</internalNodes>
          <leafValues>
            1.7194409668445587e-01 -5.0245279073715210e-01</leafValues></_>
        <_>
          <internalNodes>
            0 -1 57 -7.3254131712019444e-04</internalNodes>
          <leafValues>
            -4.4506570696830750e-01 1.5882618725299835e-01</leafValues></_>
        <_>
          <internalNodes>
            0 -1 57 4.8859615344554186e-04</internalNodes>
          <leafValues>
            1.7924623191356659e-01 -4.7337380051612854e-01</leafValues></_>
        <_>
          <internalNodes>
            0 -1 559 4.2129206121899188e-05</internalNodes>
          <leafValues>
            -4.0391576290130615e-01 1.7170451581478119e-01</leafValues></_>
        <_>
          <internalNodes>
            0 -1 952 -5.6259636767208576e-03</internalNodes>
          <leafValues>
            6.6224324703216553e-01 -1.4416329562664032e-01</leafValues></_>
        <_>
          <internalNodes>
            0 -1 179 -2.1283432841300964e-02</internalNodes>
          <leafValues>
            -7.8281450271606445e-01 1.2886662781238556e-01</leafValues></_>
        <_>
          <internalNodes>
            0 -1 930 1.0095253586769104e-02</internalNodes>
          <leafValues>
            -1.8353293836116791e-01 3.8718235492706299e-01</leafValues></_>
        <_>
          <internalNodes>
            0 -1 183 -1.0967679321765900e-02</internalNodes>
          <leafValues>
            -6.2179172039031982e-01 1.0259833931922913e-01</leafValues></_>
        <_>
          <internalNodes>
            0 -1 110 -4.4404100626707077e-03</internalNodes>
          <leafValues>
            4.9567645788192749e-01 -1.2342383712530136e-01</leafValues></_>
        <_>
          <internalNodes>
            0 -1 110 2.0420562941581011e-03</internalNodes>
          <leafValues>
            -1.3602831959724426e-01 4.0230345726013184e-01</leafValues></_>
        <_>
          <internalNodes>
            0 -1 854 2.9221610166132450e-03</internalNodes>
          <leafValues>
            -1.9418570399284363e-01 2.9061704874038696e-01</leafValues></_>
        <_>
          <internalNodes>
            0 -1 786 4.3129501864314079e-03</internalNodes>
          <leafValues>
            -1.3522599637508392e-01 4.3151885271072388e-01</leafValues></_>
        <_>
          <internalNodes>
            0 -1 711 1.5763333067297935e-03</internalNodes>
          <leafValues>
            -1.7371287941932678e-01 3.4828120470046997e-01</leafValues></_>
        <_>
          <internalNodes>
            0 -1 708 -3.7706471979618073e-02</internalNodes>
          <leafValues>
            -6.7332392930984497e-01 9.5734834671020508e-02</leafValues></_>
        <_>
          <internalNodes>
            0 -1 670 -9.2470424715429544e-04</internalNodes>
          <leafValues>
            -6.6445910930633545e-01 7.5754746794700623e-02</leafValues></_>
        <_>
          <internalNodes>
            0 -1 995 3.4138642251491547e-02</internalNodes>
          <leafValues>
            1.0734821856021881e-01 -5.2000206708908081e-01</leafValues></_>
        <_>
          <internalNodes>
            0 -1 670 2.6562542188912630e-03</internalNodes>
          <leafValues>
            6.6164635121822357e-02 -7.9331606626510620e-01</leafValues></_>
        <_>
          <internalNodes>
            0 -1 600 4.7026025131344795e-03</internalNodes>
          <leafValues>
            -1.6117972135543823e-01 3.5703325271606445e-01</leafValues></_>
        <_>
          <internalNodes>
            0 -1 421 8.5437307134270668e-03</internalNodes>
          <leafValues>
            7.9600639641284943e-02 -7.6885211467742920e-01</leafValues></_>
        <_>
          <internalNodes>
            0 -1 746 -1.7831519246101379e-02</internalNodes>
          <leafValues>
            3.8427662849426270e-01 -1.5510408580303192e-01</leafValues></_>
        <_>
          <internalNodes>
            0 -1 504 -4.4944707304239273e-02</internalNodes>
          <leafValues>
            4.4897055625915527e-01 -1.5655456483364105e-01</leafValues></_>
        <_>
          <internalNodes>
            0 -1 198 1.4151714742183685e-02</internalNodes>
          <leafValues>
            8.0762892961502075e-02 -7.7505713701248169e-01</leafValues></_>
        <_>
          <internalNodes>
            0 -1 994 -9.5647457055747509e-04</internalNodes>
          <leafValues>
            -3.9106109738349915e-01 1.3504277169704437e-01</leafValues></_>
        <_>
          <internalNodes>
            0 -1 686 -1.4025573618710041e-03</internalNodes>
          <leafValues>
            -3.4508010745048523e-01 1.7687037587165833e-01</leafValues></_>
        <_>
          <internalNodes>
            0 -1 720 1.3886170927435160e-03</internalNodes>
          <leafValues>
            -2.4113057553768158e-01 2.3672561347484589e-01</leafValues></_>
        <_>
          <internalNodes>
            0 -1 316 -2.2639445960521698e-03</internalNodes>
          <leafValues>
            -5.1338636875152588e-01 1.0482275485992432e-01</leafValues></_>
        <_>
          <internalNodes>
            0 -1 73 4.9576759338378906e-02</internalNodes>
          <leafValues>
            6.7555576562881470e-02 -6.7976582050323486e-01</leafValues></_>
        <_>
          <internalNodes>
            0 -1 615 -2.1307542920112610e-02</internalNodes>
          <leafValues>
            -5.6796449422836304e-01 9.3279689550399780e-02</leafValues></_>
        <_>
          <internalNodes>
            0 -1 628 -3.1145820394158363e-03</internalNodes>
          <leafValues>
            3.8663050532341003e-01 -1.6265615820884705e-01</leafValues></_>
        <_>
          <internalNodes>
            0 -1 942 -5.7384083047509193e-03</internalNodes>
          <leafValues>
            6.2124574184417725e-01 -8.3389714360237122e-02</leafValues></_>
        <_>
          <internalNodes>
            0 -1 988 4.9596601456869394e-05</internalNodes>
          <leafValues>
            -3.0961230397224426e-01 1.8108935654163361e-01</leafValues></_>
        <_>
          <internalNodes>
            0 -1 867 -2.5209179148077965e-03</internalNodes>
          <leafValues>
            3.3143496513366699e-01 -1.6826111078262329e-01</leafValues></_>
        <_>
          <internalNodes>
            0 -1 546 -7.8266803175210953e-03</internalNodes>
          <leafValues>
            -8.3813071250915527e-01 7.3224067687988281e-02</leafValues></_></weakClassifiers></_>
    <!-- stage 9 -->
    <_>
      <maxWeakCount>34</maxWeakCount>
      <stageThreshold>-1.2244818210601807e+00</stageThreshold>
      <weakClassifiers>
        <_>
          <internalNodes>
            0 -1 169 1.0251427069306374e-02</internalNodes>
          <leafValues>
            -9.7411638125777245e-03 5.6130939722061157e-01</leafValues></_>
        <_>
          <internalNodes>
            0 -1 189 1.6994026736938395e-05</internalNodes>
          <leafValues>
            -3.1395241618156433e-01 2.5015139579772949e-01</leafValues></_>
        <_>
          <internalNodes>
            0 -1 574 -6.8040952086448669e-02</internalNodes>
          <leafValues>
            5.2511185407638550e-01 -1.3358195126056671e-01</leafValues></_>
        <_>
          <internalNodes>
            0 -1 342 -3.3497866243124008e-02</internalNodes>
          <leafValues>
            3.2851892709732056e-01 -2.2494275867938995e-01</leafValues></_>
        <_>
          <internalNodes>
            0 -1 485 1.7691189423203468e-03</internalNodes>
          <leafValues>
            -1.7421776056289673e-01 3.4906390309333801e-01</leafValues></_>
        <_>
          <internalNodes>
            0 -1 599 1.4229007065296173e-03</internalNodes>
          <leafValues>
            -1.8056702613830566e-01 3.6185827851295471e-01</leafValues></_>
        <_>
          <internalNodes>
            0 -1 990 -1.8128721421817318e-05</internalNodes>
          <leafValues>
            1.7947654426097870e-01 -3.7036955356597900e-01</leafValues></_>
        <_>
          <internalNodes>
            0 -1 760 -2.0201508959871717e-05</internalNodes>
          <leafValues>
            2.0349329710006714e-01 -3.2542130351066589e-01</leafValues></_>
        <_>
          <internalNodes>
            0 -1 417 2.1444987505674362e-03</internalNodes>
          <leafValues>
            -3.0506145954132080e-01 2.6622122526168823e-01</leafValues></_>
        <_>
          <internalNodes>
            0 -1 122 5.6637175381183624e-02</internalNodes>
          <leafValues>
            7.8726366162300110e-02 -8.0065411329269409e-01</leafValues></_>
        <_>
          <internalNodes>
            0 -1 36 -6.8461953196674585e-04</internalNodes>
          <leafValues>
            -3.6669123172760010e-01 1.5150018036365509e-01</leafValues></_>
        <_>
          <internalNodes>
            0 -1 36 6.3638022402301431e-04</internalNodes>
          <leafValues>
            1.7425699532032013e-01 -3.8090246915817261e-01</leafValues></_>
        <_>
          <internalNodes>
            0 -1 339 -1.5064075589179993e-02</internalNodes>
          <leafValues>
            -6.8978172540664673e-01 7.9885900020599365e-02</leafValues></_>
        <_>
          <internalNodes>
            0 -1 407 -7.8787915408611298e-03</internalNodes>
          <leafValues>
            2.6366430521011353e-01 -2.2956618666648865e-01</leafValues></_>
        <_>
          <internalNodes>
            0 -1 889 -2.2623047698289156e-03</internalNodes>
          <leafValues>
            2.9723760485649109e-01 -2.2838382422924042e-01</leafValues></_>
        <_>
          <internalNodes>
            0 -1 792 -9.2215061187744141e-02</internalNodes>
          <leafValues>
            2.9375976324081421e-01 -2.2983150184154510e-01</leafValues></_>
        <_>
          <internalNodes>
            0 -1 135 -5.1587675698101521e-03</internalNodes>
          <leafValues>
            3.9187797904014587e-01 -1.6148243844509125e-01</leafValues></_>
        <_>
          <internalNodes>
            0 -1 745 -1.1655824258923531e-02</internalNodes>
          <leafValues>
            3.7291994690895081e-01 -1.8502022325992584e-01</leafValues></_>
        <_>
          <internalNodes>
            0 -1 959 2.0012725144624710e-02</internalNodes>
          <leafValues>
            -2.4534854292869568e-01 3.2627245783805847e-01</leafValues></_>
        <_>
          <internalNodes>
            0 -1 89 4.8412741161882877e-03</internalNodes>
          <leafValues>
            -1.5488347411155701e-01 3.8543432950973511e-01</leafValues></_>
        <_>
          <internalNodes>
            0 -1 161 -3.9777770638465881e-02</internalNodes>
          <leafValues>
            -7.2340345382690430e-01 6.9608837366104126e-02</leafValues></_>
        <_>
          <internalNodes>
            0 -1 1038 2.2548027336597443e-03</internalNodes>
          <leafValues>
            -1.8670642375946045e-01 3.4750184416770935e-01</leafValues></_>
        <_>
          <internalNodes>
            0 -1 558 -7.4500602204352617e-04</internalNodes>
          <leafValues>
            -6.1923694610595703e-01 1.0581579804420471e-01</leafValues></_>
        <_>
          <internalNodes>
            0 -1 957 -1.5975357964634895e-03</internalNodes>
          <leafValues>
            3.2479327917098999e-01 -1.8832013010978699e-01</leafValues></_>
        <_>
          <internalNodes>
            0 -1 225 -9.3203652650117874e-03</internalNodes>
          <leafValues>
            3.5145425796508789e-01 -1.4646445214748383e-01</leafValues></_>
        <_>
          <internalNodes>
            0 -1 305 -1.2614922598004341e-03</internalNodes>
          <leafValues>
            -5.9832972288131714e-01 9.3714900314807892e-02</leafValues></_>
        <_>
          <internalNodes>
            0 -1 302 4.2418852448463440e-02</internalNodes>
          <leafValues>
            5.4800707846879959e-02 -7.6539921760559082e-01</leafValues></_>
        <_>
          <internalNodes>
            0 -1 78 -4.1901702061295509e-03</internalNodes>
          <leafValues>
            4.9552026391029358e-01 -1.1530479043722153e-01</leafValues></_>
        <_>
          <internalNodes>
            0 -1 353 1.9272572826594114e-03</internalNodes>
          <leafValues>
            -1.5167912840843201e-01 3.2232269644737244e-01</leafValues></_>
        <_>
          <internalNodes>
            0 -1 250 1.2025015894323587e-03</internalNodes>
          <leafValues>
            -1.6161718964576721e-01 3.5729008913040161e-01</leafValues></_>
        <_>
          <internalNodes>
            0 -1 413 4.4042663648724556e-03</internalNodes>
          <leafValues>
            6.8191975355148315e-02 -7.2680562734603882e-01</leafValues></_>
        <_>
          <internalNodes>
            0 -1 837 2.9491721652448177e-03</internalNodes>
          <leafValues>
            6.0982849448919296e-02 -6.7378413677215576e-01</leafValues></_>
        <_>
          <internalNodes>
            0 -1 811 8.7125168647617102e-04</internalNodes>
          <leafValues>
            -2.4906560778617859e-01 2.1728385984897614e-01</leafValues></_>
        <_>
          <internalNodes>
            0 -1 845 2.3142272606492043e-02</internalNodes>
          <leafValues>
            1.0635794699192047e-01 -5.7001751661300659e-01</leafValues></_></weakClassifiers></_>
    <!-- stage 10 -->
    <_>
      <maxWeakCount>43</maxWeakCount>
      <stageThreshold>-1.4050368070602417e+00</stageThreshold>
      <weakClassifiers>
        <_>
          <internalNodes>
            0 -1 438 1.7715912690619007e-05</internalNodes>
          <leafValues>
            -7.9239301383495331e-02 4.9413219094276428e-01</leafValues></_>
        <_>
          <internalNodes>
            0 -1 759 -6.6493451595306396e-03</internalNodes>
          <leafValues>
            2.5840473175048828e-01 -3.0112707614898682e-01</leafValues></_>
        <_>
          <internalNodes>
            0 -1 685 -7.2376035153865814e-02</internalNodes>
          <leafValues>
            4.5664241909980774e-01 -1.4582280814647675e-01</leafValues></_>
        <_>
          <internalNodes>
            0 -1 344 -4.6664550900459290e-02</internalNodes>
          <leafValues>
            4.0125468373298645e-01 -2.0195239782333374e-01</leafValues></_>
        <_>
          <internalNodes>
            0 -1 927 -8.8323257863521576e-02</internalNodes>
          <leafValues>
            5.2022498846054077e-01 -7.8006476163864136e-02</leafValues></_>
        <_>
          <internalNodes>
            0 -1 866 1.9526459509506822e-03</internalNodes>
          <leafValues>
            -2.5211197137832642e-01 2.7411338686943054e-01</leafValues></_>
        <_>
          <internalNodes>
            0 -1 322 7.2595453821122646e-04</internalNodes>
          <leafValues>
            -1.8414530158042908e-01 3.1447845697402954e-01</leafValues></_>
        <_>
          <internalNodes>
            0 -1 948 -5.1180734299123287e-03</internalNodes>
          <leafValues>
            -5.3657603263854980e-01 1.2418734282255173e-01</leafValues></_>
        <_>
          <internalNodes>
            0 -1 315 4.4961660169064999e-03</internalNodes>
          <leafValues>
            9.7300782799720764e-02 -5.6672680377960205e-01</leafValues></_>
        <_>
          <internalNodes>
            0 -1 871 -3.3421292901039124e-03</internalNodes>
          <leafValues>
            3.8041168451309204e-01 -1.4940924942493439e-01</leafValues></_>
        <_>
          <internalNodes>
            0 -1 59 1.2550443643704057e-03</internalNodes>
          <leafValues>
            1.4125508069992065e-01 -4.0587624907493591e-01</leafValues></_>
        <_>
          <internalNodes>
            0 -1 37 -8.6989812552928925e-04</internalNodes>
          <leafValues>
            -4.0802583098411560e-01 1.7399628460407257e-01</leafValues></_>
        <_>
          <internalNodes>
            0 -1 880 -1.7553335055708885e-03</internalNodes>
          <leafValues>
            3.8760152459144592e-01 -1.3853332400321960e-01</leafValues></_>
        <_>
          <internalNodes>
            0 -1 885 4.8274528235197067e-03</internalNodes>
          <leafValues>
            -1.2432272732257843e-01 5.1035130023956299e-01</leafValues></_>
        <_>
          <internalNodes>
            0 -1 756 -1.2900708243250847e-02</internalNodes>
          <leafValues>
            -8.2719445228576660e-01 7.2158560156822205e-02</leafValues></_>
        <_>
          <internalNodes>
            0 -1 732 2.7083355933427811e-02</internalNodes>
          <leafValues>
            -1.0448565334081650e-01 5.9568744897842407e-01</leafValues></_>
        <_>
          <internalNodes>
            0 -1 524 -1.8907762132585049e-03</internalNodes>
          <leafValues>
            2.5561463832855225e-01 -2.3302224278450012e-01</leafValues></_>
        <_>
          <internalNodes>
            0 -1 946 -4.4698216021060944e-02</internalNodes>
          <leafValues>
            -6.4054107666015625e-01 9.6052661538124084e-02</leafValues></_>
        <_>
          <internalNodes>
            0 -1 362 -7.5226958142593503e-04</internalNodes>
          <leafValues>
            2.8085309267044067e-01 -2.0653292536735535e-01</leafValues></_>
        <_>
          <internalNodes>
            0 -1 1029 -2.2928565740585327e-02</internalNodes>
          <leafValues>
            6.1149501800537109e-01 -7.9813197255134583e-02</leafValues></_>
        <_>
          <internalNodes>
            0 -1 112 2.6324868667870760e-03</internalNodes>
          <leafValues>
            -1.4903549849987030e-01 3.3460468053817749e-01</leafValues></_>
        <_>
          <internalNodes>
            0 -1 767 1.6729468479752541e-03</internalNodes>
          <leafValues>
            7.4391663074493408e-02 -7.2684609889984131e-01</leafValues></_>
        <_>
          <internalNodes>
            0 -1 493 4.6511963009834290e-03</internalNodes>
          <leafValues>
            -1.2067789584398270e-01 4.2010650038719177e-01</leafValues></_>
        <_>
          <internalNodes>
            0 -1 610 -8.2947574555873871e-03</internalNodes>
          <leafValues>
            -6.6380459070205688e-01 8.4503926336765289e-02</leafValues></_>
        <_>
          <internalNodes>
            0 -1 450 3.4638374927453697e-05</internalNodes>
          <leafValues>
            -2.7455708384513855e-01 1.7993719875812531e-01</leafValues></_>
        <_>
          <internalNodes>
            0 -1 349 -2.6147261261940002e-02</internalNodes>
          <leafValues>
            -9.3563634157180786e-01 5.5119156837463379e-02</leafValues></_>
        <_>
          <internalNodes>
            0 -1 452 5.0724567845463753e-03</internalNodes>
          <leafValues>
            -1.6347211599349976e-01 3.2196763157844543e-01</leafValues></_>
        <_>
          <internalNodes>
            0 -1 509 -6.3293692655861378e-03</internalNodes>
          <leafValues>
            3.4666451811790466e-01 -1.3778346776962280e-01</leafValues></_>
        <_>
          <internalNodes>
            0 -1 265 -2.3822912946343422e-02</internalNodes>
          <leafValues>
            -6.9389915466308594e-01 8.2198612391948700e-02</leafValues></_>
        <_>
          <internalNodes>
            0 -1 300 -2.6455267798155546e-03</internalNodes>
          <leafValues>
            2.6272141933441162e-01 -1.8646651506423950e-01</leafValues></_>
        <_>
          <internalNodes>
            0 -1 508 4.5499619096517563e-02</internalNodes>
          <leafValues>
            -1.1067843437194824e-01 4.0590587258338928e-01</leafValues></_>
        <_>
          <internalNodes>
            0 -1 1028 -8.2134141121059656e-04</internalNodes>
          <leafValues>
            -3.8177135586738586e-01 1.2641988694667816e-01</leafValues></_>
        <_>
          <internalNodes>
            0 -1 393 -9.6994126215577126e-04</internalNodes>
          <leafValues>
            2.6418730616569519e-01 -1.7943252623081207e-01</leafValues></_>
        <_>
          <internalNodes>
            0 -1 666 -8.2191359251737595e-03</internalNodes>
          <leafValues>
            -9.3346172571182251e-01 5.3382594138383865e-02</leafValues></_>
        <_>
          <internalNodes>
            0 -1 898 5.9060003608465195e-02</internalNodes>
          <leafValues>
            -1.3552083075046539e-01 3.6161276698112488e-01</leafValues></_>
        <_>
          <internalNodes>
            0 -1 1050 -5.8862950652837753e-02</internalNodes>
          <leafValues>
            5.2706325054168701e-01 -9.4239197671413422e-02</leafValues></_>
        <_>
          <internalNodes>
            0 -1 731 2.5688558816909790e-02</internalNodes>
          <leafValues>
            7.5253270566463470e-02 -7.0630735158920288e-01</leafValues></_>
        <_>
          <internalNodes>
            0 -1 408 -1.9596386700868607e-02</internalNodes>
          <leafValues>
            4.3509900569915771e-01 -1.2696486711502075e-01</leafValues></_>
        <_>
          <internalNodes>
            0 -1 552 1.7484713680460118e-05</internalNodes>
          <leafValues>
            -3.7648212909698486e-01 1.3304162025451660e-01</leafValues></_>
        <_>
          <internalNodes>
            0 -1 0 -2.0363563089631498e-04</internalNodes>
          <leafValues>
            -3.1889030337333679e-01 1.4609982073307037e-01</leafValues></_>
        <_>
          <internalNodes>
            0 -1 107 -4.3928488157689571e-03</internalNodes>
          <leafValues>
            4.5285049080848694e-01 -9.7433805465698242e-02</leafValues></_>
        <_>
          <internalNodes>
            0 -1 831 -7.1382261812686920e-03</internalNodes>
          <leafValues>
            -7.8785830736160278e-01 6.1718862503767014e-02</leafValues></_>
        <_>
          <internalNodes>
            0 -1 960 -1.6893279971554875e-03</internalNodes>
          <leafValues>
            3.8661143183708191e-01 -1.2325207144021988e-01</leafValues></_></weakClassifiers></_>
    <!-- stage 11 -->
    <_>
      <maxWeakCount>41</maxWeakCount>
      <stageThreshold>-1.3357466459274292e+00</stageThreshold>
      <weakClassifiers>
        <_>
          <internalNodes>
            0 -1 1020 -1.5864190645515919e-03</internalNodes>
          <leafValues>
            5.6051570177078247e-01 2.2876676172018051e-02</leafValues></_>
        <_>
          <internalNodes>
            0 -1 570 -2.5675401557236910e-03</internalNodes>
          <leafValues>
            2.5061246752738953e-01 -3.1022965908050537e-01</leafValues></_>
        <_>
          <internalNodes>
            0 -1 579 4.0372940711677074e-03</internalNodes>
          <leafValues>
            -2.8199145197868347e-01 2.1677939593791962e-01</leafValues></_>
        <_>
          <internalNodes>
            0 -1 357 -5.7522365823388100e-03</internalNodes>
          <leafValues>
            -5.8400177955627441e-01 9.7746141254901886e-02</leafValues></_>
        <_>
          <internalNodes>
            0 -1 418 1.5122803233680315e-05</internalNodes>
          <leafValues>
            -3.0932164192199707e-01 1.7408257722854614e-01</leafValues></_>
        <_>
          <internalNodes>
            0 -1 181 6.7482724785804749e-02</internalNodes>
          <leafValues>
            7.2779752314090729e-02 -6.8447375297546387e-01</leafValues></_>
        <_>
          <internalNodes>
            0 -1 600 -8.1744380295276642e-03</internalNodes>
          <leafValues>
            4.4786649942398071e-01 -1.2487012147903442e-01</leafValues></_>
        <_>
          <internalNodes>
            0 -1 704 -4.6015325933694839e-03</internalNodes>
          <leafValues>
            3.3382534980773926e-01 -2.0965446531772614e-01</leafValues></_>
        <_>
          <internalNodes>
            0 -1 98 1.2253774330019951e-03</internalNodes>
          <leafValues>
            1.2584438920021057e-01 -3.9779201149940491e-01</leafValues></_>
        <_>
          <internalNodes>
            0 -1 141 -3.4062447957694530e-04</internalNodes>
          <leafValues>
            -4.3082103133201599e-01 1.2614187598228455e-01</leafValues></_>
        <_>
          <internalNodes>
            0 -1 489 3.1205900013446808e-02</internalNodes>
          <leafValues>
            5.5477902293205261e-02 -8.5330700874328613e-01</leafValues></_>
        <_>
          <internalNodes>
            0 -1 781 2.3416853509843349e-03</internalNodes>
          <leafValues>
            -1.6835720837116241e-01 3.0769985914230347e-01</leafValues></_>
        <_>
          <internalNodes>
            0 -1 701 2.7452604845166206e-03</internalNodes>
          <leafValues>
            -1.7034690082073212e-01 3.3557415008544922e-01</leafValues></_>
        <_>
          <internalNodes>
            0 -1 558 1.9312086515128613e-03</internalNodes>
          <leafValues>
            8.1581026315689087e-02 -6.5063339471817017e-01</leafValues></_>
        <_>
          <internalNodes>
            0 -1 501 -1.9962168298661709e-03</internalNodes>
          <leafValues>
            3.2282444834709167e-01 -1.7573077976703644e-01</leafValues></_>
        <_>
          <internalNodes>
            0 -1 496 9.7175389528274536e-03</internalNodes>
          <leafValues>
            1.0295037925243378e-01 -5.9516686201095581e-01</leafValues></_>
        <_>
          <internalNodes>
            0 -1 237 3.1528454273939133e-02</internalNodes>
          <leafValues>
            8.2256235182285309e-02 -5.4045844078063965e-01</leafValues></_>
        <_>
          <internalNodes>
            0 -1 381 -2.2895336151123047e-03</internalNodes>
          <leafValues>
            4.2018356919288635e-01 -1.3448926806449890e-01</leafValues></_>
        <_>
          <internalNodes>
            0 -1 566 3.5438861232250929e-04</internalNodes>
          <leafValues>
            -4.1340291500091553e-01 1.4501467347145081e-01</leafValues></_>
        <_>
          <internalNodes>
            0 -1 382 -1.4613922685384750e-03</internalNodes>
          <leafValues>
            4.0462377667427063e-01 -1.4480812847614288e-01</leafValues></_>
        <_>
          <internalNodes>
            0 -1 677 3.8104718551039696e-03</internalNodes>
          <leafValues>
            8.4146931767463684e-02 -5.8917564153671265e-01</leafValues></_>
        <_>
          <internalNodes>
            0 -1 365 -5.7665398344397545e-03</internalNodes>
          <leafValues>
            4.3216389417648315e-01 -1.2488192319869995e-01</leafValues></_>
        <_>
          <internalNodes>
            0 -1 789 -1.9308939576148987e-02</internalNodes>
          <leafValues>
            -6.0242980718612671e-01 8.1591248512268066e-02</leafValues></_>
        <_>
          <internalNodes>
            0 -1 904 1.8840285483747721e-03</internalNodes>
          <leafValues>
            -1.7579637467861176e-01 2.7518153190612793e-01</leafValues></_>
        <_>
          <internalNodes>
            0 -1 432 4.3771183118224144e-03</internalNodes>
          <leafValues>
            6.9887161254882813e-02 -7.8172242641448975e-01</leafValues></_>
        <_>
          <internalNodes>
            0 -1 739 -3.4668199717998505e-02</internalNodes>
          <leafValues>
            3.2003733515739441e-01 -1.5109293162822723e-01</leafValues></_>
        <_>
          <internalNodes>
            0 -1 83 3.3966541290283203e-02</internalNodes>
          <leafValues>
            -1.7243760824203491e-01 3.5969188809394836e-01</leafValues></_>
        <_>
          <internalNodes>
            0 -1 88 -1.1825828813016415e-02</internalNodes>
          <leafValues>
            3.5615473985671997e-01 -1.6911987960338593e-01</leafValues></_>
        <_>
          <internalNodes>
            0 -1 710 -3.4611174487508833e-04</internalNodes>
          <leafValues>
            2.0174697041511536e-01 -2.5793009996414185e-01</leafValues></_>
        <_>
          <internalNodes>
            0 -1 928 -1.3493764400482178e-01</internalNodes>
          <leafValues>
            4.9635481834411621e-01 -1.1089139431715012e-01</leafValues></_>
        <_>
          <internalNodes>
            0 -1 852 1.7560597509145737e-02</internalNodes>
          <leafValues>
            1.4111316204071045e-01 -4.1746142506599426e-01</leafValues></_>
        <_>
          <internalNodes>
            0 -1 762 1.9235584186390042e-03</internalNodes>
          <leafValues>
            7.0309370756149292e-02 -5.8260363340377808e-01</leafValues></_>
        <_>
          <internalNodes>
            0 -1 974 2.3265550844371319e-03</internalNodes>
          <leafValues>
            -1.6721495985984802e-01 2.8130003809928894e-01</leafValues></_>
        <_>
          <internalNodes>
            0 -1 968 3.1716697849333286e-03</internalNodes>
          <leafValues>
            -1.3383994996547699e-01 3.6339113116264343e-01</leafValues></_>
        <_>
          <internalNodes>
            0 -1 77 5.0562590360641479e-02</internalNodes>
          <leafValues>
            6.6365145146846771e-02 -7.4299454689025879e-01</leafValues></_>
        <_>
          <internalNodes>
            0 -1 640 2.9491249006241560e-03</internalNodes>
          <leafValues>
            -2.3148863017559052e-01 2.3909595608711243e-01</leafValues></_>
        <_>
          <internalNodes>
            0 -1 647 -6.4218102488666773e-04</internalNodes>
          <leafValues>
            2.7847817540168762e-01 -1.9292792677879333e-01</leafValues></_>
        <_>
          <internalNodes>
            0 -1 20 3.0754392966628075e-02</internalNodes>
          <leafValues>
            -1.3519597053527832e-01 3.5749933123588562e-01</leafValues></_>
        <_>
          <internalNodes>
            0 -1 25 -3.6817308515310287e-02</internalNodes>
          <leafValues>
            4.9980825185775757e-01 -1.1783034354448318e-01</leafValues></_>
        <_>
          <internalNodes>
            0 -1 363 2.4480856955051422e-03</internalNodes>
          <leafValues>
            -1.2401714920997620e-01 3.3244356513023376e-01</leafValues></_>
        <_>
          <internalNodes>
            0 -1 920 -3.0113016255199909e-03</internalNodes>
          <leafValues>
            -4.3084055185317993e-01 1.0683449357748032e-01</leafValues></_></weakClassifiers></_>
    <!-- stage 12 -->
    <_>
      <maxWeakCount>48</maxWeakCount>
      <stageThreshold>-1.3378894329071045e+00</stageThreshold>
      <weakClassifiers>
        <_>
          <internalNodes>
            0 -1 119 7.8117866069078445e-03</internalNodes>
          <leafValues>
            3.3668342977762222e-02 5.7091635465621948e-01</leafValues></_>
        <_>
          <internalNodes>
            0 -1 309 1.6678432002663612e-03</internalNodes>
          <leafValues>
            -4.5411589741706848e-01 1.7446254193782806e-01</leafValues></_>
        <_>
          <internalNodes>
            0 -1 717 4.0265982970595360e-03</internalNodes>
          <leafValues>
            8.7660074234008789e-02 -6.4027953147888184e-01</leafValues></_>
        <_>
          <internalNodes>
            0 -1 919 9.5605209935456514e-04</internalNodes>
          <leafValues>
            1.3138428330421448e-01 -3.8830369710922241e-01</leafValues></_>
        <_>
          <internalNodes>
            0 -1 1043 8.7016867473721504e-03</internalNodes>
          <leafValues>
            -2.1021494269371033e-01 2.3571421205997467e-01</leafValues></_>
        <_>
          <internalNodes>
            0 -1 528 6.8659419193863869e-03</internalNodes>
          <leafValues>
            6.5151438117027283e-02 -7.4306786060333252e-01</leafValues></_>
        <_>
          <internalNodes>
            0 -1 897 -3.8730630185455084e-03</internalNodes>
          <leafValues>
            2.7305439114570618e-01 -1.7520134150981903e-01</leafValues></_>
        <_>
          <internalNodes>
            0 -1 195 -4.9414718523621559e-04</internalNodes>
          <leafValues>
            2.2805817425251007e-01 -2.6125866174697876e-01</leafValues></_>
        <_>
          <internalNodes>
            0 -1 919 -5.1685358630493283e-04</internalNodes>
          <leafValues>
            -3.4518098831176758e-01 1.5210734307765961e-01</leafValues></_>
        <_>
          <internalNodes>
            0 -1 246 -7.6450235210359097e-03</internalNodes>
          <leafValues>
            -4.7813171148300171e-01 8.4210224449634552e-02</leafValues></_>
        <_>
          <internalNodes>
            0 -1 262 6.0813575983047485e-03</internalNodes>
          <leafValues>
            1.3621091842651367e-01 -3.5410520434379578e-01</leafValues></_>
        <_>
          <internalNodes>
            0 -1 298 4.4240932911634445e-03</internalNodes>
          <leafValues>
            6.3109278678894043e-02 -6.8456387519836426e-01</leafValues></_>
        <_>
          <internalNodes>
            0 -1 875 -6.0076820664107800e-03</internalNodes>
          <leafValues>
            2.6138579845428467e-01 -1.7252147197723389e-01</leafValues></_>
        <_>
          <internalNodes>
            0 -1 588 -2.1837158128619194e-02</internalNodes>
          <leafValues>
            -6.0524749755859375e-01 7.9341888427734375e-02</leafValues></_>
        <_>
          <internalNodes>
            0 -1 580 1.3751408085227013e-02</internalNodes>
          <leafValues>
            -1.6044355928897858e-01 3.1267067790031433e-01</leafValues></_>
        <_>
          <internalNodes>
            0 -1 933 3.5583809018135071e-02</internalNodes>
          <leafValues>
            -2.2705717384815216e-01 2.3968566954135895e-01</leafValues></_>
        <_>
          <internalNodes>
            0 -1 217 4.6741045662201941e-04</internalNodes>
          <leafValues>
            -2.0160402357578278e-01 2.4556195735931396e-01</leafValues></_>
        <_>
          <internalNodes>
            0 -1 87 2.5281673297286034e-03</internalNodes>
          <leafValues>
            -2.0477190613746643e-01 2.8425583243370056e-01</leafValues></_>
        <_>
          <internalNodes>
            0 -1 926 -8.1996232271194458e-02</internalNodes>
          <leafValues>
            3.8543638586997986e-01 -1.1522695422172546e-01</leafValues></_>
        <_>
          <internalNodes>
            0 -1 536 9.2404019087553024e-03</internalNodes>
          <leafValues>
            -1.3080516457557678e-01 3.3392971754074097e-01</leafValues></_>
        <_>
          <internalNodes>
            0 -1 358 1.0915318271145225e-03</internalNodes>
          <leafValues>
            2.3644700646400452e-01 -2.4469479918479919e-01</leafValues></_>
        <_>
          <internalNodes>
            0 -1 503 1.9968047126894817e-05</internalNodes>
          <leafValues>
            -3.4437862038612366e-01 2.0270343124866486e-01</leafValues></_>
        <_>
          <internalNodes>
            0 -1 728 3.3390320837497711e-02</internalNodes>
          <leafValues>
            6.7540831863880157e-02 -5.5567491054534912e-01</leafValues></_>
        <_>
          <internalNodes>
            0 -1 555 6.4044434111565351e-04</internalNodes>
          <leafValues>
            -3.4298419952392578e-01 1.1307217180728912e-01</leafValues></_>
        <_>
          <internalNodes>
            0 -1 318 8.0230999737977982e-03</internalNodes>
          <leafValues>
            9.6378155052661896e-02 -4.6076095104217529e-01</leafValues></_>
        <_>
          <internalNodes>
            0 -1 890 1.7517080530524254e-02</internalNodes>
          <leafValues>
            -1.1862943321466446e-01 3.9751261472702026e-01</leafValues></_>
        <_>
          <internalNodes>
            0 -1 661 -1.7590386560186744e-03</internalNodes>
          <leafValues>
            3.0067810416221619e-01 -1.3898247480392456e-01</leafValues></_>
        <_>
          <internalNodes>
            0 -1 827 -8.1708119250833988e-04</internalNodes>
          <leafValues>
            1.7039164900779724e-01 -2.7215418219566345e-01</leafValues></_>
        <_>
          <internalNodes>
            0 -1 51 -1.8454834818840027e-02</internalNodes>
          <leafValues>
            3.4096693992614746e-01 -1.2898442149162292e-01</leafValues></_>
        <_>
          <internalNodes>
            0 -1 138 5.7911273324862123e-04</internalNodes>
          <leafValues>
            -1.8885114789009094e-01 2.5474205613136292e-01</leafValues></_>
        <_>
          <internalNodes>
            0 -1 412 4.2672287672758102e-03</internalNodes>
          <leafValues>
            7.1093924343585968e-02 -6.1998945474624634e-01</leafValues></_>
        <_>
          <internalNodes>
            0 -1 805 1.1552249081432819e-02</internalNodes>
          <leafValues>
            -1.4244632422924042e-01 3.1108179688453674e-01</leafValues></_>
        <_>
          <internalNodes>
            0 -1 880 -7.9460727283731103e-04</internalNodes>
          <leafValues>
            2.8635829687118530e-01 -1.6537249088287354e-01</leafValues></_>
        <_>
          <internalNodes>
            0 -1 420 5.7922387495636940e-03</internalNodes>
          <leafValues>
            5.8882124722003937e-02 -8.3942848443984985e-01</leafValues></_>
        <_>
          <internalNodes>
            0 -1 351 -9.5026850700378418e-02</internalNodes>
          <leafValues>
            -8.2732963562011719e-01 3.5487782210111618e-02</leafValues></_>
        <_>
          <internalNodes>
            0 -1 395 2.0615706220269203e-02</internalNodes>
          <leafValues>
            -1.0855405777692795e-01 4.7052302956581116e-01</leafValues></_>
        <_>
          <internalNodes>
            0 -1 294 -8.4714882541447878e-04</internalNodes>
          <leafValues>
            1.6479142010211945e-01 -2.5741544365882874e-01</leafValues></_>
        <_>
          <internalNodes>
            0 -1 1002 1.1593749746680260e-02</internalNodes>
          <leafValues>
            1.2053722143173218e-01 -3.6197727918624878e-01</leafValues></_>
        <_>
          <internalNodes>
            0 -1 84 -4.0543294744566083e-04</internalNodes>
          <leafValues>
            -3.6627390980720520e-01 1.1188036203384399e-01</leafValues></_>
        <_>
          <internalNodes>
            0 -1 116 -4.0074549615383148e-03</internalNodes>
          <leafValues>
            3.6426642537117004e-01 -1.1065442860126495e-01</leafValues></_>
        <_>
          <internalNodes>
            0 -1 151 -5.4093874059617519e-03</internalNodes>
          <leafValues>
            4.9563127756118774e-01 -7.9133197665214539e-02</leafValues></_>
        <_>
          <internalNodes>
            0 -1 743 9.4192381948232651e-03</internalNodes>
          <leafValues>
            6.3113309442996979e-02 -7.4486058950424194e-01</leafValues></_>
        <_>
          <internalNodes>
            0 -1 486 2.1006753668189049e-03</internalNodes>
          <leafValues>
            -1.4679428935050964e-01 2.8189459443092346e-01</leafValues></_>
        <_>
          <internalNodes>
            0 -1 363 1.4789560809731483e-03</internalNodes>
          <leafValues>
            -1.9184631109237671e-01 2.9183846712112427e-01</leafValues></_>
        <_>
          <internalNodes>
            0 -1 97 -1.1811674572527409e-02</internalNodes>
          <leafValues>
            3.1397613883018494e-01 -1.2897506356239319e-01</leafValues></_>
        <_>
          <internalNodes>
            0 -1 441 3.8250000216066837e-03</internalNodes>
          <leafValues>
            5.4436802864074707e-02 -8.0357921123504639e-01</leafValues></_>
        <_>
          <internalNodes>
            0 -1 41 -3.5430624848231673e-04</internalNodes>
          <leafValues>
            -3.5315778851509094e-01 1.0754324495792389e-01</leafValues></_>
        <_>
          <internalNodes>
            0 -1 10 1.6079982742667198e-03</internalNodes>
          <leafValues>
            1.2295921891927719e-01 -3.9167574048042297e-01</leafValues></_></weakClassifiers></_>
    <!-- stage 13 -->
    <_>
      <maxWeakCount>51</maxWeakCount>
      <stageThreshold>-1.3112527132034302e+00</stageThreshold>
      <weakClassifiers>
        <_>
          <internalNodes>
            0 -1 662 1.5409733168780804e-03</internalNodes>
          <leafValues>
            4.2835190892219543e-01 -2.8967255353927612e-01</leafValues></_>
        <_>
          <internalNodes>
            0 -1 725 -4.9012489616870880e-03</internalNodes>
          <leafValues>
            2.7070346474647522e-01 -2.2259666025638580e-01</leafValues></_>
        <_>
          <internalNodes>
            0 -1 240 1.4524112641811371e-01</internalNodes>
          <leafValues>
            -2.2841671109199524e-01 2.6765283942222595e-01</leafValues></_>
        <_>
          <internalNodes>
            0 -1 942 -3.5328294616192579e-03</internalNodes>
          <leafValues>
            4.8941180109977722e-01 -1.1347162723541260e-01</leafValues></_>
        <_>
          <internalNodes>
            0 -1 939 3.5880370996892452e-03</internalNodes>
          <leafValues>
            -2.2986266016960144e-01 2.8855416178703308e-01</leafValues></_>
        <_>
          <internalNodes>
            0 -1 315 2.5968530098907650e-04</internalNodes>
          <leafValues>
            -3.0553272366523743e-01 1.5846441686153412e-01</leafValues></_>
        <_>
          <internalNodes>
            0 -1 1009 2.3264554329216480e-03</internalNodes>
          <leafValues>
            -1.7367711663246155e-01 3.5093429684638977e-01</leafValues></_>
        <_>
          <internalNodes>
            0 -1 605 -1.5224220231175423e-02</internalNodes>
          <leafValues>
            -5.4437941312789917e-01 1.0806319117546082e-01</leafValues></_>
        <_>
          <internalNodes>
            0 -1 572 -2.0661313086748123e-02</internalNodes>
          <leafValues>
            4.0569233894348145e-01 -1.2308254837989807e-01</leafValues></_>
        <_>
          <internalNodes>
            0 -1 1059 -3.7414877442643046e-04</internalNodes>
          <leafValues>
            -3.8622283935546875e-01 1.3001343607902527e-01</leafValues></_>
        <_>
          <internalNodes>
            0 -1 1059 2.5021471083164215e-04</internalNodes>
          <leafValues>
            1.1863248050212860e-01 -3.7482100725173950e-01</leafValues></_>
        <_>
          <internalNodes>
            0 -1 611 -1.3271786738187075e-03</internalNodes>
          <leafValues>
            2.1818301081657410e-01 -2.1145485341548920e-01</leafValues></_>
        <_>
          <internalNodes>
            0 -1 395 1.5960058197379112e-02</internalNodes>
          <leafValues>
            -9.7373120486736298e-02 3.7049412727355957e-01</leafValues></_>
        <_>
          <internalNodes>
            0 -1 906 -9.5685751875862479e-04</internalNodes>
          <leafValues>
            2.0650355517864227e-01 -3.1876420974731445e-01</leafValues></_>
        <_>
          <internalNodes>
            0 -1 789 -2.2027678787708282e-02</internalNodes>
          <leafValues>
            -7.0205086469650269e-01 7.6952733099460602e-02</leafValues></_>
        <_>
          <internalNodes>
            0 -1 855 5.4723098874092102e-03</internalNodes>
          <leafValues>
            -1.4630249142646790e-01 2.7225148677825928e-01</leafValues></_>
        <_>
          <internalNodes>
            0 -1 860 -6.5640220418572426e-03</internalNodes>
          <leafValues>
            3.1709191203117371e-01 -1.3447897136211395e-01</leafValues></_>
        <_>
          <internalNodes>
            0 -1 398 -5.5015869438648224e-03</internalNodes>
          <leafValues>
            -6.7270243167877197e-01 6.8064928054809570e-02</leafValues></_>
        <_>
          <internalNodes>
            0 -1 643 -7.3835137300193310e-03</internalNodes>
          <leafValues>
            -7.3928546905517578e-01 4.6644520014524460e-02</leafValues></_>
        <_>
          <internalNodes>
            0 -1 133 -1.5130282379686832e-02</internalNodes>
          <leafValues>
            3.1198975443840027e-01 -1.4849103987216949e-01</leafValues></_>
        <_>
          <internalNodes>
            0 -1 810 4.9615159630775452e-02</internalNodes>
          <leafValues>
            -1.1446915566921234e-01 4.8426511883735657e-01</leafValues></_>
        <_>
          <internalNodes>
            0 -1 856 1.5080822631716728e-02</internalNodes>
          <leafValues>
            -2.2137340903282166e-01 1.9537906348705292e-01</leafValues></_>
        <_>
          <internalNodes>
            0 -1 1039 2.8491554781794548e-02</internalNodes>
          <leafValues>
            8.2846723496913910e-02 -6.1358904838562012e-01</leafValues></_>
        <_>
          <internalNodes>
            0 -1 457 1.6434731151093729e-05</internalNodes>
          <leafValues>
            -2.3744827508926392e-01 1.6384601593017578e-01</leafValues></_>
        <_>
          <internalNodes>
            0 -1 1014 2.1621722262352705e-03</internalNodes>
          <leafValues>
            -1.0881098359823227e-01 3.6693528294563293e-01</leafValues></_>
        <_>
          <internalNodes>
            0 -1 970 3.0219247564673424e-03</internalNodes>
          <leafValues>
            -1.5594975650310516e-01 2.6229408383369446e-01</leafValues></_>
        <_>
          <internalNodes>
            0 -1 467 8.1244558095932007e-02</internalNodes>
          <leafValues>
            -1.1272068321704865e-01 3.5680636763572693e-01</leafValues></_>
        <_>
          <internalNodes>
            0 -1 589 -1.2442890554666519e-02</internalNodes>
          <leafValues>
            2.3851461708545685e-01 -1.8812729418277740e-01</leafValues></_>
        <_>
          <internalNodes>
            0 -1 849 2.3531474173069000e-02</internalNodes>
          <leafValues>
            7.2248846292495728e-02 -6.1134344339370728e-01</leafValues></_>
        <_>
          <internalNodes>
            0 -1 973 2.2241058759391308e-03</internalNodes>
          <leafValues>
            -1.4717738330364227e-01 2.7689948678016663e-01</leafValues></_>
        <_>
          <internalNodes>
            0 -1 592 3.2267998903989792e-03</internalNodes>
          <leafValues>
            -1.4939960837364197e-01 2.6650950312614441e-01</leafValues></_>
        <_>
          <internalNodes>
            0 -1 501 1.7507388256490231e-03</internalNodes>
          <leafValues>
            -1.2433251738548279e-01 3.2056787610054016e-01</leafValues></_>
        <_>
          <internalNodes>
            0 -1 275 6.1034513637423515e-03</internalNodes>
          <leafValues>
            5.8854658156633377e-02 -8.0732440948486328e-01</leafValues></_>
        <_>
          <internalNodes>
            0 -1 118 3.0728508718311787e-03</internalNodes>
          <leafValues>
            -1.2191621959209442e-01 3.6888220906257629e-01</leafValues></_>
        <_>
          <internalNodes>
            0 -1 703 -8.6386427283287048e-03</internalNodes>
          <leafValues>
            -6.2714153528213501e-01 7.0808969438076019e-02</leafValues></_>
        <_>
          <internalNodes>
            0 -1 130 1.8044034019112587e-02</internalNodes>
          <leafValues>
            5.1685303449630737e-02 -7.0411360263824463e-01</leafValues></_>
        <_>
          <internalNodes>
            0 -1 292 2.6657790876924992e-03</internalNodes>
          <leafValues>
            -2.4126289784908295e-01 1.6281989216804504e-01</leafValues></_>
        <_>
          <internalNodes>
            0 -1 630 1.0754701681435108e-02</internalNodes>
          <leafValues>
            -1.3852883875370026e-01 3.7701585888862610e-01</leafValues></_>
        <_>
          <internalNodes>
            0 -1 987 1.7950804249267094e-05</internalNodes>
          <leafValues>
            -3.0584126710891724e-01 1.4492207765579224e-01</leafValues></_>
        <_>
          <internalNodes>
            0 -1 1008 -3.9395913481712341e-03</internalNodes>
          <leafValues>
            4.7273665666580200e-01 -9.7441643476486206e-02</leafValues></_>
        <_>
          <internalNodes>
            0 -1 772 -8.0849847290664911e-04</internalNodes>
          <leafValues>
            -2.9186770319938660e-01 1.5124711394309998e-01</leafValues></_>
        <_>
          <internalNodes>
            0 -1 500 4.4451840221881866e-02</internalNodes>
          <leafValues>
            5.8157496154308319e-02 -6.4910250902175903e-01</leafValues></_>
        <_>
          <internalNodes>
            0 -1 1065 -1.0908779688179493e-02</internalNodes>
          <leafValues>
            2.9789322614669800e-01 -1.4016884565353394e-01</leafValues></_>
        <_>
          <internalNodes>
            0 -1 819 4.1700229048728943e-02</internalNodes>
          <leafValues>
            6.4511284232139587e-02 -7.1464431285858154e-01</leafValues></_>
        <_>
          <internalNodes>
            0 -1 772 8.7460223585367203e-04</internalNodes>
          <leafValues>
            1.1601298302412033e-01 -3.2132855057716370e-01</leafValues></_>
        <_>
          <internalNodes>
            0 -1 244 1.3506055111065507e-03</internalNodes>
          <leafValues>
            -1.5816855430603027e-01 2.5460600852966309e-01</leafValues></_>
        <_>
          <internalNodes>
            0 -1 267 -2.5607072748243809e-03</internalNodes>
          <leafValues>
            3.6109793186187744e-01 -1.1849927157163620e-01</leafValues></_>
        <_>
          <internalNodes>
            0 -1 1006 2.0694937556982040e-03</internalNodes>
          <leafValues>
            1.3625730574131012e-01 -3.1969001889228821e-01</leafValues></_>
        <_>
          <internalNodes>
            0 -1 543 -2.0877518691122532e-03</internalNodes>
          <leafValues>
            3.4265831112861633e-01 -1.1676730215549469e-01</leafValues></_>
        <_>
          <internalNodes>
            0 -1 426 -1.3165550772100687e-03</internalNodes>
          <leafValues>
            2.2985559701919556e-01 -2.4674551188945770e-01</leafValues></_>
        <_>
          <internalNodes>
            0 -1 21 2.8035793453454971e-02</internalNodes>
          <leafValues>
            -1.3549463450908661e-01 3.3410027623176575e-01</leafValues></_></weakClassifiers></_>
    <!-- stage 14 -->
    <_>
      <maxWeakCount>53</maxWeakCount>
      <stageThreshold>-1.2871714830398560e+00</stageThreshold>
      <weakClassifiers>
        <_>
          <internalNodes>
            0 -1 367 -2.0277680960134603e-05</internalNodes>
          <leafValues>
            5.0245499610900879e-01 -2.4221453815698624e-02</leafValues></_>
        <_>
          <internalNodes>
            0 -1 307 -2.6716836728155613e-03</internalNodes>
          <leafValues>
            -6.4451354742050171e-01 1.0935343801975250e-01</leafValues></_>
        <_>
          <internalNodes>
            0 -1 1050 7.7712938189506531e-02</internalNodes>
          <leafValues>
            -8.7462641298770905e-02 5.6238979101181030e-01</leafValues></_>
        <_>
          <internalNodes>
            0 -1 334 -3.4009829163551331e-02</internalNodes>
          <leafValues>
            2.8328898549079895e-01 -2.3604004085063934e-01</leafValues></_>
        <_>
          <internalNodes>
            0 -1 248 2.9558550566434860e-02</internalNodes>
          <leafValues>
            1.5289510786533356e-01 -5.2443909645080566e-01</leafValues></_>
        <_>
          <internalNodes>
            0 -1 491 8.6235511116683483e-04</internalNodes>
          <leafValues>
            -1.5511971712112427e-01 3.2965266704559326e-01</leafValues></_>
        <_>
          <internalNodes>
            0 -1 382 -1.3110220897942781e-03</internalNodes>
          <leafValues>
            3.3460944890975952e-01 -1.6471356153488159e-01</leafValues></_>
        <_>
          <internalNodes>
            0 -1 609 -2.8686847537755966e-02</internalNodes>
          <leafValues>
            -5.8052492141723633e-01 8.6365900933742523e-02</leafValues></_>
        <_>
          <internalNodes>
            0 -1 382 1.3852932024747133e-03</internalNodes>
          <leafValues>
            -1.4849197864532471e-01 3.9741370081901550e-01</leafValues></_>
        <_>
          <internalNodes>
            0 -1 993 3.8679107092320919e-04</internalNodes>
          <leafValues>
            1.4285102486610413e-01 -3.7443262338638306e-01</leafValues></_>
        <_>
          <internalNodes>
            0 -1 455 7.3654274456202984e-04</internalNodes>
          <leafValues>
            -3.9866343140602112e-01 1.1226998269557953e-01</leafValues></_>
        <_>
          <internalNodes>
            0 -1 409 1.8906481564044952e-02</internalNodes>
          <leafValues>
            -1.5613909065723419e-01 3.2472607493400574e-01</leafValues></_>
        <_>
          <internalNodes>
            0 -1 523 -7.7037541195750237e-03</internalNodes>
          <leafValues>
            2.9592049121856689e-01 -1.9378474354743958e-01</leafValues></_>
        <_>
          <internalNodes>
            0 -1 372 -1.2865344062447548e-02</internalNodes>
          <leafValues>
            -3.3011204004287720e-01 1.5715920925140381e-01</leafValues></_>
        <_>
          <internalNodes>
            0 -1 238 -1.1690791696310043e-02</internalNodes>
          <leafValues>
            -4.8351106047630310e-01 1.0789442807435989e-01</leafValues></_>
        <_>
          <internalNodes>
            0 -1 993 -3.7489741225726902e-04</internalNodes>
          <leafValues>
            -4.1627019643783569e-01 1.1580666154623032e-01</leafValues></_>
        <_>
          <internalNodes>
            0 -1 978 2.7599741588346660e-04</internalNodes>
          <leafValues>
            -2.2216078639030457e-01 2.2061324119567871e-01</leafValues></_>
        <_>
          <internalNodes>
            0 -1 276 9.6480716019868851e-03</internalNodes>
          <leafValues>
            1.1418422311544418e-01 -3.5775873064994812e-01</leafValues></_>
        <_>
          <internalNodes>
            0 -1 362 -1.0387287475168705e-03</internalNodes>
          <leafValues>
            2.8028953075408936e-01 -1.6569785773754120e-01</leafValues></_>
        <_>
          <internalNodes>
            0 -1 650 -1.0313389822840691e-02</internalNodes>
          <leafValues>
            -8.4575778245925903e-01 5.9324931353330612e-02</leafValues></_>
        <_>
          <internalNodes>
            0 -1 781 -6.3501778058707714e-03</internalNodes>
          <leafValues>
            4.2090451717376709e-01 -1.1061001569032669e-01</leafValues></_>
        <_>
          <internalNodes>
            0 -1 783 5.2940482273697853e-03</internalNodes>
          <leafValues>
            -1.2288609147071838e-01 3.3814913034439087e-01</leafValues></_>
        <_>
          <internalNodes>
            0 -1 854 2.1313140168786049e-03</internalNodes>
          <leafValues>
            -1.8684610724449158e-01 2.2995708882808685e-01</leafValues></_>
        <_>
          <internalNodes>
            0 -1 680 1.6471886774525046e-03</internalNodes>
          <leafValues>
            7.2186872363090515e-02 -6.5252143144607544e-01</leafValues></_>
        <_>
          <internalNodes>
            0 -1 568 1.2023791670799255e-02</internalNodes>
          <leafValues>
            5.1372926682233810e-02 -7.4719226360321045e-01</leafValues></_>
        <_>
          <internalNodes>
            0 -1 81 -4.3380879797041416e-03</internalNodes>
          <leafValues>
            4.9555575847625732e-01 -9.8626226186752319e-02</leafValues></_>
        <_>
          <internalNodes>
            0 -1 877 -8.1505142152309418e-03</internalNodes>
          <leafValues>
            3.1137076020240784e-01 -1.4355829358100891e-01</leafValues></_>
        <_>
          <internalNodes>
            0 -1 81 2.6995891239494085e-03</internalNodes>
          <leafValues>
            -1.1270231008529663e-01 4.1285273432731628e-01</leafValues></_>
        <_>
          <internalNodes>
            0 -1 236 3.3225692808628082e-02</internalNodes>
          <leafValues>
            7.3645271360874176e-02 -6.7588871717453003e-01</leafValues></_>
        <_>
          <internalNodes>
            0 -1 354 1.8232748843729496e-03</internalNodes>
          <leafValues>
            -1.9707019627094269e-01 2.7373316884040833e-01</leafValues></_>
        <_>
          <internalNodes>
            0 -1 216 5.0135720521211624e-03</internalNodes>
          <leafValues>
            -1.6267521679401398e-01 3.0392429232597351e-01</leafValues></_>
        <_>
          <internalNodes>
            0 -1 336 4.8946399241685867e-02</internalNodes>
          <leafValues>
            6.3566401600837708e-02 -7.2106391191482544e-01</leafValues></_>
        <_>
          <internalNodes>
            0 -1 147 2.5971821742132306e-04</internalNodes>
          <leafValues>
            1.2670840322971344e-01 -3.0084928870201111e-01</leafValues></_>
        <_>
          <internalNodes>
            0 -1 163 1.6563506796956062e-03</internalNodes>
          <leafValues>
            -1.3733702898025513e-01 3.1650793552398682e-01</leafValues></_>
        <_>
          <internalNodes>
            0 -1 115 4.1095979511737823e-02</internalNodes>
          <leafValues>
            5.7564672082662582e-02 -8.3320009708404541e-01</leafValues></_>
        <_>
          <internalNodes>
            0 -1 885 -3.3057867549359798e-03</internalNodes>
          <leafValues>
            3.1020841002464294e-01 -1.4847767353057861e-01</leafValues></_>
        <_>
          <internalNodes>
            0 -1 444 -3.1583611853420734e-03</internalNodes>
          <leafValues>
            -6.3897413015365601e-01 7.0473417639732361e-02</leafValues></_>
        <_>
          <internalNodes>
            0 -1 310 3.3475775271654129e-03</internalNodes>
          <leafValues>
            -1.7638866603374481e-01 2.4321720004081726e-01</leafValues></_>
        <_>
          <internalNodes>
            0 -1 641 1.6553036868572235e-02</internalNodes>
          <leafValues>
            -9.9327363073825836e-02 4.0217241644859314e-01</leafValues></_>
        <_>
          <internalNodes>
            0 -1 411 -1.6331530787283555e-05</internalNodes>
          <leafValues>
            2.1744364500045776e-01 -2.3321080207824707e-01</leafValues></_>
        <_>
          <internalNodes>
            0 -1 259 1.0314884595572948e-02</internalNodes>
          <leafValues>
            8.0326788127422333e-02 -5.4708373546600342e-01</leafValues></_>
        <_>
          <internalNodes>
            0 -1 560 4.3002120219171047e-04</internalNodes>
          <leafValues>
            1.3944169878959656e-01 -2.9299610853195190e-01</leafValues></_>
        <_>
          <internalNodes>
            0 -1 193 1.6897474779398181e-05</internalNodes>
          <leafValues>
            -2.6175445318222046e-01 1.5914407372474670e-01</leafValues></_>
        <_>
          <internalNodes>
            0 -1 164 -4.5040878467261791e-03</internalNodes>
          <leafValues>
            5.2462822198867798e-01 -8.1362411379814148e-02</leafValues></_>
        <_>
          <internalNodes>
            0 -1 193 3.2620797865092754e-03</internalNodes>
          <leafValues>
            9.4704382121562958e-02 -4.8812401294708252e-01</leafValues></_>
        <_>
          <internalNodes>
            0 -1 629 4.2028496973216534e-03</internalNodes>
          <leafValues>
            -1.1731991916894913e-01 3.9425906538963318e-01</leafValues></_>
        <_>
          <internalNodes>
            0 -1 1068 -6.2074779998511076e-04</internalNodes>
          <leafValues>
            -2.9742154479026794e-01 1.5630179643630981e-01</leafValues></_>
        <_>
          <internalNodes>
            0 -1 777 4.8787961713969707e-03</internalNodes>
          <leafValues>
            -1.2910360097885132e-01 3.1214216351509094e-01</leafValues></_>
        <_>
          <internalNodes>
            0 -1 693 4.3856082484126091e-03</internalNodes>
          <leafValues>
            -1.5785324573516846e-01 2.9861289262771606e-01</leafValues></_>
        <_>
          <internalNodes>
            0 -1 590 1.4257526490837336e-03</internalNodes>
          <leafValues>
            -2.0410664379596710e-01 2.4985329806804657e-01</leafValues></_>
        <_>
          <internalNodes>
            0 -1 31 5.2099578082561493e-02</internalNodes>
          <leafValues>
            -1.5481349825859070e-01 2.9305458068847656e-01</leafValues></_>
        <_>
          <internalNodes>
            0 -1 71 -2.9660241678357124e-02</internalNodes>
          <leafValues>
            4.8248264193534851e-01 -1.0800845175981522e-01</leafValues></_>
        <_>
          <internalNodes>
            0 -1 427 -7.0869093760848045e-03</internalNodes>
          <leafValues>
            2.9613655805587769e-01 -1.5473103523254395e-01</leafValues></_></weakClassifiers></_>
    <!-- stage 15 -->
    <_>
      <maxWeakCount>49</maxWeakCount>
      <stageThreshold>-1.3188986778259277e+00</stageThreshold>
      <weakClassifiers>
        <_>
          <internalNodes>
            0 -1 183 -9.8787518218159676e-03</internalNodes>
          <leafValues>
