<?xml version="1.0"?>
<opencv_storage>
<cascade>
  <stageType>BOOST</stageType>
  <featureType>HAAR</featureType>
  <height>20</height>
  <width>20</width>
  <stageParams>
    <boostType>GAB</boostType>
    <minHitRate>9.9900001287460327e-01</minHitRate>
    <maxFalseAlarm>5.0000000000000000e-01</maxFalseAlarm>
    <weightTrimRate>9.4999999999999996e-01</weightTrimRate>
    <maxDepth>1</maxDepth>
    <maxWeakCount>100</maxWeakCount></stageParams>
  <featureParams>
    <maxCatCount>0</maxCatCount>
    <featSize>1</featSize>
    <mode>ALL</mode></featureParams>
  <stageNum>26</stageNum>
  <stages>
    <!-- stage 0 -->
    <_>
      <maxWeakCount>6</maxWeakCount>
      <stageThreshold>-1.6206903457641602e+00</stageThreshold>
      <weakClassifiers>
        <_>
          <internalNodes>
            0 -1 723 9.6341092139482498e-03</internalNodes>
          <leafValues>
            -8.9722335338592529e-01 7.8412026166915894e-01</leafValues></_>
        <_>
          <internalNodes>
            0 -1 441 4.5548570342361927e-03</internalNodes>
          <leafValues>
            -6.3647443056106567e-01 5.5966061353683472e-01</leafValues></_>
        <_>
          <internalNodes>
            0 -1 669 7.6230242848396301e-03</internalNodes>
          <leafValues>
            -6.7185240983963013e-01 3.4126651287078857e-01</leafValues></_>
        <_>
          <internalNodes>
            0 -1 484 3.8194390945136547e-03</internalNodes>
          <leafValues>
            -3.9541956782341003e-01 5.8722072839736938e-01</leafValues></_>
        <_>
          <internalNodes>
            0 -1 446 4.0751644410192966e-03</internalNodes>
          <leafValues>
            -2.8319579362869263e-01 6.9491696357727051e-01</leafValues></_>
        <_>
          <internalNodes>
            0 -1 245 9.1778766363859177e-03</internalNodes>
          <leafValues>
            -6.4579576253890991e-01 2.8536242246627808e-01</leafValues></_></weakClassifiers></_>
    <!-- stage 1 -->
    <_>
      <maxWeakCount>13</maxWeakCount>
      <stageThreshold>-1.9079641103744507e+00</stageThreshold>
      <weakClassifiers>
        <_>
          <internalNodes>
            0 -1 468 1.1295372620224953e-02</internalNodes>
          <leafValues>
            -5.1832842826843262e-01 7.0376276969909668e-01</leafValues></_>
        <_>
          <internalNodes>
            0 -1 182 3.7647731602191925e-02</internalNodes>
          <leafValues>
            -3.9206206798553467e-01 5.5673849582672119e-01</leafValues></_>
        <_>
          <internalNodes>
            0 -1 347 3.5085421986877918e-03</internalNodes>
          <leafValues>
            -6.4927667379379272e-01 3.5474318265914917e-01</leafValues></_>
        <_>
          <internalNodes>
            0 -1 553 2.1613808348774910e-03</internalNodes>
          <leafValues>
            -4.0902012586593628e-01 4.0800774097442627e-01</leafValues></_>
        <_>
          <internalNodes>
            0 -1 407 3.8018661143723875e-05</internalNodes>
          <leafValues>
            -7.2769570350646973e-01 2.2682973742485046e-01</leafValues></_>
        <_>
          <internalNodes>
            0 -1 2 1.0768155753612518e-01</internalNodes>
          <leafValues>
            2.3365269601345062e-01 -6.3207083940505981e-01</leafValues></_>
        <_>
          <internalNodes>
            0 -1 676 7.8749761451035738e-04</internalNodes>
          <leafValues>
            -4.0090546011924744e-01 3.3067172765731812e-01</leafValues></_>
        <_>
          <internalNodes>
            0 -1 569 2.7091603726148605e-02</internalNodes>
          <leafValues>
            -3.3592733740806580e-01 4.1503280401229858e-01</leafValues></_>
        <_>
          <internalNodes>
            0 -1 237 1.8375003710389137e-03</internalNodes>
          <leafValues>
            -2.5280961394309998e-01 4.8208761215209961e-01</leafValues></_>
        <_>
          <internalNodes>
            0 -1 614 -3.3366959542036057e-05</internalNodes>
          <leafValues>
            2.8472462296485901e-01 -5.4596817493438721e-01</leafValues></_>
        <_>
          <internalNodes>
            0 -1 651 1.6463198699057102e-03</internalNodes>
          <leafValues>
            1.6008922457695007e-01 -6.7110782861709595e-01</leafValues></_>
        <_>
          <internalNodes>
            0 -1 228 7.4557174229994416e-04</internalNodes>
          <leafValues>
            2.2036756575107574e-01 -4.8339596390724182e-01</leafValues></_>
        <_>
          <internalNodes>
            0 -1 40 -3.5048127174377441e-02</internalNodes>
          <leafValues>
            3.1839874386787415e-01 -3.4590265154838562e-01</leafValues></_></weakClassifiers></_>
    <!-- stage 2 -->
    <_>
      <maxWeakCount>20</maxWeakCount>
      <stageThreshold>-1.6394300460815430e+00</stageThreshold>
      <weakClassifiers>
        <_>
          <internalNodes>
            0 -1 727 1.3100096955895424e-02</internalNodes>
          <leafValues>
            -4.2512750625610352e-01 5.7240974903106689e-01</leafValues></_>
        <_>
          <internalNodes>
            0 -1 614 -2.8058103634975851e-04</internalNodes>
          <leafValues>
            3.2064610719680786e-01 -6.2540382146835327e-01</leafValues></_>
        <_>
          <internalNodes>
            0 -1 326 1.4047601819038391e-01</internalNodes>
          <leafValues>
            -3.2155615091323853e-01 6.1639201641082764e-01</leafValues></_>
        <_>
          <internalNodes>
            0 -1 501 -4.1007842810358852e-05</internalNodes>
          <leafValues>
            2.1942889690399170e-01 -6.5373116731643677e-01</leafValues></_>
        <_>
          <internalNodes>
            0 -1 676 8.8463304564356804e-04</internalNodes>
          <leafValues>
            -3.9070326089859009e-01 3.3323103189468384e-01</leafValues></_>
        <_>
          <internalNodes>
            0 -1 64 -8.8575720787048340e-02</internalNodes>
          <leafValues>
            6.1599940061569214e-01 -2.5310626626014709e-01</leafValues></_>
        <_>
          <internalNodes>
            0 -1 424 1.2551194429397583e-01</internalNodes>
          <leafValues>
            -1.8754528462886810e-01 6.9680857658386230e-01</leafValues></_>
        <_>
          <internalNodes>
            0 -1 436 1.5981569886207581e-03</internalNodes>
          <leafValues>
            -4.1664436459541321e-01 2.8936523199081421e-01</leafValues></_>
        <_>
          <internalNodes>
            0 -1 921 9.9338812287896872e-04</internalNodes>
          <leafValues>
            1.7928275465965271e-01 -5.4356610774993896e-01</leafValues></_>
        <_>
          <internalNodes>
            0 -1 55 -1.4643960166722536e-03</internalNodes>
          <leafValues>
            3.6072266101837158e-01 -2.9347139596939087e-01</leafValues></_>
        <_>
          <internalNodes>
            0 -1 543 5.3107901476323605e-03</internalNodes>
          <leafValues>
            -2.6712056994438171e-01 4.2723724246025085e-01</leafValues></_>
        <_>
          <internalNodes>
            0 -1 494 -8.4609724581241608e-04</internalNodes>
          <leafValues>
            -8.4825843572616577e-01 1.1064296960830688e-01</leafValues></_>
        <_>
          <internalNodes>
            0 -1 479 1.6939908964559436e-03</internalNodes>
          <leafValues>
            -3.1230583786964417e-01 3.3622431755065918e-01</leafValues></_>
        <_>
          <internalNodes>
            0 -1 463 -2.8657817747443914e-03</internalNodes>
          <leafValues>
            3.3043658733367920e-01 -3.3545830845832825e-01</leafValues></_>
        <_>
          <internalNodes>
            0 -1 600 4.1734380647540092e-03</internalNodes>
          <leafValues>
            1.2541227042675018e-01 -8.5643929243087769e-01</leafValues></_>
        <_>
          <internalNodes>
            0 -1 276 -3.4420040901750326e-04</internalNodes>
          <leafValues>
            2.0884296298027039e-01 -3.8895046710968018e-01</leafValues></_>
        <_>
          <internalNodes>
            0 -1 804 -1.5094266273081303e-03</internalNodes>
          <leafValues>
            3.3798050880432129e-01 -2.9152977466583252e-01</leafValues></_>
        <_>
          <internalNodes>
            0 -1 385 -3.5816463641822338e-03</internalNodes>
          <leafValues>
            -7.7947372198104858e-01 1.3138112425804138e-01</leafValues></_>
        <_>
          <internalNodes>
            0 -1 793 -3.6811070458497852e-05</internalNodes>
          <leafValues>
            2.3279775679111481e-01 -3.7485876679420471e-01</leafValues></_>
        <_>
          <internalNodes>
            0 -1 731 -1.0801224038004875e-02</internalNodes>
          <leafValues>
            -7.5634503364562988e-01 1.4449906349182129e-01</leafValues></_></weakClassifiers></_>
    <!-- stage 3 -->
    <_>
      <maxWeakCount>20</maxWeakCount>
      <stageThreshold>-1.5866670608520508e+00</stageThreshold>
      <weakClassifiers>
        <_>
          <internalNodes>
            0 -1 307 2.0301673794165254e-04</internalNodes>
          <leafValues>
            -3.4405720233917236e-01 5.5752736330032349e-01</leafValues></_>
        <_>
          <internalNodes>
            0 -1 50 3.2768044620752335e-02</internalNodes>
          <leafValues>
            -2.7519571781158447e-01 4.9207252264022827e-01</leafValues></_>
        <_>
          <internalNodes>
            0 -1 603 1.6327865887433290e-04</internalNodes>
          <leafValues>
            -5.1430165767669678e-01 2.7471199631690979e-01</leafValues></_>
        <_>
          <internalNodes>
            0 -1 458 1.3336983509361744e-02</internalNodes>
          <leafValues>
            1.9180887937545776e-01 -6.0170876979827881e-01</leafValues></_>
        <_>
          <internalNodes>
            0 -1 654 1.0591822210699320e-03</internalNodes>
          <leafValues>
            1.9002623856067657e-01 -6.2371081113815308e-01</leafValues></_>
        <_>
          <internalNodes>
            0 -1 242 1.3622536789625883e-03</internalNodes>
          <leafValues>
            -2.3407070338726044e-01 4.8836615681648254e-01</leafValues></_>
        <_>
          <internalNodes>
            0 -1 525 7.9510587966069579e-05</internalNodes>
          <leafValues>
            -6.1081773042678833e-01 1.8491831421852112e-01</leafValues></_>
        <_>
          <internalNodes>
            0 -1 461 -4.9213594757020473e-03</internalNodes>
          <leafValues>
            2.9514396190643311e-01 -3.6113834381103516e-01</leafValues></_>
        <_>
          <internalNodes>
            0 -1 677 -4.8703886568546295e-04</internalNodes>
          <leafValues>
            4.1238868236541748e-01 -2.4833151698112488e-01</leafValues></_>
        <_>
          <internalNodes>
            0 -1 407 3.9658560126554221e-05</internalNodes>
          <leafValues>
            -6.7658996582031250e-01 1.3917580246925354e-01</leafValues></_>
        <_>
          <internalNodes>
            0 -1 327 1.7438339069485664e-02</internalNodes>
          <leafValues>
            -1.6990423202514648e-01 6.1524575948715210e-01</leafValues></_>
        <_>
          <internalNodes>
            0 -1 242 -7.0365518331527710e-04</internalNodes>
          <leafValues>
            5.0260365009307861e-01 -1.8363966047763824e-01</leafValues></_>
        <_>
          <internalNodes>
            0 -1 289 -2.6937990915030241e-03</internalNodes>
          <leafValues>
            -7.3485058546066284e-01 1.6516113281250000e-01</leafValues></_>
        <_>
          <internalNodes>
            0 -1 269 2.1785041317343712e-03</internalNodes>
          <leafValues>
            -2.3989157378673553e-01 4.0605086088180542e-01</leafValues></_>
        <_>
          <internalNodes>
            0 -1 720 4.6360269188880920e-03</internalNodes>
          <leafValues>
            1.7093577980995178e-01 -5.4892432689666748e-01</leafValues></_>
        <_>
          <internalNodes>
            0 -1 637 -4.6937968581914902e-02</internalNodes>
          <leafValues>
            3.3926215767860413e-01 -2.4886719882488251e-01</leafValues></_>
        <_>
          <internalNodes>
            0 -1 231 -1.0981017351150513e-01</internalNodes>
          <leafValues>
            7.4415683746337891e-01 -1.1859875917434692e-01</leafValues></_>
        <_>
          <internalNodes>
            0 -1 256 -7.5489602750167251e-04</internalNodes>
          <leafValues>
            -8.3916014432907104e-01 1.2699487805366516e-01</leafValues></_>
        <_>
          <internalNodes>
            0 -1 235 1.7721033655107021e-03</internalNodes>
          <leafValues>
            -2.0032382011413574e-01 4.5786291360855103e-01</leafValues></_>
        <_>
          <internalNodes>
            0 -1 744 9.0672256192192435e-04</internalNodes>
          <leafValues>
            -2.6419875025749207e-01 3.2325264811515808e-01</leafValues></_></weakClassifiers></_>
    <!-- stage 4 -->
    <_>
      <maxWeakCount>19</maxWeakCount>
      <stageThreshold>-1.5463690757751465e+00</stageThreshold>
      <weakClassifiers>
        <_>
          <internalNodes>
            0 -1 614 -1.5250019714585505e-05</internalNodes>
          <leafValues>
            5.5473554134368896e-01 -6.2923353910446167e-01</leafValues></_>
        <_>
          <internalNodes>
            0 -1 203 4.9704988487064838e-04</internalNodes>
          <leafValues>
            -4.5736515522003174e-01 3.0325812101364136e-01</leafValues></_>
        <_>
          <internalNodes>
            0 -1 431 -3.5463022068142891e-03</internalNodes>
          <leafValues>
            6.8552482128143311e-01 -1.6176724433898926e-01</leafValues></_>
        <_>
          <internalNodes>
            0 -1 622 4.1607294406276196e-05</internalNodes>
          <leafValues>
            -4.9293324351310730e-01 2.3626701533794403e-01</leafValues></_>
        <_>
          <internalNodes>
            0 -1 333 1.7793595325201750e-03</internalNodes>
          <leafValues>
            -3.2477924227714539e-01 4.7360277175903320e-01</leafValues></_>
        <_>
          <internalNodes>
            0 -1 397 -3.7783351726830006e-03</internalNodes>
          <leafValues>
            -7.6656985282897949e-01 2.2154936194419861e-01</leafValues></_>
        <_>
          <internalNodes>
            0 -1 830 2.6609099004417658e-03</internalNodes>
          <leafValues>
            -1.8723301589488983e-01 6.6598165035247803e-01</leafValues></_>
        <_>
          <internalNodes>
            0 -1 869 -1.1244241613894701e-03</internalNodes>
          <leafValues>
            5.7788336277008057e-01 -2.2136914730072021e-01</leafValues></_>
        <_>
          <internalNodes>
            0 -1 866 -4.1710343211889267e-03</internalNodes>
          <leafValues>
            6.1949747800827026e-01 -2.0931467413902283e-01</leafValues></_>
        <_>
          <internalNodes>
            0 -1 181 1.0085513815283775e-02</internalNodes>
          <leafValues>
            -6.1695164442062378e-01 1.8517011404037476e-01</leafValues></_>
        <_>
          <internalNodes>
            0 -1 712 2.0583887817338109e-04</internalNodes>
          <leafValues>
            -3.6125180125236511e-01 3.0378237366676331e-01</leafValues></_>
        <_>
          <internalNodes>
            0 -1 39 9.8297454416751862e-02</internalNodes>
          <leafValues>
            -1.9506920874118805e-01 5.4986375570297241e-01</leafValues></_>
        <_>
          <internalNodes>
            0 -1 542 1.2701780069619417e-03</internalNodes>
          <leafValues>
            -1.6321204602718353e-01 5.3808552026748657e-01</leafValues></_>
        <_>
          <internalNodes>
            0 -1 370 5.5941089522093534e-04</internalNodes>
          <leafValues>
            1.5302379429340363e-01 -7.6790410280227661e-01</leafValues></_>
        <_>
          <internalNodes>
            0 -1 663 3.5529579035937786e-03</internalNodes>
          <leafValues>
            -4.4373047351837158e-01 1.8986281752586365e-01</leafValues></_>
        <_>
          <internalNodes>
            0 -1 435 5.6874854490160942e-03</internalNodes>
          <leafValues>
            -2.5535634160041809e-01 3.9006260037422180e-01</leafValues></_>
        <_>
          <internalNodes>
            0 -1 541 9.6188066527247429e-04</internalNodes>
          <leafValues>
            -2.0210881531238556e-01 4.1615468263626099e-01</leafValues></_>
        <_>
          <internalNodes>
            0 -1 645 1.9096701871603727e-03</internalNodes>
          <leafValues>
            -1.8556645512580872e-01 5.4296576976776123e-01</leafValues></_>
        <_>
          <internalNodes>
            0 -1 385 -3.7275382055668160e-05</internalNodes>
          <leafValues>
            2.3953941464424133e-01 -4.5402336120605469e-01</leafValues></_></weakClassifiers></_>
    <!-- stage 5 -->
    <_>
      <maxWeakCount>25</maxWeakCount>
      <stageThreshold>-1.5665142536163330e+00</stageThreshold>
      <weakClassifiers>
        <_>
          <internalNodes>
            0 -1 402 1.7429450963390991e-05</internalNodes>
          <leafValues>
            -6.7000001668930054e-01 4.5875000953674316e-01</leafValues></_>
        <_>
          <internalNodes>
            0 -1 607 -1.4002721291035414e-03</internalNodes>
          <leafValues>
            -5.0662225484848022e-01 2.6754230260848999e-01</leafValues></_>
        <_>
          <internalNodes>
            0 -1 339 8.6495149880647659e-03</internalNodes>
          <leafValues>
            -5.4966133832931519e-01 1.8656985461711884e-01</leafValues></_>
        <_>
          <internalNodes>
            0 -1 281 -2.5406368076801300e-03</internalNodes>
          <leafValues>
            -5.1828086376190186e-01 1.8625067174434662e-01</leafValues></_>
        <_>
          <internalNodes>
            0 -1 646 2.5705359876155853e-03</internalNodes>
          <leafValues>
            -2.1764157712459564e-01 5.1075136661529541e-01</leafValues></_>
        <_>
          <internalNodes>
            0 -1 399 1.6606711142230779e-05</internalNodes>
          <leafValues>
            -7.0290613174438477e-01 1.4351423084735870e-01</leafValues></_>
        <_>
          <internalNodes>
            0 -1 834 2.7147158980369568e-03</internalNodes>
          <leafValues>
            -2.2745555639266968e-01 5.3931546211242676e-01</leafValues></_>
        <_>
          <internalNodes>
            0 -1 573 -1.9629152957350016e-03</internalNodes>
          <leafValues>
            -5.2200239896774292e-01 2.0809225738048553e-01</leafValues></_>
        <_>
          <internalNodes>
            0 -1 875 -1.7572059296071529e-03</internalNodes>
          <leafValues>
            5.8994024991989136e-01 -1.8405431509017944e-01</leafValues></_>
        <_>
          <internalNodes>
            0 -1 877 2.4126004427671432e-03</internalNodes>
          <leafValues>
            -1.1897420883178711e-01 6.0177391767501831e-01</leafValues></_>
        <_>
          <internalNodes>
            0 -1 114 1.9752467051148415e-03</internalNodes>
          <leafValues>
            -1.5731620788574219e-01 5.2569079399108887e-01</leafValues></_>
        <_>
          <internalNodes>
            0 -1 907 -6.9909570738673210e-03</internalNodes>
          <leafValues>
            6.2156432867050171e-01 -1.2931573390960693e-01</leafValues></_>
        <_>
          <internalNodes>
            0 -1 693 1.6152075841091573e-04</internalNodes>
          <leafValues>
            -6.6521573066711426e-01 1.3571456074714661e-01</leafValues></_>
        <_>
          <internalNodes>
            0 -1 701 6.1563844792544842e-03</internalNodes>
          <leafValues>
            2.0369724929332733e-01 -3.8474988937377930e-01</leafValues></_>
        <_>
          <internalNodes>
            0 -1 629 1.5935182454995811e-04</internalNodes>
          <leafValues>
            -3.9550933241844177e-01 2.5110888481140137e-01</leafValues></_>
        <_>
          <internalNodes>
            0 -1 214 -1.7052905634045601e-02</internalNodes>
          <leafValues>
            5.9401464462280273e-01 -1.3552153110504150e-01</leafValues></_>
        <_>
          <internalNodes>
            0 -1 175 1.3624858111143112e-03</internalNodes>
          <leafValues>
            -1.6325722634792328e-01 4.6396243572235107e-01</leafValues></_>
        <_>
          <internalNodes>
            0 -1 353 5.2139102481305599e-03</internalNodes>
          <leafValues>
            1.3028198480606079e-01 -7.0161741971969604e-01</leafValues></_>
        <_>
          <internalNodes>
            0 -1 175 -9.1682194033637643e-04</internalNodes>
          <leafValues>
            4.0979939699172974e-01 -2.0141239464282990e-01</leafValues></_>
        <_>
          <internalNodes>
            0 -1 383 -1.1863016989082098e-03</internalNodes>
          <leafValues>
            -5.5794924497604370e-01 1.6879896819591522e-01</leafValues></_>
        <_>
          <internalNodes>
            0 -1 806 -2.2389818332158029e-04</internalNodes>
          <leafValues>
            2.5452637672424316e-01 -3.1602209806442261e-01</leafValues></_>
        <_>
          <internalNodes>
            0 -1 621 -5.0100451335310936e-04</internalNodes>
          <leafValues>
            1.9980815052986145e-01 -4.3832165002822876e-01</leafValues></_>
        <_>
          <internalNodes>
            0 -1 130 1.0479957563802600e-03</internalNodes>
          <leafValues>
            -3.3991834521293640e-01 2.3254819214344025e-01</leafValues></_>
        <_>
          <internalNodes>
            0 -1 647 9.8093110136687756e-04</internalNodes>
          <leafValues>
            -1.6491542756557465e-01 4.6405860781669617e-01</leafValues></_>
        <_>
          <internalNodes>
            0 -1 708 1.5986226571840234e-05</internalNodes>
          <leafValues>
            -3.9342960715293884e-01 2.3292250931262970e-01</leafValues></_></weakClassifiers></_>
    <!-- stage 6 -->
    <_>
      <maxWeakCount>27</maxWeakCount>
      <stageThreshold>-1.4255595207214355e+00</stageThreshold>
      <weakClassifiers>
        <_>
          <internalNodes>
            0 -1 611 -2.6519634411670268e-04</internalNodes>
          <leafValues>
            -6.4266663789749146e-01 4.7276189923286438e-01</leafValues></_>
        <_>
          <internalNodes>
            0 -1 300 1.8866867321776226e-05</internalNodes>
          <leafValues>
            -6.4331072568893433e-01 1.9647651910781860e-01</leafValues></_>
        <_>
          <internalNodes>
            0 -1 486 -8.6797624826431274e-02</internalNodes>
          <leafValues>
            3.7121278047561646e-01 -2.6528111100196838e-01</leafValues></_>
        <_>
          <internalNodes>
            0 -1 642 -4.3178703635931015e-03</internalNodes>
          <leafValues>
            6.1077326536178589e-01 -1.5273700654506683e-01</leafValues></_>
        <_>
          <internalNodes>
            0 -1 386 1.7406598199158907e-03</internalNodes>
          <leafValues>
            1.2101301550865173e-01 -6.9900667667388916e-01</leafValues></_>
        <_>
          <internalNodes>
            0 -1 345 3.5558068193495274e-03</internalNodes>
          <leafValues>
            -4.5057958364486694e-01 1.8516157567501068e-01</leafValues></_>
        <_>
          <internalNodes>
            0 -1 244 5.4185721091926098e-04</internalNodes>
          <leafValues>
            -7.5894355773925781e-01 9.9581561982631683e-02</leafValues></_>
        <_>
          <internalNodes>
            0 -1 697 5.4973652586340904e-03</internalNodes>
          <leafValues>
            9.5483198761940002e-02 -6.8509435653686523e-01</leafValues></_>
        <_>
          <internalNodes>
            0 -1 503 -5.0032540457323194e-04</internalNodes>
          <leafValues>
            -3.0435130000114441e-01 2.3549693822860718e-01</leafValues></_>
        <_>
          <internalNodes>
            0 -1 768 1.9603286636993289e-04</internalNodes>
          <leafValues>
            2.3811654746532440e-01 -3.6166048049926758e-01</leafValues></_>
        <_>
          <internalNodes>
            0 -1 132 1.4846670674160123e-03</internalNodes>
          <leafValues>
            -2.7884352207183838e-01 2.6917731761932373e-01</leafValues></_>
        <_>
          <internalNodes>
            0 -1 530 2.0386447431519628e-04</internalNodes>
          <leafValues>
            -4.8021817207336426e-01 2.0085781812667847e-01</leafValues></_>
        <_>
          <internalNodes>
            0 -1 914 2.8044222854077816e-03</internalNodes>
          <leafValues>
            -1.0995326936244965e-01 6.7910337448120117e-01</leafValues></_>
        <_>
          <internalNodes>
            0 -1 914 -1.7186915501952171e-03</internalNodes>
          <leafValues>
            5.7632875442504883e-01 -1.3733898103237152e-01</leafValues></_>
        <_>
          <internalNodes>
            0 -1 197 -1.0567218065261841e-02</internalNodes>
          <leafValues>
            -6.6141623258590698e-01 1.2300474941730499e-01</leafValues></_>
        <_>
          <internalNodes>
            0 -1 30 -4.1488348506391048e-04</internalNodes>
          <leafValues>
            -3.5705444216728210e-01 1.9689072668552399e-01</leafValues></_>
        <_>
          <internalNodes>
            0 -1 157 9.1405177954584360e-04</internalNodes>
          <leafValues>
            1.5217171609401703e-01 -4.2834046483039856e-01</leafValues></_>
        <_>
          <internalNodes>
            0 -1 157 -7.8801991185173392e-04</internalNodes>
          <leafValues>
            -4.6358695626258850e-01 1.8197128176689148e-01</leafValues></_>
        <_>
          <internalNodes>
            0 -1 789 1.8068141071125865e-03</internalNodes>
          <leafValues>
            -1.6592918336391449e-01 4.3455681204795837e-01</leafValues></_>
        <_>
          <internalNodes>
            0 -1 491 -4.2868931777775288e-03</internalNodes>
          <leafValues>
            1.7425484955310822e-01 -4.3137103319168091e-01</leafValues></_>
        <_>
          <internalNodes>
            0 -1 376 7.2683878242969513e-03</internalNodes>
          <leafValues>
            7.8586556017398834e-02 -8.3873891830444336e-01</leafValues></_>
        <_>
          <internalNodes>
            0 -1 677 -5.2503787446767092e-04</internalNodes>
          <leafValues>
            3.1478741765022278e-01 -2.2713987529277802e-01</leafValues></_>
        <_>
          <internalNodes>
            0 -1 175 -1.5351591864600778e-03</internalNodes>
          <leafValues>
            4.5396798849105835e-01 -1.3960936665534973e-01</leafValues></_>
        <_>
          <internalNodes>
            0 -1 279 9.0983696281909943e-04</internalNodes>
          <leafValues>
            7.9468704760074615e-02 -8.8834178447723389e-01</leafValues></_>
        <_>
          <internalNodes>
            0 -1 175 1.8641809001564980e-03</internalNodes>
          <leafValues>
            -1.6612084209918976e-01 5.0657391548156738e-01</leafValues></_>
        <_>
          <internalNodes>
            0 -1 514 -4.0870322845876217e-04</internalNodes>
          <leafValues>
            -7.3697602748870850e-01 9.9658377468585968e-02</leafValues></_>
        <_>
          <internalNodes>
            0 -1 236 2.0336792804300785e-03</internalNodes>
          <leafValues>
            -1.9989958405494690e-01 4.1771346330642700e-01</leafValues></_></weakClassifiers></_>
    <!-- stage 7 -->
    <_>
      <maxWeakCount>26</maxWeakCount>
      <stageThreshold>-1.5117248296737671e+00</stageThreshold>
      <weakClassifiers>
        <_>
          <internalNodes>
            0 -1 414 2.2037222515791655e-04</internalNodes>
          <leafValues>
            -3.9182561635971069e-01 5.1905095577239990e-01</leafValues></_>
        <_>
          <internalNodes>
            0 -1 398 -1.8436929676681757e-03</internalNodes>
          <leafValues>
            -6.8559372425079346e-01 2.3699292540550232e-01</leafValues></_>
        <_>
          <internalNodes>
            0 -1 516 1.6541585791856050e-03</internalNodes>
          <leafValues>
            2.0069219172000885e-01 -5.6044685840606689e-01</leafValues></_>
        <_>
          <internalNodes>
            0 -1 15 2.5662609934806824e-01</internalNodes>
          <leafValues>
            -2.2065399587154388e-01 5.0406295061111450e-01</leafValues></_>
        <_>
          <internalNodes>
            0 -1 520 -1.3898264151066542e-03</internalNodes>
          <leafValues>
            -6.8357658386230469e-01 1.3547423481941223e-01</leafValues></_>
        <_>
          <internalNodes>
            0 -1 302 -2.1980761084705591e-04</internalNodes>
          <leafValues>
            -3.5130310058593750e-01 2.4084158241748810e-01</leafValues></_>
        <_>
          <internalNodes>
            0 -1 14 -3.6334559321403503e-02</internalNodes>
          <leafValues>
            5.0431245565414429e-01 -1.8254752457141876e-01</leafValues></_>
        <_>
          <internalNodes>
            0 -1 462 -1.0423282161355019e-02</internalNodes>
          <leafValues>
            -7.5372093915939331e-01 1.5631923079490662e-01</leafValues></_>
        <_>
          <internalNodes>
            0 -1 227 4.2904063593596220e-04</internalNodes>
          <leafValues>
            1.4750200510025024e-01 -4.6207049489021301e-01</leafValues></_>
        <_>
          <internalNodes>
            0 -1 227 -2.7658237377181649e-04</internalNodes>
          <leafValues>
            -4.8465093970298767e-01 1.4038093388080597e-01</leafValues></_>
        <_>
          <internalNodes>
            0 -1 443 6.2473921570926905e-04</internalNodes>
          <leafValues>
            -3.6381474137306213e-01 1.9486565887928009e-01</leafValues></_>
        <_>
          <internalNodes>
            0 -1 802 -8.2528119673952460e-04</internalNodes>
          <leafValues>
            3.1068471074104309e-01 -2.3487673699855804e-01</leafValues></_>
        <_>
          <internalNodes>
            0 -1 493 -1.8821167032001540e-05</internalNodes>
          <leafValues>
            1.9648583233356476e-01 -3.8824549317359924e-01</leafValues></_>
        <_>
          <internalNodes>
            0 -1 294 2.2318088449537754e-03</internalNodes>
          <leafValues>
            1.1272617429494858e-01 -6.9813430309295654e-01</leafValues></_>
        <_>
          <internalNodes>
            0 -1 662 5.0540156662464142e-03</internalNodes>
          <leafValues>
            -5.4978430271148682e-01 1.3131865859031677e-01</leafValues></_>
        <_>
          <internalNodes>
            0 -1 141 -6.7840435076504946e-04</internalNodes>
          <leafValues>
            -3.7081512808799744e-01 1.9164296984672546e-01</leafValues></_>
        <_>
          <internalNodes>
            0 -1 812 5.2794336806982756e-04</internalNodes>
          <leafValues>
            -2.4918836355209351e-01 2.9397404193878174e-01</leafValues></_>
        <_>
          <internalNodes>
            0 -1 63 1.6342172026634216e-01</internalNodes>
          <leafValues>
            -1.4542762935161591e-01 4.4371929764747620e-01</leafValues></_>
        <_>
          <internalNodes>
            0 -1 918 -2.6173577643930912e-03</internalNodes>
          <leafValues>
            5.9337794780731201e-01 -9.4913095235824585e-02</leafValues></_>
        <_>
          <internalNodes>
            0 -1 373 1.6796113923192024e-03</internalNodes>
          <leafValues>
            8.7939880788326263e-02 -7.9242956638336182e-01</leafValues></_>
        <_>
          <internalNodes>
            0 -1 365 -8.4273415268398821e-05</internalNodes>
          <leafValues>
            3.6159080266952515e-01 -1.7745557427406311e-01</leafValues></_>
        <_>
          <internalNodes>
            0 -1 246 -1.2959692627191544e-02</internalNodes>
          <leafValues>
            -8.5286498069763184e-01 8.7004132568836212e-02</leafValues></_>
        <_>
          <internalNodes>
            0 -1 153 -1.1694923043251038e-02</internalNodes>
          <leafValues>
            4.4053953886032104e-01 -1.4789623022079468e-01</leafValues></_>
        <_>
          <internalNodes>
            0 -1 62 8.9980056509375572e-04</internalNodes>
          <leafValues>
            1.5405607223510742e-01 -3.8582170009613037e-01</leafValues></_>
        <_>
          <internalNodes>
            0 -1 47 5.9437383897602558e-03</internalNodes>
          <leafValues>
            1.3258627057075500e-01 -4.6539428830146790e-01</leafValues></_>
        <_>
          <internalNodes>
            0 -1 878 -2.9118712991476059e-03</internalNodes>
          <leafValues>
            5.8281457424163818e-01 -1.0976018011569977e-01</leafValues></_></weakClassifiers></_>
    <!-- stage 8 -->
    <_>
      <maxWeakCount>34</maxWeakCount>
      <stageThreshold>-1.3518737554550171e+00</stageThreshold>
      <weakClassifiers>
        <_>
          <internalNodes>
            0 -1 510 -1.7989173065871000e-03</internalNodes>
          <leafValues>
            -3.9171123504638672e-01 4.7787845134735107e-01</leafValues></_>
        <_>
          <internalNodes>
            0 -1 546 2.3285797797143459e-03</internalNodes>
          <leafValues>
            -5.2985650300979614e-01 2.1220524609088898e-01</leafValues></_>
        <_>
          <internalNodes>
            0 -1 872 1.2471100315451622e-02</internalNodes>
          <leafValues>
            -1.7678143084049225e-01 4.5537853240966797e-01</leafValues></_>
        <_>
          <internalNodes>
            0 -1 622 1.8152504708268680e-05</internalNodes>
          <leafValues>
            -4.7518080472946167e-01 1.6440431773662567e-01</leafValues></_>
        <_>
          <internalNodes>
            0 -1 340 -6.0146616306155920e-04</internalNodes>
          <leafValues>
            3.9078325033187866e-01 -1.9797527790069580e-01</leafValues></_>
        <_>
          <internalNodes>
            0 -1 193 3.0527310445904732e-03</internalNodes>
          <leafValues>
            -6.2741780281066895e-01 9.7234517335891724e-02</leafValues></_>
        <_>
          <internalNodes>
            0 -1 656 2.6709572412073612e-03</internalNodes>
          <leafValues>
            -1.2644574046134949e-01 5.9364384412765503e-01</leafValues></_>
        <_>
          <internalNodes>
            0 -1 48 2.6498155784793198e-04</internalNodes>
          <leafValues>
            1.6499622166156769e-01 -4.1737243533134460e-01</leafValues></_>
        <_>
          <internalNodes>
            0 -1 48 -2.1627944079227746e-04</internalNodes>
          <leafValues>
            -4.2214637994766235e-01 1.9700384140014648e-01</leafValues></_>
        <_>
          <internalNodes>
            0 -1 648 5.7719135656952858e-03</internalNodes>
          <leafValues>
            -2.2648636996746063e-01 3.2003673911094666e-01</leafValues></_>
        <_>
          <internalNodes>
            0 -1 702 5.2392680663615465e-04</internalNodes>
          <leafValues>
            2.6228728890419006e-01 -2.3149064183235168e-01</leafValues></_>
        <_>
          <internalNodes>
            0 -1 37 1.0778614878654480e-01</internalNodes>
          <leafValues>
            -1.1913223564624786e-01 5.9119176864624023e-01</leafValues></_>
        <_>
          <internalNodes>
            0 -1 525 1.8827748135663569e-05</internalNodes>
          <leafValues>
            -5.9377729892730713e-01 1.4200021326541901e-01</leafValues></_>
        <_>
          <internalNodes>
            0 -1 12 -1.2392494827508926e-01</internalNodes>
          <leafValues>
            5.5449563264846802e-01 -1.2857629358768463e-01</leafValues></_>
        <_>
          <internalNodes>
            0 -1 599 1.8025897588813677e-05</internalNodes>
          <leafValues>
            -2.5217255949974060e-01 2.7915117144584656e-01</leafValues></_>
        <_>
          <internalNodes>
            0 -1 400 -2.9227954801172018e-03</internalNodes>
          <leafValues>
            -7.8918069601058960e-01 8.4650687873363495e-02</leafValues></_>
        <_>
          <internalNodes>
            0 -1 830 2.1951280068606138e-03</internalNodes>
          <leafValues>
            -1.7902871966362000e-01 4.3413603305816650e-01</leafValues></_>
        <_>
          <internalNodes>
            0 -1 216 -4.4194830115884542e-04</internalNodes>
          <leafValues>
            -4.3244794011116028e-01 1.8191656470298767e-01</leafValues></_>
        <_>
          <internalNodes>
            0 -1 868 3.7057665176689625e-03</internalNodes>
          <leafValues>
            -1.2450505793094635e-01 5.6938064098358154e-01</leafValues></_>
        <_>
          <internalNodes>
            0 -1 795 2.6936533395200968e-03</internalNodes>
          <leafValues>
            -2.2027052938938141e-01 2.8193119168281555e-01</leafValues></_>
        <_>
          <internalNodes>
            0 -1 115 2.2648428566753864e-03</internalNodes>
          <leafValues>
            -1.7940133810043335e-01 3.4768724441528320e-01</leafValues></_>
        <_>
          <internalNodes>
            0 -1 71 -2.6658761780709028e-03</internalNodes>
          <leafValues>
            1.7545087635517120e-01 -3.6029070615768433e-01</leafValues></_>
        <_>
          <internalNodes>
            0 -1 838 -1.4934651553630829e-02</internalNodes>
          <leafValues>
            -7.5267618894577026e-01 8.5962682962417603e-02</leafValues></_>
        <_>
          <internalNodes>
            0 -1 545 -4.2957402765750885e-03</internalNodes>
          <leafValues>
            -8.2608920335769653e-01 4.8684950917959213e-02</leafValues></_>
        <_>
          <internalNodes>
            0 -1 331 2.2611557506024837e-03</internalNodes>
          <leafValues>
            -1.5337638556957245e-01 4.1697150468826294e-01</leafValues></_>
        <_>
          <internalNodes>
            0 -1 331 -2.5059815961867571e-03</internalNodes>
          <leafValues>
            4.6784096956253052e-01 -1.4126691222190857e-01</leafValues></_>
        <_>
          <internalNodes>
            0 -1 259 -5.3065191023051739e-03</internalNodes>
          <leafValues>
            -6.6519361734390259e-01 8.7541952729225159e-02</leafValues></_>
        <_>
          <internalNodes>
            0 -1 459 -1.0268578771501780e-03</internalNodes>
          <leafValues>
            3.6505469679832458e-01 -1.5774428844451904e-01</leafValues></_>
        <_>
          <internalNodes>
            0 -1 207 1.7696886061457917e-05</internalNodes>
          <leafValues>
            -3.9329046010971069e-01 1.7192453145980835e-01</leafValues></_>
        <_>
          <internalNodes>
            0 -1 380 3.1284140422940254e-03</internalNodes>
          <leafValues>
            9.2245511710643768e-02 -6.1031472682952881e-01</leafValues></_>
        <_>
          <internalNodes>
            0 -1 725 1.6963272355496883e-03</internalNodes>
          <leafValues>
            -1.3092692196369171e-01 5.1780569553375244e-01</leafValues></_>
        <_>
          <internalNodes>
            0 -1 714 4.6273600310087204e-03</internalNodes>
          <leafValues>
            -1.9110673666000366e-01 2.9637408256530762e-01</leafValues></_>
        <_>
          <internalNodes>
            0 -1 287 -3.7621543742716312e-04</internalNodes>
          <leafValues>
            -5.9433597326278687e-01 1.0841223597526550e-01</leafValues></_>
        <_>
          <internalNodes>
            0 -1 647 1.8542972393333912e-03</internalNodes>
          <leafValues>
            -1.2712939083576202e-01 5.0830692052841187e-01</leafValues></_></weakClassifiers></_>
    <!-- stage 9 -->
    <_>
      <maxWeakCount>38</maxWeakCount>
      <stageThreshold>-1.3501456975936890e+00</stageThreshold>
      <weakClassifiers>
        <_>
          <internalNodes>
            0 -1 416 2.3811799474060535e-04</internalNodes>
          <leafValues>
            -1.8827030062675476e-01 5.1797801256179810e-01</leafValues></_>
        <_>
          <internalNodes>
            0 -1 473 6.2773823738098145e-03</internalNodes>
          <leafValues>
            -3.7212255597114563e-01 2.5494989752769470e-01</leafValues></_>
        <_>
          <internalNodes>
            0 -1 422 -1.0075160861015320e-01</internalNodes>
          <leafValues>
            4.1590210795402527e-01 -1.7976596951484680e-01</leafValues></_>
        <_>
          <internalNodes>
            0 -1 840 -1.6891499981284142e-03</internalNodes>
          <leafValues>
            3.1066209077835083e-01 -2.2883671522140503e-01</leafValues></_>
        <_>
          <internalNodes>
            0 -1 456 9.9408943206071854e-03</internalNodes>
          <leafValues>
            1.0454439371824265e-01 -5.5887323617935181e-01</leafValues></_>
        <_>
          <internalNodes>
            0 -1 337 4.6325214207172394e-03</internalNodes>
          <leafValues>
            -4.3360933661460876e-01 1.3889272511005402e-01</leafValues></_>
        <_>
          <internalNodes>
            0 -1 18 4.7117754817008972e-01</internalNodes>
          <leafValues>
            8.0653481185436249e-02 -7.8089022636413574e-01</leafValues></_>
        <_>
          <internalNodes>
            0 -1 377 -1.5633071598131210e-05</internalNodes>
          <leafValues>
            1.6015157103538513e-01 -3.6347210407257080e-01</leafValues></_>
        <_>
          <internalNodes>
            0 -1 805 1.2788551393896341e-03</internalNodes>
          <leafValues>
            -2.4649840593338013e-01 2.5590270757675171e-01</leafValues></_>
        <_>
          <internalNodes>
            0 -1 293 1.4604206662625074e-03</internalNodes>
          <leafValues>
            1.2976971268653870e-01 -6.4194184541702271e-01</leafValues></_>
        <_>
          <internalNodes>
            0 -1 467 9.2637874186038971e-03</internalNodes>
          <leafValues>
            -3.7298312783241272e-01 1.5832407772541046e-01</leafValues></_>
        <_>
          <internalNodes>
            0 -1 865 3.5605626180768013e-03</internalNodes>
          <leafValues>
            -1.0053421556949615e-01 5.8089363574981689e-01</leafValues></_>
        <_>
          <internalNodes>
            0 -1 865 -3.8090308662503958e-03</internalNodes>
          <leafValues>
            5.7986545562744141e-01 -1.2017328292131424e-01</leafValues></_>
        <_>
          <internalNodes>
            0 -1 816 -3.9985543116927147e-04</internalNodes>
          <leafValues>
            -3.9066249132156372e-01 1.6052585840225220e-01</leafValues></_>
        <_>
          <internalNodes>
            0 -1 816 2.5864795316010714e-04</internalNodes>
          <leafValues>
            1.9360499083995819e-01 -3.8527768850326538e-01</leafValues></_>
        <_>
          <internalNodes>
            0 -1 647 -2.7855955995619297e-03</internalNodes>
          <leafValues>
            5.0335639715194702e-01 -1.3354335725307465e-01</leafValues></_>
        <_>
          <internalNodes>
            0 -1 107 7.1880370378494263e-03</internalNodes>
          <leafValues>
            -1.9366358220577240e-01 2.9881405830383301e-01</leafValues></_>
        <_>
          <internalNodes>
            0 -1 719 4.2018078267574310e-02</internalNodes>
          <leafValues>
            -1.3553425669670105e-01 4.4356054067611694e-01</leafValues></_>
        <_>
          <internalNodes>
            0 -1 733 6.3906885683536530e-02</internalNodes>
          <leafValues>
            9.5198944211006165e-02 -7.0980203151702881e-01</leafValues></_>
        <_>
          <internalNodes>
            0 -1 221 4.5594982802867889e-03</internalNodes>
          <leafValues>
            -1.2444190680980682e-01 4.8651215434074402e-01</leafValues></_>
        <_>
          <internalNodes>
            0 -1 633 1.3508128467947245e-03</internalNodes>
          <leafValues>
            -2.2771334648132324e-01 2.6638561487197876e-01</leafValues></_>
        <_>
          <internalNodes>
            0 -1 320 1.6984011381282471e-05</internalNodes>
          <leafValues>
            -3.9106228947639465e-01 1.7315173149108887e-01</leafValues></_>
        <_>
          <internalNodes>
            0 -1 242 -6.7748717265203595e-04</internalNodes>
          <leafValues>
            3.7842395901679993e-01 -1.5264809131622314e-01</leafValues></_>
        <_>
          <internalNodes>
            0 -1 304 1.8812880152836442e-03</internalNodes>
          <leafValues>
            1.0182286798954010e-01 -6.4508539438247681e-01</leafValues></_>
        <_>
          <internalNodes>
            0 -1 778 2.5568664073944092e-01</internalNodes>
          <leafValues>
            5.9938382357358932e-02 -7.6679503917694092e-01</leafValues></_>
        <_>
          <internalNodes>
            0 -1 242 2.3727619554847479e-03</internalNodes>
          <leafValues>
            -1.3650882244110107e-01 4.0925362706184387e-01</leafValues></_>
        <_>
          <internalNodes>
            0 -1 384 -5.6582980323582888e-04</internalNodes>
          <leafValues>
            -3.6043083667755127e-01 1.6322115063667297e-01</leafValues></_>
        <_>
          <internalNodes>
            0 -1 479 1.6938585322350264e-03</internalNodes>
          <leafValues>
            -2.5179105997085571e-01 2.1815381944179535e-01</leafValues></_>
        <_>
          <internalNodes>
            0 -1 92 1.5781489014625549e-01</internalNodes>
          <leafValues>
            -1.4863386750221252e-01 3.9331898093223572e-01</leafValues></_>
        <_>
          <internalNodes>
            0 -1 142 -1.3710825005546212e-03</internalNodes>
          <leafValues>
            -2.9483845829963684e-01 1.7842034995555878e-01</leafValues></_>
        <_>
          <internalNodes>
            0 -1 86 -7.0684524253010750e-03</internalNodes>
          <leafValues>
            3.6850652098655701e-01 -1.4471633732318878e-01</leafValues></_>
        <_>
          <internalNodes>
            0 -1 645 -4.4349627569317818e-03</internalNodes>
          <leafValues>
            6.0148221254348755e-01 -7.7991113066673279e-02</leafValues></_>
        <_>
          <internalNodes>
            0 -1 256 3.5878940252587199e-04</internalNodes>
          <leafValues>
            -6.5868866443634033e-01 9.1358430683612823e-02</leafValues></_>
        <_>
          <internalNodes>
            0 -1 740 -1.0869769379496574e-02</internalNodes>
          <leafValues>
            -6.6526716947555542e-01 7.1254387497901917e-02</leafValues></_>
        <_>
          <internalNodes>
            0 -1 292 1.8010758140007965e-05</internalNodes>
          <leafValues>
            -2.4651102721691132e-01 2.0995937287807465e-01</leafValues></_>
        <_>
          <internalNodes>
            0 -1 222 -5.6017488241195679e-03</internalNodes>
          <leafValues>
            6.0762798786163330e-01 -9.3156084418296814e-02</leafValues></_>
        <_>
          <internalNodes>
            0 -1 396 1.4979505976953078e-05</internalNodes>
          <leafValues>
            -2.5656384229660034e-01 2.2363471984863281e-01</leafValues></_>
        <_>
          <internalNodes>
            0 -1 620 2.2576877381652594e-03</internalNodes>
          <leafValues>
            -2.6605960726737976e-01 2.0474573969841003e-01</leafValues></_></weakClassifiers></_>
    <!-- stage 10 -->
    <_>
      <maxWeakCount>40</maxWeakCount>
      <stageThreshold>-1.3670477867126465e+00</stageThreshold>
      <weakClassifiers>
        <_>
          <internalNodes>
            0 -1 411 3.7660280941054225e-04</internalNodes>
          <leafValues>
            -4.0233463048934937e-01 4.5586520433425903e-01</leafValues></_>
        <_>
          <internalNodes>
            0 -1 883 1.1758139356970787e-02</internalNodes>
          <leafValues>
            -1.0087287425994873e-01 6.2435281276702881e-01</leafValues></_>
        <_>
          <internalNodes>
            0 -1 542 1.1536768870428205e-03</internalNodes>
          <leafValues>
            -1.3384392857551575e-01 3.9746230840682983e-01</leafValues></_>
        <_>
          <internalNodes>
            0 -1 538 -4.2994003742933273e-03</internalNodes>
          <leafValues>
            4.4129818677902222e-01 -1.6772074997425079e-01</leafValues></_>
        <_>
          <internalNodes>
            0 -1 487 -1.5068438369780779e-04</internalNodes>
          <leafValues>
            2.9233714938163757e-01 -2.1210841834545135e-01</leafValues></_>
        <_>
          <internalNodes>
            0 -1 833 3.9913775399327278e-03</internalNodes>
          <leafValues>
            -5.9032648801803589e-01 1.3063414394855499e-01</leafValues></_>
        <_>
          <internalNodes>
            0 -1 290 -2.4140193127095699e-03</internalNodes>
          <leafValues>
            -5.3274649381637573e-01 1.1528087407350540e-01</leafValues></_>
        <_>
          <internalNodes>
            0 -1 845 -1.4133218210190535e-03</internalNodes>
          <leafValues>
            2.6724773645401001e-01 -2.3441019654273987e-01</leafValues></_>
        <_>
          <internalNodes>
            0 -1 315 -1.8568011000752449e-02</internalNodes>
          <leafValues>
            5.6143671274185181e-01 -1.2661847472190857e-01</leafValues></_>
        <_>
          <internalNodes>
            0 -1 530 2.4764263071119785e-04</internalNodes>
          <leafValues>
            -4.2883014678955078e-01 1.6863630712032318e-01</leafValues></_>
        <_>
          <internalNodes>
            0 -1 593 -1.5938589058350772e-05</internalNodes>
          <leafValues>
            1.5549270808696747e-01 -3.4066480398178101e-01</leafValues></_>
        <_>
          <internalNodes>
            0 -1 46 2.2649054881185293e-04</internalNodes>
          <leafValues>
            1.3614529371261597e-01 -3.5967925190925598e-01</leafValues></_>
        <_>
          <internalNodes>
            0 -1 46 -1.6796530690044165e-04</internalNodes>
          <leafValues>
            -3.6308288574218750e-01 1.3559454679489136e-01</leafValues></_>
        <_>
          <internalNodes>
            0 -1 874 2.6893038302659988e-03</internalNodes>
          <leafValues>
            -1.2398238480091095e-01 4.2008063197135925e-01</leafValues></_>
        <_>
          <internalNodes>
            0 -1 874 -3.2730773091316223e-03</internalNodes>
          <leafValues>
            4.9376770853996277e-01 -1.2671765685081482e-01</leafValues></_>
        <_>
          <internalNodes>
            0 -1 450 1.2114828452467918e-02</internalNodes>
          <leafValues>
            7.5714737176895142e-02 -7.1468025445938110e-01</leafValues></_>
        <_>
          <internalNodes>
            0 -1 180 4.2510372586548328e-03</internalNodes>
          <leafValues>
            -3.7056326866149902e-01 1.3159953057765961e-01</leafValues></_>
        <_>
          <internalNodes>
            0 -1 175 -8.6426548659801483e-04</internalNodes>
          <leafValues>
            3.2980087399482727e-01 -1.7074175179004669e-01</leafValues></_>
        <_>
          <internalNodes>
            0 -1 387 1.7513533748569898e-05</internalNodes>
          <leafValues>
            -4.9687799811363220e-01 1.1892434954643250e-01</leafValues></_>
        <_>
          <internalNodes>
            0 -1 742 2.1612462587654591e-03</internalNodes>
          <leafValues>
            -1.4140315353870392e-01 4.5045411586761475e-01</leafValues></_>
        <_>
          <internalNodes>
            0 -1 371 7.2820775676518679e-04</internalNodes>
          <leafValues>
            8.8042505085468292e-02 -7.3760402202606201e-01</leafValues></_>
        <_>
          <internalNodes>
            0 -1 238 -2.9301261529326439e-03</internalNodes>
          <leafValues>
            4.2631557583808899e-01 -1.2835736572742462e-01</leafValues></_>
        <_>
          <internalNodes>
            0 -1 138 2.1205356344580650e-02</internalNodes>
          <leafValues>
            6.8592689931392670e-02 -7.7722400426864624e-01</leafValues></_>
        <_>
          <internalNodes>
            0 -1 61 -1.1276350356638432e-02</internalNodes>
          <leafValues>
            3.6094453930854797e-01 -1.3644011318683624e-01</leafValues></_>
        <_>
          <internalNodes>
            0 -1 108 -5.6460639461874962e-04</internalNodes>
          <leafValues>
            2.8364276885986328e-01 -1.6240245103836060e-01</leafValues></_>
        <_>
          <internalNodes>
            0 -1 715 -1.7928387023857795e-05</internalNodes>
          <leafValues>
            1.8470323085784912e-01 -2.6517975330352783e-01</leafValues></_>
        <_>
          <internalNodes>
            0 -1 134 1.1976342648267746e-03</internalNodes>
          <leafValues>
            -1.8950535356998444e-01 2.9423457384109497e-01</leafValues></_>
        <_>
          <internalNodes>
            0 -1 619 1.4966821254347451e-05</internalNodes>
          <leafValues>
            -3.0490332841873169e-01 1.7941007018089294e-01</leafValues></_>
        <_>
          <internalNodes>
            0 -1 328 7.0134490728378296e-02</internalNodes>
          <leafValues>
            -1.8550471961498260e-01 3.1308761239051819e-01</leafValues></_>
        <_>
          <internalNodes>
            0 -1 886 5.0263205775991082e-04</internalNodes>
          <leafValues>
            1.4819288253784180e-01 -3.4492501616477966e-01</leafValues></_>
        <_>
          <internalNodes>
            0 -1 886 -9.0879353228956461e-04</internalNodes>
          <leafValues>
            -3.7848776578903198e-01 1.2642556428909302e-01</leafValues></_>
        <_>
          <internalNodes>
            0 -1 113 -1.2970328330993652e-02</internalNodes>
          <leafValues>
            -6.7440336942672729e-01 6.4499065279960632e-02</leafValues></_>
        <_>
          <internalNodes>
            0 -1 106 3.8731063250452280e-03</internalNodes>
          <leafValues>
            -1.2680356204509735e-01 4.3002879619598389e-01</leafValues></_>
        <_>
          <internalNodes>
            0 -1 672 1.2126475572586060e-02</internalNodes>
          <leafValues>
            6.9592326879501343e-02 -7.2939217090606689e-01</leafValues></_>
        <_>
          <internalNodes>
            0 -1 683 -5.3084024693816900e-04</internalNodes>
          <leafValues>
            2.5078871846199036e-01 -2.1137355268001556e-01</leafValues></_>
        <_>
          <internalNodes>
            0 -1 824 2.1685855463147163e-03</internalNodes>
          <leafValues>
            -1.3476690649986267e-01 3.6932453513145447e-01</leafValues></_>
        <_>
          <internalNodes>
            0 -1 827 -3.1769662164151669e-03</internalNodes>
          <leafValues>
            3.8613677024841309e-01 -1.1863989382982254e-01</leafValues></_>
        <_>
          <internalNodes>
            0 -1 203 5.6511670118197799e-04</internalNodes>
          <leafValues>
            -2.9579335451126099e-01 1.7373432219028473e-01</leafValues></_>
        <_>
          <internalNodes>
            0 -1 756 1.9217553199268878e-04</internalNodes>
          <leafValues>
            -3.7828129529953003e-01 1.4379136264324188e-01</leafValues></_>
        <_>
          <internalNodes>
            0 -1 643 -5.3437752649188042e-03</internalNodes>
          <leafValues>
            -4.2456445097923279e-01 1.1565250903367996e-01</leafValues></_></weakClassifiers></_>
    <!-- stage 11 -->
    <_>
      <maxWeakCount>38</maxWeakCount>
      <stageThreshold>-1.2207463979721069e+00</stageThreshold>
      <weakClassifiers>
        <_>
          <internalNodes>
            0 -1 316 3.1056741136126220e-04</internalNodes>
          <leafValues>
            -1.2023217231035233e-01 4.9939283728599548e-01</leafValues></_>
        <_>
          <internalNodes>
            0 -1 269 2.4119182489812374e-03</internalNodes>
          <leafValues>
            -1.8362970650196075e-01 3.5509493947029114e-01</leafValues></_>
        <_>
          <internalNodes>
            0 -1 506 1.6509206034243107e-03</internalNodes>
          <leafValues>
            1.5259250998497009e-01 -5.0789219141006470e-01</leafValues></_>
        <_>
          <internalNodes>
            0 -1 425 1.7173308134078979e-01</internalNodes>
          <leafValues>
            -1.6930988430976868e-01 4.2208999395370483e-01</leafValues></_>
        <_>
          <internalNodes>
            0 -1 431 -4.7866655513644218e-03</internalNodes>
          <leafValues>
            4.7920027375221252e-01 -1.4207457005977631e-01</leafValues></_>
        <_>
          <internalNodes>
            0 -1 331 1.5443917363882065e-03</internalNodes>
          <leafValues>
            -1.7503426969051361e-01 3.4764111042022705e-01</leafValues></_>
        <_>
          <internalNodes>
            0 -1 332 2.3599034175276756e-03</internalNodes>
          <leafValues>
            -1.2196853011846542e-01 5.3618806600570679e-01</leafValues></_>
        <_>
          <internalNodes>
            0 -1 398 -1.8112149555236101e-03</internalNodes>
          <leafValues>
            -5.3673011064529419e-01 1.2881244719028473e-01</leafValues></_>
        <_>
          <internalNodes>
            0 -1 229 1.8692396115511656e-03</internalNodes>
          <leafValues>
            1.3074895739555359e-01 -4.0453520417213440e-01</leafValues></_>
        <_>
          <internalNodes>
            0 -1 229 -7.4113835580646992e-04</internalNodes>
          <leafValues>
            -3.7297564744949341e-01 1.5672834217548370e-01</leafValues></_>
        <_>
          <internalNodes>
            0 -1 501 -6.6868838621303439e-04</internalNodes>
          <leafValues>
            1.6094864904880524e-01 -3.5623264312744141e-01</leafValues></_>
        <_>
          <internalNodes>
            0 -1 794 -4.2466295417398214e-04</internalNodes>
          <leafValues>
            2.1947585046291351e-01 -3.0454087257385254e-01</leafValues></_>
        <_>
          <internalNodes>
            0 -1 572 -7.8916025813668966e-04</internalNodes>
          <leafValues>
            3.4850275516510010e-01 -1.3793112337589264e-01</leafValues></_>
        <_>
          <internalNodes>
            0 -1 661 1.5698850620537996e-03</internalNodes>
          <leafValues>
            -3.5056734085083008e-01 1.5254601836204529e-01</leafValues></_>
        <_>
          <internalNodes>
            0 -1 598 -2.6528799207881093e-04</internalNodes>
          <leafValues>
            1.3648028671741486e-01 -3.8851773738861084e-01</leafValues></_>
        <_>
          <internalNodes>
            0 -1 11 9.6105076372623444e-02</internalNodes>
          <leafValues>
            -9.1724678874015808e-02 6.3219892978668213e-01</leafValues></_>
        <_>
          <internalNodes>
            0 -1 158 2.6449173688888550e-02</internalNodes>
          <leafValues>
            -1.4369526505470276e-01 3.5105058550834656e-01</leafValues></_>
        <_>
          <internalNodes>
            0 -1 601 1.1385977268218994e-03</internalNodes>
          <leafValues>
            2.2286853194236755e-01 -2.2072464227676392e-01</leafValues></_>
        <_>
          <internalNodes>
            0 -1 912 2.9126517474651337e-02</internalNodes>
          <leafValues>
            -1.0407351702451706e-01 5.5275142192840576e-01</leafValues></_>
        <_>
          <internalNodes>
            0 -1 396 -5.7659985031932592e-04</internalNodes>
          <leafValues>
            -6.1158561706542969e-01 9.2701293528079987e-02</leafValues></_>
        <_>
          <internalNodes>
            0 -1 926 -1.0166758671402931e-02</internalNodes>
          <leafValues>
            4.6543923020362854e-01 -1.2789928913116455e-01</leafValues></_>
        <_>
          <internalNodes>
            0 -1 567 1.0268175974488258e-02</internalNodes>
          <leafValues>
            1.0773432254791260e-01 -4.8218902945518494e-01</leafValues></_>
        <_>
          <internalNodes>
            0 -1 737 -1.6988891729852185e-05</internalNodes>
          <leafValues>
            1.4916133880615234e-01 -3.9060759544372559e-01</leafValues></_>
        <_>
          <internalNodes>
            0 -1 656 1.6442879568785429e-03</internalNodes>
          <leafValues>
            -1.3641801476478577e-01 4.0796741843223572e-01</leafValues></_>
        <_>
          <internalNodes>
            0 -1 769 -3.3806933060986921e-05</internalNodes>
          <leafValues>
            1.6795502603054047e-01 -3.0570706725120544e-01</leafValues></_>
        <_>
          <internalNodes>
            0 -1 394 -8.7180116679519415e-04</internalNodes>
          <leafValues>
            -5.3775662183761597e-01 8.3535380661487579e-02</leafValues></_>
        <_>
          <internalNodes>
            0 -1 645 1.7712394474074244e-03</internalNodes>
          <leafValues>
            -1.4271032810211182e-01 3.5177010297775269e-01</leafValues></_>
        <_>
          <internalNodes>
            0 -1 210 2.4727049749344587e-03</internalNodes>
          <leafValues>
            8.2075357437133789e-02 -6.4566391706466675e-01</leafValues></_>
        <_>
          <internalNodes>
            0 -1 647 5.8795209042727947e-04</internalNodes>
          <leafValues>
            -1.7576713860034943e-01 3.0178070068359375e-01</leafValues></_>
        <_>
          <internalNodes>
            0 -1 202 1.5696750779170543e-05</internalNodes>
          <leafValues>
            -2.0892123878002167e-01 2.1680311858654022e-01</leafValues></_>
        <_>
          <internalNodes>
            0 -1 610 1.6923937946557999e-02</internalNodes>
          <leafValues>
            8.1709861755371094e-02 -5.6566047668457031e-01</leafValues></_>
        <_>
          <internalNodes>
            0 -1 911 -2.8330208733677864e-03</internalNodes>
          <leafValues>
            5.3431224822998047e-01 -9.1881014406681061e-02</leafValues></_>
        <_>
          <internalNodes>
            0 -1 622 1.8152504708268680e-05</internalNodes>
          <leafValues>
            -3.7353381514549255e-01 1.2808798253536224e-01</leafValues></_>
        <_>
          <internalNodes>
            0 -1 925 -1.3853650540113449e-02</internalNodes>
          <leafValues>
            4.3815654516220093e-01 -1.1206311732530594e-01</leafValues></_>
        <_>
          <internalNodes>
            0 -1 784 3.1137049198150635e-02</internalNodes>
          <leafValues>
            1.0409969091415405e-01 -4.7364231944084167e-01</leafValues></_>
        <_>
          <internalNodes>
            0 -1 849 -6.1476067639887333e-04</internalNodes>
          <leafValues>
            2.3302151262760162e-01 -1.9815960526466370e-01</leafValues></_>
        <_>
          <internalNodes>
            0 -1 267 6.1763494159094989e-05</internalNodes>
          <leafValues>
            -3.6238774657249451e-01 1.2830138206481934e-01</leafValues></_>
        <_>
          <internalNodes>
            0 -1 405 6.0589173808693886e-03</internalNodes>
          <leafValues>
            -1.2487490475177765e-01 4.1193571686744690e-01</leafValues></_></weakClassifiers></_>
    <!-- stage 12 -->
    <_>
      <maxWeakCount>49</maxWeakCount>
      <stageThreshold>-1.3139224052429199e+00</stageThreshold>
      <weakClassifiers>
        <_>
          <internalNodes>
            0 -1 295 3.7954171421006322e-04</internalNodes>
          <leafValues>
            -2.6782833039760590e-02 5.2245384454727173e-01</leafValues></_>
        <_>
          <internalNodes>
            0 -1 184 -1.5183372888714075e-03</internalNodes>
          <leafValues>
            3.6548241972923279e-01 -1.6399796307086945e-01</leafValues></_>
        <_>
          <internalNodes>
            0 -1 478 7.8446790575981140e-04</internalNodes>
          <leafValues>
            -2.8419134020805359e-01 2.0599395036697388e-01</leafValues></_>
        <_>
          <internalNodes>
            0 -1 521 -1.7172150546684861e-04</internalNodes>
          <leafValues>
            -2.3898278176784515e-01 2.3441566526889801e-01</leafValues></_>
        <_>
          <internalNodes>
            0 -1 750 -2.3518351372331381e-03</internalNodes>
          <leafValues>
            2.9331359267234802e-01 -2.1419912576675415e-01</leafValues></_>
        <_>
          <internalNodes>
            0 -1 369 -2.9152615461498499e-03</internalNodes>
          <leafValues>
            2.3549376428127289e-01 -2.9099723696708679e-01</leafValues></_>
        <_>
          <internalNodes>
            0 -1 191 2.3441025987267494e-03</internalNodes>
          <leafValues>
            8.7648376822471619e-02 -6.0244637727737427e-01</leafValues></_>
        <_>
          <internalNodes>
            0 -1 628 -2.0325491204857826e-03</internalNodes>
          <leafValues>
            1.8695746362209320e-01 -3.5571959614753723e-01</leafValues></_>
        <_>
          <internalNodes>
            0 -1 401 1.6888343452592380e-05</internalNodes>
          <leafValues>
            -2.6222968101501465e-01 1.8532402813434601e-01</leafValues></_>
        <_>
          <internalNodes>
            0 -1 703 1.1304875370115042e-03</internalNodes>
          <leafValues>
            2.2062762081623077e-01 -2.3715597391128540e-01</leafValues></_>
        <_>
          <internalNodes>
            0 -1 28 2.2742636501789093e-02</internalNodes>
          <leafValues>
            1.6352529823780060e-01 -3.6661210656166077e-01</leafValues></_>
        <_>
          <internalNodes>
            0 -1 393 -4.8647884977981448e-04</internalNodes>
          <leafValues>
            -8.4307056665420532e-01 6.4395904541015625e-02</leafValues></_>
        <_>
          <internalNodes>
            0 -1 205 4.1271676309406757e-04</internalNodes>
          <leafValues>
            -2.5543341040611267e-01 1.8606986105442047e-01</leafValues></_>
        <_>
          <internalNodes>
            0 -1 90 3.5262567689642310e-04</internalNodes>
          <leafValues>
            1.1936685442924500e-01 -3.8018164038658142e-01</leafValues></_>
        <_>
          <internalNodes>
            0 -1 896 4.4377092272043228e-03</internalNodes>
          <leafValues>
            -9.4341263175010681e-02 5.8309495449066162e-01</leafValues></_>
        <_>
          <internalNodes>
            0 -1 90 -2.9363896464928985e-04</internalNodes>
          <leafValues>
            -3.6803585290908813e-01 1.3996419310569763e-01</leafValues></_>
        <_>
          <internalNodes>
            0 -1 780 -3.2540927641093731e-03</internalNodes>
          <leafValues>
            4.8616731166839600e-01 -1.1184746026992798e-01</leafValues></_>
        <_>
          <internalNodes>
            0 -1 226 3.5276603884994984e-03</internalNodes>
          <leafValues>
            -8.2918472588062286e-02 5.1894617080688477e-01</leafValues></_>
        <_>
          <internalNodes>
            0 -1 699 -1.3994718901813030e-03</internalNodes>
          <leafValues>
            -7.4178498983383179e-01 7.7883392572402954e-02</leafValues></_>
        <_>
          <internalNodes>
            0 -1 675 7.8747305087745190e-04</internalNodes>
          <leafValues>
            -2.4873127043247223e-01 2.1188345551490784e-01</leafValues></_>
        <_>
          <internalNodes>
            0 -1 337 3.3368645235896111e-03</internalNodes>
          <leafValues>
            -4.0982788801193237e-01 1.2353738397359848e-01</leafValues></_>
        <_>
          <internalNodes>
            0 -1 879 -5.2989651449024677e-03</internalNodes>
          <leafValues>
            -5.8511191606521606e-01 7.1019083261489868e-02</leafValues></_>
        <_>
          <internalNodes>
            0 -1 820 -4.3958299793303013e-03</internalNodes>
          <leafValues>
            5.1290309429168701e-01 -8.9393816888332367e-02</leafValues></_>
        <_>
          <internalNodes>
            0 -1 331 3.7634933833032846e-03</internalNodes>
          <leafValues>
            -9.3804858624935150e-02 4.4082894921302795e-01</leafValues></_>
        <_>
          <internalNodes>
            0 -1 612 -6.1478733550757170e-04</internalNodes>
          <leafValues>
            -4.6369892358779907e-01 1.0111440718173981e-01</leafValues></_>
        <_>
          <internalNodes>
            0 -1 220 -3.8436241447925568e-03</internalNodes>
          <leafValues>
            6.3226789236068726e-01 -8.0832801759243011e-02</leafValues></_>
        <_>
          <internalNodes>
            0 -1 143 -6.6927727311849594e-04</internalNodes>
          <leafValues>
            -3.0041432380676270e-01 1.5235565602779388e-01</leafValues></_>
        <_>
          <internalNodes>
            0 -1 532 4.1751493699848652e-04</internalNodes>
          <leafValues>
            -2.5499519705772400e-01 1.7741386592388153e-01</leafValues></_>
        <_>
          <internalNodes>
            0 -1 36 1.4148503541946411e-01</internalNodes>
          <leafValues>
            -1.0502783954143524e-01 4.6689742803573608e-01</leafValues></_>
        <_>
          <internalNodes>
            0 -1 836 5.4472279734909534e-03</internalNodes>
          <leafValues>
            -1.5998809039592743e-01 2.7080112695693970e-01</leafValues></_>
        <_>
          <internalNodes>
            0 -1 829 -4.4161736965179443e-02</internalNodes>
          <leafValues>
            -6.8857759237289429e-01 6.6260017454624176e-02</leafValues></_>
        <_>
          <internalNodes>
            0 -1 163 1.7752443253993988e-01</internalNodes>
          <leafValues>
            4.7298945486545563e-02 -7.6374262571334839e-01</leafValues></_>
        <_>
          <internalNodes>
            0 -1 927 -8.0065447837114334e-03</internalNodes>
          <leafValues>
            3.3360674977302551e-01 -1.3699464499950409e-01</leafValues></_>
        <_>
          <internalNodes>
            0 -1 754 4.4656507670879364e-03</internalNodes>
          <leafValues>
            1.0553482174873352e-01 -4.7417822480201721e-01</leafValues></_>
        <_>
          <internalNodes>
            0 -1 498 1.9899704493582249e-03</internalNodes>
          <leafValues>
            -1.9766880571842194e-01 2.2917242348194122e-01</leafValues></_>
        <_>
          <internalNodes>
            0 -1 218 1.5511861420236528e-05</internalNodes>
          <leafValues>
            -2.9561716318130493e-01 1.6258369386196136e-01</leafValues></_>
        <_>
          <internalNodes>
            0 -1 97 -9.8787114024162292e-02</internalNodes>
          <leafValues>
            6.0754621028900146e-01 -7.2106815874576569e-02</leafValues></_>
        <_>
          <internalNodes>
            0 -1 590 -2.0471859723329544e-02</internalNodes>
          <leafValues>
            1.9184011220932007e-01 -2.1777462959289551e-01</leafValues></_>
        <_>
          <internalNodes>
            0 -1 862 -7.8865960240364075e-03</internalNodes>
          <leafValues>
            3.2190799713134766e-01 -1.2661126255989075e-01</leafValues></_>
        <_>
          <internalNodes>
            0 -1 764 1.0637212544679642e-03</internalNodes>
          <leafValues>
            -1.8547858297824860e-01 2.0575653016567230e-01</leafValues></_>
        <_>
          <internalNodes>
            0 -1 608 -1.6407594084739685e-02</internalNodes>
          <leafValues>
            3.5449299216270447e-01 -1.1626262217760086e-01</leafValues></_>
        <_>
          <internalNodes>
            0 -1 712 6.9620029535144567e-05</internalNodes>
          <leafValues>
            -2.8610855340957642e-01 1.4262865483760834e-01</leafValues></_>
        <_>
          <internalNodes>
            0 -1 61 -6.9034397602081299e-03</internalNodes>
          <leafValues>
            2.8662025928497314e-01 -1.4243498444557190e-01</leafValues></_>
        <_>
          <internalNodes>
            0 -1 81 3.9386656135320663e-04</internalNodes>
          <leafValues>
            -1.6824771463871002e-01 2.2320477664470673e-01</leafValues></_>
        <_>
          <internalNodes>
            0 -1 614 1.8728700524661690e-04</internalNodes>
          <leafValues>
            8.2794286310672760e-02 -5.2990072965621948e-01</leafValues></_>
        <_>
          <internalNodes>
            0 -1 724 -3.5596196539700031e-03</internalNodes>
          <leafValues>
            4.2434015870094299e-01 -1.0060410946607590e-01</leafValues></_>
        <_>
          <internalNodes>
            0 -1 494 -8.9074147399514914e-04</internalNodes>
          <leafValues>
            -7.5496447086334229e-01 6.2272075563669205e-02</leafValues></_>
        <_>
          <internalNodes>
            0 -1 184 2.0675137639045715e-03</internalNodes>
          <leafValues>
            -1.0814844071865082e-01 4.1385629773139954e-01</leafValues></_>
        <_>
          <internalNodes>
            0 -1 119 1.5829019248485565e-03</internalNodes>
          <leafValues>
            -1.2170504033565521e-01 3.4222269058227539e-01</leafValues></_></weakClassifiers></_>
    <!-- stage 13 -->
    <_>
      <maxWeakCount>55</maxWeakCount>
      <stageThreshold>-1.4006872177124023e+00</stageThreshold>
      <weakClassifiers>
        <_>
          <internalNodes>
            0 -1 309 5.1731755957007408e-04</internalNodes>
          <leafValues>
            -1.3155190646648407e-01 4.6158209443092346e-01</leafValues></_>
        <_>
          <internalNodes>
            0 -1 688 6.4404094591736794e-03</internalNodes>
          <leafValues>
            -2.4225802719593048e-01 2.4845217168331146e-01</leafValues></_>
        <_>
          <internalNodes>
            0 -1 361 4.9805594608187675e-04</internalNodes>
          <leafValues>
            2.0220455527305603e-01 -2.6873463392257690e-01</leafValues></_>
        <_>
          <internalNodes>
            0 -1 556 7.2660075966268778e-04</internalNodes>
          <leafValues>
            -2.2638233006000519e-01 2.5593954324722290e-01</leafValues></_>
        <_>
          <internalNodes>
            0 -1 188 4.0308749303221703e-03</internalNodes>
          <leafValues>
            -7.0904016494750977e-01 7.5770027935504913e-02</leafValues></_>
        <_>
          <internalNodes>
            0 -1 603 1.5746550343465060e-04</internalNodes>
          <leafValues>
            -4.0427106618881226e-01 1.3342866301536560e-01</leafValues></_>
        <_>
          <internalNodes>
            0 -1 558 1.9100718200206757e-03</internalNodes>
          <leafValues>
            -1.6659554839134216e-01 5.0017887353897095e-01</leafValues></_>
        <_>
          <internalNodes>
            0 -1 299 -1.6430395189672709e-03</internalNodes>
          <leafValues>
            -3.8196724653244019e-01 1.4430142939090729e-01</leafValues></_>
        <_>
          <internalNodes>
            0 -1 9 2.1799185872077942e-01</internalNodes>
          <leafValues>
            8.0075711011886597e-02 -5.5066108703613281e-01</leafValues></_>
        <_>
          <internalNodes>
            0 -1 38 -1.9553221762180328e-01</internalNodes>
          <leafValues>
            6.0136669874191284e-01 -1.0904387384653091e-01</leafValues></_>
        <_>
          <internalNodes>
            0 -1 464 2.6235934346914291e-03</internalNodes>
          <leafValues>
            1.3998723030090332e-01 -5.2070975303649902e-01</leafValues></_>
        <_>
          <internalNodes>
            0 -1 549 -6.7876307293772697e-03</internalNodes>
          <leafValues>
            -5.4729306697845459e-01 5.3356859833002090e-02</leafValues></_>
        <_>
          <internalNodes>
            0 -1 386 2.0820586942136288e-03</internalNodes>
          <leafValues>
            6.1018947511911392e-02 -6.5631073713302612e-01</leafValues></_>
        <_>
          <internalNodes>
            0 -1 875 -2.6621553115546703e-03</internalNodes>
          <leafValues>
            4.6178728342056274e-01 -9.4152465462684631e-02</leafValues></_>
        <_>
          <internalNodes>
            0 -1 924 -8.3436723798513412e-03</internalNodes>
          <leafValues>
            3.5187861323356628e-01 -1.1380421370267868e-01</leafValues></_>
        <_>
          <internalNodes>
            0 -1 453 2.2328132763504982e-02</internalNodes>
          <leafValues>
            6.0108445584774017e-02 -7.2299963235855103e-01</leafValues></_>
        <_>
          <internalNodes>
            0 -1 773 5.7503846473991871e-03</internalNodes>
          <leafValues>
            6.6056177020072937e-02 -4.7083985805511475e-01</leafValues></_>
        <_>
          <internalNodes>
            0 -1 773 -2.4857604876160622e-03</internalNodes>
          <leafValues>
            -3.3881568908691406e-01 1.1580453068017960e-01</leafValues></_>
        <_>
          <internalNodes>
            0 -1 85 -2.9065269045531750e-03</internalNodes>
          <leafValues>
            3.9105090498924255e-01 -9.7066752612590790e-02</leafValues></_>
        <_>
          <internalNodes>
            0 -1 845 -1.3875961303710938e-03</internalNodes>
          <leafValues>
            2.3302778601646423e-01 -1.8688397109508514e-01</leafValues></_>
        <_>
          <internalNodes>
            0 -1 735 -1.0350288357585669e-03</internalNodes>
          <leafValues>
            2.9433283209800720e-01 -1.3074655830860138e-01</leafValues></_>
        <_>
          <internalNodes>
            0 -1 648 7.8377211466431618e-03</internalNodes>
          <leafValues>
            -1.3793808221817017e-01 2.9218989610671997e-01</leafValues></_>
        <_>
          <internalNodes>
            0 -1 713 -2.6202481240034103e-04</internalNodes>
          <leafValues>
            -3.2176122069358826e-01 1.2001437693834305e-01</leafValues></_>
        <_>
          <internalNodes>
            0 -1 314 -2.1629281342029572e-02</internalNodes>
          <leafValues>
            6.1062455177307129e-01 -6.5304353833198547e-02</leafValues></_>
        <_>
          <internalNodes>
            0 -1 616 1.8787384760798886e-05</internalNodes>
          <leafValues>
            -4.3725207448005676e-01 1.2029173970222473e-01</leafValues></_>
        <_>
          <internalNodes>
            0 -1 83 3.2888066489249468e-03</internalNodes>
          <leafValues>
            -8.7068311870098114e-02 4.9216124415397644e-01</leafValues></_>
        <_>
          <internalNodes>
            0 -1 665 3.9267092943191528e-02</internalNodes>
          <leafValues>
            6.7185245454311371e-02 -6.4402538537979126e-01</leafValues></_>
        <_>
          <internalNodes>
            0 -1 515 -1.2165555963292718e-03</internalNodes>
          <leafValues>
            -7.2505873441696167e-01 4.3335683643817902e-02</leafValues></_>
        <_>
          <internalNodes>
            0 -1 819 -8.4572080522775650e-03</internalNodes>
          <leafValues>
            4.1964328289031982e-01 -9.8017349839210510e-02</leafValues></_>
        <_>
          <internalNodes>
            0 -1 818 8.9454967528581619e-03</internalNodes>
          <leafValues>
            -7.8006930649280548e-02 4.4702970981597900e-01</leafValues></_>
        <_>
          <internalNodes>
            0 -1 201 -3.3077009720727801e-04</internalNodes>
          <leafValues>
            -1.6775821149349213e-01 2.4189470708370209e-01</leafValues></_>
        <_>
          <internalNodes>
            0 -1 296 1.6190966125577688e-03</internalNodes>
          <leafValues>
            -1.6653704643249512e-01 2.7352312207221985e-01</leafValues></_>
        <_>
          <internalNodes>
            0 -1 322 -1.4908070443198085e-03</internalNodes>
          <leafValues>
            2.8294432163238525e-01 -1.6042293608188629e-01</leafValues></_>
        <_>
          <internalNodes>
            0 -1 693 -5.7907879818230867e-04</internalNodes>
          <leafValues>
            -7.9635590314865112e-01 6.5931424498558044e-02</leafValues></_>
        <_>
          <internalNodes>
            0 -1 279 7.4620661325752735e-04</internalNodes>
          <leafValues>
            4.4540606439113617e-02 -7.3121786117553711e-01</leafValues></_>
        <_>
          <internalNodes>
            0 -1 558 -1.3738183770328760e-03</internalNodes>
          <leafValues>
            2.8213414549827576e-01 -1.2914983928203583e-01</leafValues></_>
        <_>
          <internalNodes>
            0 -1 664 -1.5176678076386452e-02</internalNodes>
          <leafValues>
            -7.3716074228286743e-01 5.7298343628644943e-02</leafValues></_>
        <_>
          <internalNodes>
            0 -1 916 1.4198420103639364e-03</internalNodes>
          <leafValues>
            -3.4666141867637634e-01 1.0574560612440109e-01</leafValues></_>
        <_>
          <internalNodes>
            0 -1 136 -7.6154904672876000e-04</internalNodes>
          <leafValues>
            -2.3485217988491058e-01 1.7943029105663300e-01</leafValues></_>
        <_>
          <internalNodes>
            0 -1 365 -1.8180959159508348e-04</internalNodes>
          <leafValues>
            3.4523364901542664e-01 -1.2005157023668289e-01</leafValues></_>
        <_>
          <internalNodes>
            0 -1 367 1.8090186640620232e-03</internalNodes>
          <leafValues>
            -1.6042628884315491e-01 2.8691971302032471e-01</leafValues></_>
        <_>
          <internalNodes>
            0 -1 300 2.3937484365887940e-04</internalNodes>
          <leafValues>
            -4.1259106993675232e-01 1.2540391087532043e-01</leafValues></_>
        <_>
          <internalNodes>
            0 -1 851 -1.7335076699964702e-04</internalNodes>
          <leafValues>
            -2.2815519571304321e-01 1.8401876091957092e-01</leafValues></_>
        <_>
          <internalNodes>
            0 -1 94 8.5991056403145194e-04</internalNodes>
          <leafValues>
            1.3096117973327637e-01 -3.1618282198905945e-01</leafValues></_>
        <_>
          <internalNodes>
            0 -1 246 -1.0479502379894257e-02</internalNodes>
          <leafValues>
            -7.2612017393112183e-01 5.2076723426580429e-02</leafValues></_>
        <_>
          <internalNodes>
            0 -1 869 -1.9023499917238951e-03</internalNodes>
          <leafValues>
            3.5569503903388977e-01 -1.1501836031675339e-01</leafValues></_>
        <_>
          <internalNodes>
            0 -1 687 6.0240231687203050e-04</internalNodes>
          <leafValues>
            -2.4679404497146606e-01 1.5939797461032867e-01</leafValues></_>
        <_>
          <internalNodes>
            0 -1 271 -7.4100727215409279e-03</internalNodes>
          <leafValues>
            -8.9078426361083984e-01 4.0583577007055283e-02</leafValues></_>
        <_>
          <internalNodes>
            0 -1 874 2.3678941652178764e-03</internalNodes>
          <leafValues>
            -1.2221222370862961e-01 3.2199677824974060e-01</leafValues></_>
        <_>
          <internalNodes>
            0 -1 572 -4.5302364742383361e-04</internalNodes>
          <leafValues>
            2.4300593137741089e-01 -1.5644235908985138e-01</leafValues></_>
        <_>
          <internalNodes>
            0 -1 278 -9.1744244098663330e-02</internalNodes>
          <leafValues>
            3.0053690075874329e-01 -1.2852010130882263e-01</leafValues></_>
        <_>
          <internalNodes>
            0 -1 811 2.6076295762322843e-04</internalNodes>
          <leafValues>
            1.6697871685028076e-01 -2.6526531577110291e-01</leafValues></_>
        <_>
          <internalNodes>
            0 -1 103 -2.7204653248190880e-02</internalNodes>
          <leafValues>
            4.2105299234390259e-01 -8.6901500821113586e-02</leafValues></_>
        <_>
          <internalNodes>
            0 -1 539 2.5162934325635433e-03</internalNodes>
          <leafValues>
            -3.5788190364837646e-01 1.3231964409351349e-01</leafValues></_>
        <_>
          <internalNodes>
            0 -1 765 -1.8504911568015814e-03</internalNodes>
          <leafValues>
            1.5774290263652802e-01 -2.7644667029380798e-01</leafValues></_></weakClassifiers></_>
    <!-- stage 14 -->
    <_>
      <maxWeakCount>56</maxWeakCount>
      <stageThreshold>-1.3346129655838013e+00</stageThreshold>
      <weakClassifiers>
        <_>
          <internalNodes>
            0 -1 395 1.2680226936936378e-03</internalNodes>
          <leafValues>
            4.0842649340629578e-01 -3.7834692001342773e-01</leafValues></_>
        <_>
          <internalNodes>
            0 -1 864 8.2760170102119446e-02</internalNodes>
          <leafValues>
            -1.0257778316736221e-01 5.9342050552368164e-01</leafValues></_>
        <_>
          <internalNodes>
            0 -1 615 1.7283191482420079e-05</internalNodes>
          <leafValues>
            -2.2972840070724487e-01 2.0724359154701233e-01</leafValues></_>
        <_>
          <internalNodes>
            0 -1 270 3.0783917754888535e-03</internalNodes>
          <leafValues>
            -1.7525413632392883e-01 2.9468435049057007e-01</leafValues></_>
        <_>
          <internalNodes>
            0 -1 367 2.8123599477112293e-03</internalNodes>
          <leafValues>
            -1.8826669454574585e-01 3.2208180427551270e-01</leafValues></_>
        <_>
          <internalNodes>
            0 -1 123 4.7039661556482315e-02</internalNodes>
          <leafValues>
            8.0512732267379761e-02 -5.1826822757720947e-01</leafValues></_>
        <_>
          <internalNodes>
            0 -1 489 1.5603873180225492e-03</internalNodes>
          <leafValues>
            -1.8522554636001587e-01 2.5376850366592407e-01</leafValues></_>
        <_>
          <internalNodes>
            0 -1 404 3.9709564589429647e-05</internalNodes>
          <leafValues>
            -2.5838187336921692e-01 1.7175921797752380e-01</leafValues></_>
        <_>
          <internalNodes>
            0 -1 694 4.6494934940710664e-04</internalNodes>
          <leafValues>
            -2.1241474151611328e-01 2.0745304226875305e-01</leafValues></_>
        <_>
          <internalNodes>
            0 -1 501 -5.1444221753627062e-04</internalNodes>
          <leafValues>
            1.4309282600879669e-01 -3.5110530257225037e-01</leafValues></_>
        <_>
          <internalNodes>
            0 -1 100 1.2717598676681519e-01</internalNodes>
          <leafValues>
            -8.8257730007171631e-02 5.4029750823974609e-01</leafValues></_>
        <_>
          <internalNodes>
            0 -1 853 2.5420321617275476e-04</internalNodes>
          <leafValues>
            1.3344135880470276e-01 -3.4907424449920654e-01</leafValues></_>
        <_>
          <internalNodes>
            0 -1 853 -2.2786797489970922e-04</internalNodes>
          <leafValues>
            -3.9476156234741211e-01 1.4226256310939789e-01</leafValues></_>
        <_>
          <internalNodes>
            0 -1 797 -1.2678371276706457e-03</internalNodes>
          <leafValues>
            2.0094275474548340e-01 -2.2562049329280853e-01</leafValues></_>
        <_>
          <internalNodes>
            0 -1 131 6.9657532731071115e-04</internalNodes>
          <leafValues>
            -4.1102910041809082e-01 1.0998198390007019e-01</leafValues></_>
        <_>
          <internalNodes>
            0 -1 459 -9.2414335813373327e-04</internalNodes>
          <leafValues>
            3.5045748949050903e-01 -1.6516284644603729e-01</leafValues></_>
        <_>
          <internalNodes>
            0 -1 570 5.9139565564692020e-04</internalNodes>
          <leafValues>
            -1.7326527833938599e-01 2.5332745909690857e-01</leafValues></_>
        <_>
          <internalNodes>
            0 -1 284 -6.4313842449337244e-04</internalNodes>
          <leafValues>
            -2.2412662208080292e-01 2.1103502810001373e-01</leafValues></_>
        <_>
          <internalNodes>
            0 -1 497 1.4586525503546000e-03</internalNodes>
          <leafValues>
            4.8453517258167267e-02 -7.5953471660614014e-01</leafValues></_>
        <_>
          <internalNodes>
            0 -1 19 3.5790276527404785e-01</internalNodes>
          <leafValues>
            8.3462178707122803e-02 -4.9840971827507019e-01</leafValues></_>
        <_>
          <internalNodes>
            0 -1 852 3.5503430990502238e-04</internalNodes>
          <leafValues>
            1.7825512588024139e-01 -2.6045101881027222e-01</leafValues></_>
        <_>
          <internalNodes>
            0 -1 259 -1.3735846150666475e-03</internalNodes>
          <leafValues>
            -4.7614386677742004e-01 9.0897284448146820e-02</leafValues></_>
        <_>
          <internalNodes>
            0 -1 554 2.1036593243479729e-02</internalNodes>
          <leafValues>
            5.9674639254808426e-02 -5.9944462776184082e-01</leafValues></_>
        <_>
          <internalNodes>
            0 -1 69 3.3633958082646132e-03</internalNodes>
          <leafValues>
            -1.0361542552709579e-01 4.1699764132499695e-01</leafValues></_>
        <_>
          <internalNodes>
            0 -1 110 -2.6960277464240789e-03</internalNodes>
          <leafValues>
            2.8077858686447144e-01 -1.4556960761547089e-01</leafValues></_>
        <_>
          <internalNodes>
            0 -1 173 4.8579145222902298e-03</internalNodes>
          <leafValues>
            -1.4675806462764740e-01 2.3901382088661194e-01</leafValues></_>
        <_>
          <internalNodes>
            0 -1 363 -1.3317773118615150e-03</internalNodes>
          <leafValues>
            -8.7607163190841675e-01 4.2076151818037033e-02</leafValues></_>
        <_>
          <internalNodes>
            0 -1 722 8.7857944890856743e-03</internalNodes>
          <leafValues>
            -1.0962481796741486e-01 3.1678035855293274e-01</leafValues></_>
        <_>
          <internalNodes>
            0 -1 914 -3.3841417171061039e-03</internalNodes>
          <leafValues>
            5.0383007526397705e-01 -6.4977847039699554e-02</leafValues></_>
        <_>
          <internalNodes>
            0 -1 375 -2.8686481527984142e-03</internalNodes>
          <leafValues>
            -8.1538051366806030e-01 4.7950539737939835e-02</leafValues></_>
        <_>
          <internalNodes>
            0 -1 220 2.3722373880445957e-03</internalNodes>
          <leafValues>
            -1.0469333827495575e-01 3.4529179334640503e-01</leafValues></_>
        <_>
          <internalNodes>
            0 -1 612 1.5509752556681633e-03</internalNodes>
          <leafValues>
            7.2903200984001160e-02 -4.8607388138771057e-01</leafValues></_>
        <_>
          <internalNodes>
            0 -1 238 7.8482634853571653e-04</internalNodes>
          <leafValues>
            -1.5609450638294220e-01 2.1029658615589142e-01</leafValues></_>
        <_>
          <internalNodes>
            0 -1 239 2.2241855040192604e-03</internalNodes>
          <leafValues>
            -1.0355284810066223e-01 3.8277772068977356e-01</leafValues></_>
        <_>
          <internalNodes>
            0 -1 244 1.8323620315641165e-04</internalNodes>
          <leafValues>
            -5.3351289033889771e-01 6.4113967120647430e-02</leafValues></_>
        <_>
          <internalNodes>
            0 -1 336 8.5646603256464005e-03</internalNodes>
          <leafValues>
            -7.3896810412406921e-02 4.8944377899169922e-01</leafValues></_>
        <_>
          <internalNodes>
            0 -1 635 3.2459263456985354e-04</internalNodes>
          <leafValues>
            -2.3258376121520996e-01 1.7936195433139801e-01</leafValues></_>
        <_>
          <internalNodes>
            0 -1 213 -1.9599365070462227e-02</internalNodes>
          <leafValues>
            5.5937641859054565e-01 -6.1690688133239746e-02</leafValues></_>
        <_>
          <internalNodes>
            0 -1 630 -8.0014509148895741e-04</internalNodes>
          <leafValues>
            -4.0192329883575439e-01 1.0549940913915634e-01</leafValues></_>
        <_>
          <internalNodes>
            0 -1 192 1.4190608635544777e-03</internalNodes>
          <leafValues>
            4.0891297161579132e-02 -6.7412149906158447e-01</leafValues></_>
        <_>
          <internalNodes>
            0 -1 774 2.9397726058959961e-01</internalNodes>
          <leafValues>
            3.4017041325569153e-02 -8.3708930015563965e-01</leafValues></_>
        <_>
          <internalNodes>
            0 -1 481 2.6524108834564686e-03</internalNodes>
          <leafValues>
            -1.9914221763610840e-01 1.6752889752388000e-01</leafValues></_>
        <_>
          <internalNodes>
            0 -1 120 5.5281154345721006e-04</internalNodes>
          <leafValues>
            1.0784243792295456e-01 -3.2778570055961609e-01</leafValues></_>
        <_>
          <internalNodes>
            0 -1 31 7.1539846248924732e-04</internalNodes>
          <leafValues>
            1.1506788432598114e-01 -2.9808428883552551e-01</leafValues></_>
        <_>
          <internalNodes>
            0 -1 1 2.4250552058219910e-01</internalNodes>
          <leafValues>
            -1.5142621099948883e-01 2.3046407103538513e-01</leafValues></_>
        <_>
          <internalNodes>
            0 -1 220 -2.0042769610881805e-03</internalNodes>
          <leafValues>
            4.1181427240371704e-01 -9.2496655881404877e-02</leafValues></_>
        <_>
          <internalNodes>
            0 -1 810 1.5742246760055423e-03</internalNodes>
          <leafValues>
            -2.0049594342708588e-01 1.8119876086711884e-01</leafValues></_>
        <_>
          <internalNodes>
            0 -1 286 1.9347814668435603e-04</internalNodes>
          <leafValues>
            -1.7981117963790894e-01 1.9534119963645935e-01</leafValues></_>
        <_>
          <internalNodes>
            0 -1 301 1.5938589058350772e-05</internalNodes>
          <leafValues>
            -2.3319242894649506e-01 1.8162988126277924e-01</leafValues></_>
        <_>
          <internalNodes>
            0 -1 730 4.1815177537500858e-03</internalNodes>
          <leafValues>
            -2.4460999667644501e-01 1.3769486546516418e-01</leafValues></_>
        <_>
          <internalNodes>
            0 -1 904 5.5160090327262878e-02</internalNodes>
          <leafValues>
            5.4816026240587234e-02 -6.6437566280364990e-01</leafValues></_>
        <_>
          <internalNodes>
            0 -1 102 1.9328981637954712e-02</internalNodes>
          <leafValues>
            -4.1983842849731445e-01 8.0636933445930481e-02</leafValues></_>
        <_>
          <internalNodes>
            0 -1 8 -8.9023821055889130e-04</internalNodes>
          <leafValues>
            -2.8638151288032532e-01 1.2726452946662903e-01</leafValues></_>
        <_>
          <internalNodes>
            0 -1 390 2.5033599231392145e-03</internalNodes>
          <leafValues>
            4.0545098483562469e-02 -8.0738812685012817e-01</leafValues></_>
        <_>
          <internalNodes>
            0 -1 725 2.3207231424748898e-03</internalNodes>
          <leafValues>
            -9.4205774366855621e-02 4.3630555272102356e-01</leafValues></_>
        <_>
          <internalNodes>
            0 -1 572 -7.2860566433519125e-04</internalNodes>
          <leafValues>
            2.6846459507942200e-01 -1.3154822587966919e-01</leafValues></_></weakClassifiers></_>
    <!-- stage 15 -->
    <_>
      <maxWeakCount>60</maxWeakCount>
      <stageThreshold>-1.2904937267303467e+00</stageThreshold>
      <weakClassifiers>
        <_>
          <internalNodes>
            0 -1 414 2.4423585273325443e-04</internalNodes>
          <leafValues>
            -1.8395574390888214e-01 4.3235370516777039e-01</leafValues></_>
        <_>
          <internalNodes>
            0 -1 433 -9.1517567634582520e-03</internalNodes>
          <leafValues>
            4.0291887521743774e-01 -1.0858144611120224e-01</leafValues></_>
        <_>
          <internalNodes>
            0 -1 268 6.9323513889685273e-04</internalNodes>
          <leafValues>
            -1.2445661425590515e-01 3.8467675447463989e-01</leafValues></_>
        <_>
          <internalNodes>
            0 -1 374 -8.3505380898714066e-03</internalNodes>
          <leafValues>
            1.3770326972007751e-01 -3.3658942580223083e-01</leafValues></_>
        <_>
          <internalNodes>
            0 -1 372 -1.9053644791711122e-04</internalNodes>
          <leafValues>
            1.2761756777763367e-01 -3.3031550049781799e-01</leafValues></_>
        <_>
          <internalNodes>
            0 -1 511 8.2290673162788153e-04</internalNodes>
          <leafValues>
            -1.9133795797824860e-01 2.5716269016265869e-01</leafValues></_>
        <_>
          <internalNodes>
            0 -1 508 1.6184811101993546e-05</internalNodes>
          <leafValues>
            -2.9366093873977661e-01 1.7268335819244385e-01</leafValues></_>
        <_>
          <internalNodes>
            0 -1 199 1.6398339066654444e-03</internalNodes>
          <leafValues>
            1.1637053638696671e-01 -3.9280074834823608e-01</leafValues></_>
        <_>
          <internalNodes>
            0 -1 536 -3.7947020027786493e-03</internalNodes>
          <leafValues>
            3.9724123477935791e-01 -1.1605469882488251e-01</leafValues></_>
        <_>
          <internalNodes>
            0 -1 860 1.3558179140090942e-02</internalNodes>
          <leafValues>
            -5.0953589379787445e-02 5.9827041625976563e-01</leafValues></_>
        <_>
          <internalNodes>
            0 -1 574 6.2632155604660511e-03</internalNodes>
          <leafValues>
